svm_type c_svc
kernel_type rbf
gamma 0.5
nr_class 2
total_sv 1082
rho -0.5589746733586276
label 1 -1
probA -0.2633671334694731
probB -0.020179756532133605
nr_sv 553 529
SV
1.0 1:0.24660968695685898 2:11.0 
1.0 1:0.19881750555664923 2:32.0 
1.0 1:0.2644467635240269 2:3.0 
1.0 1:0.15101500760709954 2:5.0 
1.0 1:0.0644227914208309 2:3.0 
1.0 1:0.16684279230457194 2:24.0 
1.0 1:0.06154574548966636 2:1.0 
1.0 1:0.24954235660745017 2:5.0 
1.0 1:0.27168755054560384 2:52.0 
1.0 1:0.09812778536500866 2:6.0 
1.0 1:0.250220163067745 2:11.0 
1.0 1:0.12890873930138536 2:24.0 
1.0 1:0.2591307395389587 2:23.0 
0.09332871229839966 1:0.2862674795375733 2:71.0 
1.0 1:0.2579238037983036 2:20.0 
1.0 1:0.27212400309857027 2:34.0 
1.0 1:0.4560737814793552 2:14.0 
1.0 1:0.23296249913806844 2:13.0 
0.2751042166044402 1:0.2544177583191577 2:115.0 
1.0 1:0.2905649556005914 2:26.0 
1.0 1:0.21074993392022648 2:29.0 
1.0 1:0.06933752452815363 2:2.0 
1.0 1:0.26901772598907703 2:24.0 
0.594377653664093 1:0.0 2:0.0 
1.0 1:0.09083768323888668 2:3.0 
1.0 1:0.17620193273403853 2:40.0 
1.0 1:0.09729732630620916 2:1.0 
1.0 1:0.17571198121690243 2:39.0 
1.0 1:0.17918710044277342 2:19.0 
1.0 1:0.0 2:0.0 
1.0 1:0.14480712769588663 2:14.0 
1.0 1:0.03411945625947578 2:8.0 
1.0 1:0.015499685165842568 2:1.0 
1.0 1:0.2512699419684951 2:6.0 
1.0 1:0.26247630985700043 2:44.0 
1.0 1:0.25322445051574977 2:13.0 
1.0 1:0.28980095173388337 2:35.0 
1.0 1:0.15241289730010193 2:4.0 
1.0 1:0.11561146751289911 2:8.0 
1.0 1:0.20142618714909527 2:13.0 
1.0 1:0.15331034998544327 2:23.0 
1.0 1:0.19613673449070534 2:5.0 
0.21460214291901233 1:0.196505744781154 2:72.0 
1.0 1:0.21945093393781417 2:22.0 
1.0 1:0.06930520620576447 2:5.0 
1.0 1:0.0989565616659599 2:3.0 
1.0 1:0.2303932535288566 2:32.0 
1.0 1:0.06171954827142899 2:14.0 
1.0 1:0.19902283334918383 2:9.0 
1.0 1:0.21416136922934387 2:51.0 
1.0 1:0.10072787050317251 2:1.0 
1.0 1:0.0 2:0.0 
0.1438671029781063 1:0.14402095496370335 2:43.0 
1.0 1:0.12811395556557303 2:15.0 
1.0 1:0.216661812307366 2:4.0 
1.0 1:0.12803141422757522 2:4.0 
1.0 1:0.015767396124594983 2:3.0 
1.0 1:0.2413443787484609 2:15.0 
1.0 1:0.13363062095621217 2:2.0 
1.0 1:0.2507242875848462 2:22.0 
0.5371021857826073 1:0.23108538429920722 2:32.0 
1.0 1:0.11972912094634425 2:16.0 
1.0 1:0.20887978116297765 2:21.0 
1.0 1:0.1941201824053597 2:17.0 
1.0 1:0.056709695654772234 2:7.0 
0.1367294869629509 1:0.32926179497901653 2:80.0 
1.0 1:0.20655818871259934 2:29.0 
1.0 1:0.11368166544570094 2:12.0 
1.0 1:0.2269769297812357 2:28.0 
1.0 1:0.0961262004168002 2:2.0 
1.0 1:0.2456235860635626 2:12.0 
1.0 1:0.29920282735666237 2:27.0 
1.0 1:0.2334863710479926 2:47.0 
1.0 1:0.21418864874494362 2:6.0 
1.0 1:0.21402220972342473 2:9.0 
1.0 1:0.2794807625370536 2:16.0 
1.0 1:0.2294694189184106 2:34.0 
1.0 1:0.12184469202896522 2:23.0 
0.1846020032962972 1:0.18911594747281057 2:88.0 
1.0 1:0.23186078582515793 2:11.0 
1.0 1:0.026279416561381833 2:1.0 
1.0 1:0.1434490744940285 2:16.0 
0.291477544276433 1:0.2688930073010483 2:98.0 
0.10835264843451176 1:0.3223686808830743 2:84.0 
1.0 1:0.17387562050751776 2:15.0 
1.0 1:0.12089196843200625 2:3.0 
1.0 1:0.0 2:0.0 
1.0 1:0.0 2:0.0 
1.0 1:0.012162606385262996 2:1.0 
1.0 1:0.22328904264708752 2:15.0 
1.0 1:0.16265798109624596 2:3.0 
0.4395360903612399 1:0.2337297654928877 2:48.0 
1.0 1:0.03323745232194751 2:2.0 
1.0 1:0.15269799790086067 2:1.0 
1.0 1:0.13926548723722781 2:19.0 
1.0 1:0.15534712747612348 2:3.0 
1.0 1:0.27182002187324245 2:5.0 
1.0 1:0.20727029611723097 2:6.0 
1.0 1:0.05950954506936943 2:12.0 
1.0 1:0.150283349327479 2:7.0 
1.0 1:0.22400803546227221 2:11.0 
1.0 1:0.05752647832596544 2:5.0 
1.0 1:0.026144527986318486 2:4.0 
1.0 1:0.2522617314440055 2:4.0 
1.0 1:0.12295812515422097 2:3.0 
1.0 1:0.17837731143342866 2:39.0 
1.0 1:0.20007385800553018 2:26.0 
1.0 1:0.3181253200794644 2:27.0 
1.0 1:0.22815590752544035 2:32.0 
1.0 1:0.17230575571481055 2:34.0 
1.0 1:0.2650668974466966 2:53.0 
1.0 1:0.25109142185161326 2:21.0 
1.0 1:0.03232540919176179 2:1.0 
1.0 1:0.11993772586158312 2:21.0 
1.0 1:0.33467124503015955 2:61.0 
1.0 1:0.2428790154932987 2:31.0 
1.0 1:0.25796574409178746 2:52.0 
1.0 1:0.06573543714639979 2:4.0 
0.4409236467881323 1:0.24440064824066962 2:129.0 
1.0 1:0.34103633779988873 2:10.0 
1.0 1:0.006721559496679888 2:1.0 
1.0 1:0.019771101534111178 2:4.0 
1.0 1:0.033570406630727107 2:1.0 
1.0 1:0.09175761518719276 2:10.0 
1.0 1:0.26699794255319337 2:22.0 
0.4883188495183522 1:0.2978609505689413 2:30.0 
1.0 1:0.2862251904988481 2:15.0 
1.0 1:0.028662944147308796 2:3.0 
1.0 1:0.20013263140316176 2:13.0 
1.0 1:0.05059644256269406 2:1.0 
1.0 1:0.20122714974516678 2:32.0 
1.0 1:0.0 2:0.0 
0.27419011698489315 1:0.272366429291613 2:114.0 
1.0 1:0.2062957351480814 2:21.0 
1.0 1:0.0 2:0.0 
1.0 1:0.30207638299473966 2:10.0 
1.0 1:0.10595928540545754 2:9.0 
1.0 1:0.3430923176986527 2:46.0 
0.2467944860092096 1:0.3873977118268668 2:56.0 
1.0 1:0.1786757493104596 2:51.0 
1.0 1:0.13972384788966816 2:10.0 
1.0 1:0.18938320985608104 2:12.0 
1.0 1:0.1287957621153029 2:11.0 
1.0 1:0.18672359119419568 2:25.0 
1.0 1:0.22914694502243846 2:21.0 
0.5147514325692142 1:0.27467414961992875 2:44.0 
1.0 1:0.24731575742364 2:20.0 
1.0 1:0.16338092989983735 2:4.0 
1.0 1:0.02581335646211108 2:7.0 
0.2723875563788399 1:0.2634611470947488 2:57.0 
1.0 1:0.2863049616895993 2:7.0 
1.0 1:0.022011272658140596 2:1.0 
1.0 1:0.2383656473113981 2:2.0 
1.0 1:0.2031896769659681 2:17.0 
1.0 1:0.25018894147680104 2:33.0 
1.0 1:0.21948138174147008 2:25.0 
1.0 1:0.20277605491501102 2:13.0 
1.0 1:0.004406486087904692 2:1.0 
1.0 1:0.040824829046386304 2:1.0 
1.0 1:0.23523662216472424 2:5.0 
1.0 1:0.04061297599176226 2:3.0 
1.0 1:0.17625587959712846 2:23.0 
0.9766709152944475 1:0.296736955970866 2:65.0 
1.0 1:0.2769208137565213 2:35.0 
1.0 1:0.021729045066737177 2:10.0 
1.0 1:0.07507038610870512 2:5.0 
1.0 1:0.1580705715258766 2:7.0 
1.0 1:0.041522739926869986 2:1.0 
1.0 1:0.1594947656082606 2:16.0 
1.0 1:0.1142497001757369 2:12.0 
1.0 1:0.018260421655339514 2:3.0 
1.0 1:0.1708022826928716 2:2.0 
1.0 1:0.13845283361784336 2:32.0 
1.0 1:0.1861723860064547 2:44.0 
1.0 1:0.07781350031786696 2:7.0 
1.0 1:0.24244967468393183 2:9.0 
1.0 1:0.16542323937244585 2:8.0 
1.0 1:0.042409446483998546 2:1.0 
1.0 1:0.13487311492217502 2:8.0 
1.0 1:0.21236186327966178 2:14.0 
1.0 1:0.1882411268398568 2:5.0 
1.0 1:0.1838041885450377 2:19.0 
1.0 1:0.31268183383577186 2:15.0 
1.0 1:0.21195688942808333 2:56.0 
1.0 1:0.1394603485832684 2:10.0 
1.0 1:0.033261171328173376 2:4.0 
1.0 1:0.19744908584949508 2:32.0 
1.0 1:0.3612401183931125 2:17.0 
0.962946744092268 1:0.12485433134301348 2:24.0 
1.0 1:0.0 2:0.0 
1.0 1:0.0 2:0.0 
1.0 1:0.1799499691378841 2:37.0 
1.0 1:0.19427780183901183 2:27.0 
1.0 1:0.2421222052731204 2:10.0 
1.0 1:0.2330507898495426 2:40.0 
1.0 1:0.0 2:0.0 
1.0 1:0.03678061789603124 2:1.0 
1.0 1:0.07261438571238492 2:6.0 
1.0 1:0.24951942308353392 2:19.0 
1.0 1:0.09101375108346561 2:5.0 
1.0 1:0.22935696439364214 2:65.0 
1.0 1:0.14300411091407744 2:29.0 
1.0 1:0.20025761196694278 2:6.0 
1.0 1:0.21484074395039604 2:35.0 
1.0 1:0.21523619350040163 2:23.0 
1.0 1:0.225 2:8.0 
1.0 1:0.22423837478522138 2:27.0 
1.0 1:0.0 2:0.0 
1.0 1:0.13111973230622778 2:3.0 
1.0 1:0.26013573982579746 2:10.0 
1.0 1:0.29490068865624414 2:7.0 
1.0 1:0.18552718238418428 2:6.0 
1.0 1:0.0 2:0.0 
1.0 1:0.14067163255053647 2:17.0 
1.0 1:0.24115638491670077 2:31.0 
1.0 1:0.13823674227370233 2:13.0 
1.0 1:0.09360232995173255 2:3.0 
1.0 1:0.0 2:0.0 
0.8849643971578262 1:0.2914263843207215 2:51.0 
0.1322634880244282 1:0.30689746987215544 2:50.0 
1.0 1:0.1432732733701811 2:22.0 
1.0 1:0.22595974579951197 2:15.0 
0.18280940839302304 1:0.314918700779322 2:88.0 
1.0 1:0.011208949210705267 2:2.0 
1.0 1:0.24237737989200087 2:19.0 
1.0 1:0.27186250948117047 2:27.0 
1.0 1:0.13564951520593035 2:22.0 
1.0 1:0.0 2:0.0 
1.0 1:0.0 2:0.0 
1.0 1:0.09912420141671266 2:20.0 
1.0 1:0.21540208731825908 2:17.0 
1.0 1:0.13056609756618884 2:21.0 
1.0 1:0.04901430813958718 2:2.0 
1.0 1:0.0 2:0.0 
1.0 1:0.0998717511804918 2:8.0 
1.0 1:0.19432508268938872 2:7.0 
1.0 1:0.17187123807167726 2:25.0 
1.0 1:0.023977487273201988 2:6.0 
1.0 1:0.17469102772102435 2:63.0 
1.0 1:0.1014176948006786 2:4.0 
1.0 1:0.099313261921854 2:3.0 
1.0 1:0.16760484404932813 2:2.0 
1.0 1:0.10865758300331683 2:16.0 
1.0 1:0.1669846603455566 2:8.0 
1.0 1:0.0 2:0.0 
1.0 1:0.23074037407212486 2:33.0 
1.0 1:0.20233616206852437 2:3.0 
1.0 1:0.08119622530770387 2:6.0 
1.0 1:0.0 2:0.0 
1.0 1:0.17814053467986635 2:74.0 
1.0 1:0.0 2:0.0 
0.9602672367247505 1:0.22058354837033609 2:78.0 
1.0 1:0.2204837973976474 2:41.0 
1.0 1:0.060858061945018464 2:4.0 
1.0 1:0.17870308744838614 2:15.0 
0.27458664069766286 1:0.3728150204929632 2:168.0 
1.0 1:0.044455422447438706 2:1.0 
1.0 1:0.17402283928081902 2:33.0 
1.0 1:0.2715103328590697 2:29.0 
1.0 1:0.16822866064812536 2:2.0 
1.0 1:0.0 2:0.0 
1.0 1:0.14200938936093865 2:2.0 
1.0 1:0.17311535046631316 2:23.0 
1.0 1:0.2201781325917219 2:16.0 
1.0 1:0.23356549445690977 2:15.0 
1.0 1:0.13677952079032932 2:18.0 
1.0 1:0.1913964024950948 2:8.0 
1.0 1:0.26671233838455904 2:11.0 
1.0 1:0.19999999999999996 2:2.0 
1.0 1:0.25902232429020955 2:65.0 
1.0 1:0.1280360551810379 2:9.0 
1.0 1:0.1856687374360998 2:7.0 
1.0 1:0.002473903947728035 2:1.0 
1.0 1:0.27332157015463965 2:16.0 
1.0 1:0.08122479038345394 2:4.0 
1.0 1:0.02039240568412038 2:3.0 
1.0 1:0.03542771444532758 2:2.0 
1.0 1:0.05263157894736841 2:1.0 
0.6913483867908035 1:0.3714413104147732 2:33.0 
1.0 1:0.2525785400287806 2:17.0 
1.0 1:0.1643120625937063 2:8.0 
0.3040903248821702 1:0.19385369010508688 2:90.0 
1.0 1:0.18875831361919473 2:5.0 
1.0 1:0.36852046271090566 2:27.0 
1.0 1:0.23075788348351736 2:28.0 
1.0 1:0.102127225557562 2:6.0 
1.0 1:0.01879523790043047 2:4.0 
1.0 1:0.026726124191242435 2:1.0 
0.6694413343137389 1:0.3336145509069845 2:62.0 
0.754079292947651 1:0.16524138290660398 2:38.0 
1.0 1:0.11742245095480768 2:3.0 
1.0 1:0.24541959177874204 2:37.0 
1.0 1:0.14617975243857614 2:12.0 
1.0 1:0.24504682122767985 2:24.0 
0.2244405614447788 1:0.33007597549542533 2:90.0 
1.0 1:0.1905156630549358 2:13.0 
1.0 1:0.14746935144974105 2:20.0 
1.0 1:0.20761680664116242 2:21.0 
1.0 1:0.10816748141362141 2:23.0 
1.0 1:0.21978429946126035 2:18.0 
1.0 1:0.251453743290097 2:46.0 
1.0 1:0.0397778642087865 2:1.0 
0.6679260209006713 1:0.24134970128373784 2:80.0 
0.10736256607986025 1:0.23617384169290628 2:95.0 
1.0 1:0.13661593504791866 2:8.0 
1.0 1:0.19769134624393056 2:55.0 
0.5880489903541058 1:0.2909752143031724 2:59.0 
1.0 1:0.2526749683215889 2:11.0 
1.0 1:0.0 2:0.0 
1.0 1:0.05530350894199025 2:3.0 
1.0 1:0.0 2:0.0 
1.0 1:0.0 2:0.0 
1.0 1:0.15822199327484385 2:10.0 
1.0 1:0.14021472013211236 2:13.0 
1.0 1:0.15012540355806497 2:25.0 
1.0 1:0.24413691919210737 2:35.0 
1.0 1:0.2357531931810453 2:13.0 
1.0 1:0.05165509767947296 2:7.0 
1.0 1:0.29862193099681167 2:12.0 
1.0 1:0.25157463361823695 2:12.0 
1.0 1:0.20778424432922898 2:13.0 
1.0 1:0.18472472154212374 2:7.0 
1.0 1:0.313884347470979 2:6.0 
1.0 1:0.21225834411386618 2:52.0 
1.0 1:0.06714205863893531 2:2.0 
1.0 1:0.1960879492677335 2:9.0 
1.0 1:0.27831593901579604 2:8.0 
1.0 1:0.2213446302067756 2:16.0 
1.0 1:0.1407465111763875 2:7.0 
1.0 1:0.0 2:0.0 
1.0 1:0.3023626404624858 2:33.0 
1.0 1:0.23114523836974188 2:4.0 
0.10443467831565917 1:0.20306251231937042 2:36.0 
1.0 1:0.2706692066370548 2:34.0 
1.0 1:0.28125538695863833 2:20.0 
1.0 1:0.12023512110912192 2:6.0 
1.0 1:0.1734877103670325 2:8.0 
1.0 1:0.08944271909999157 2:5.0 
1.0 1:0.06410607647560324 2:2.0 
1.0 1:0.0 2:0.0 
1.0 1:0.16149572839159348 2:15.0 
1.0 1:0.047619047619047616 2:1.0 
1.0 1:0.0 2:0.0 
1.0 1:0.2362023140360697 2:41.0 
1.0 1:0.09858140809759891 2:8.0 
1.0 1:0.20060553814714 2:31.0 
1.0 1:0.12862393885688161 2:1.0 
1.0 1:0.04382364814309452 2:4.0 
1.0 1:0.3609748995838068 2:22.0 
1.0 1:0.21997067253202995 2:4.0 
0.18129979724821849 1:0.2564158359346101 2:31.0 
0.23523086789302167 1:0.21853508434659227 2:53.0 
0.2443935704418178 1:0.24607492756094057 2:97.0 
1.0 1:0.11287731091521737 2:14.0 
0.9245719561234343 1:0.24202517803828377 2:37.0 
1.0 1:0.2685857063261792 2:18.0 
1.0 1:0.2871909099804358 2:21.0 
1.0 1:0.05097299465232466 2:4.0 
1.0 1:0.28155711262202987 2:45.0 
1.0 1:0.10192943828752511 2:3.0 
1.0 1:0.052450482332242795 2:5.0 
1.0 1:0.12956138091682382 2:6.0 
1.0 1:0.09176852946253673 2:8.0 
1.0 1:0.0 2:0.0 
1.0 1:0.1889779550954309 2:104.0 
1.0 1:0.1694439650847813 2:21.0 
1.0 1:0.18807182661620708 2:7.0 
1.0 1:0.27207060613246004 2:7.0 
1.0 1:0.20291603506547448 2:14.0 
1.0 1:0.3384126824056222 2:9.0 
1.0 1:0.3310454043728565 2:5.0 
1.0 1:0.17941404518774218 2:14.0 
1.0 1:0.0021423494880365673 2:1.0 
1.0 1:0.0 2:0.0 
1.0 1:0.061108036998757054 2:14.0 
1.0 1:0.05413319619607667 2:2.0 
1.0 1:0.0 2:0.0 
1.0 1:0.30316612822862443 2:9.0 
1.0 1:0.1302392827876679 2:11.0 
0.4409948029478898 1:0.33837176388019047 2:154.0 
1.0 1:0.254925598414274 2:8.0 
1.0 1:0.1938163224276486 2:5.0 
0.7434638608801768 1:0.3500750448431773 2:15.0 
1.0 1:0.30245395291245847 2:39.0 
1.0 1:0.20050155163557404 2:6.0 
1.0 1:0.2114812383375954 2:6.0 
1.0 1:0.18816042611100398 2:12.0 
1.0 1:0.18430460803948145 2:35.0 
1.0 1:0.056269235936955465 2:2.0 
1.0 1:0.08567564047494566 2:16.0 
1.0 1:0.13915361308656546 2:15.0 
1.0 1:0.13331550740251105 2:14.0 
1.0 1:0.1351498619575211 2:5.0 
1.0 1:0.06115911894796852 2:7.0 
1.0 1:0.13719102888626 2:15.0 
0.44105382403694676 1:0.24000450156161185 2:147.0 
1.0 1:0.17395251308442441 2:15.0 
1.0 1:0.0 2:0.0 
1.0 1:0.2014456131730667 2:8.0 
1.0 1:0.3328856912448818 2:2.0 
1.0 1:0.10811249552346706 2:3.0 
1.0 1:0.20340329845914973 2:24.0 
1.0 1:0.16274669424134697 2:3.0 
1.0 1:0.3479656594914848 2:26.0 
0.9196215269826532 1:0.2429890621751854 2:82.0 
1.0 1:0.11842653422855902 2:9.0 
1.0 1:0.3996377413866721 2:21.0 
1.0 1:0.11353134489128947 2:6.0 
1.0 1:0.14856821775916826 2:10.0 
1.0 1:0.33750768441004475 2:56.0 
1.0 1:0.10570395860248355 2:20.0 
1.0 1:0.1590071119498315 2:25.0 
1.0 1:0.1652797992346998 2:19.0 
1.0 1:0.0 2:0.0 
1.0 1:0.12297509238026913 2:1.0 
1.0 1:0.2539494201082457 2:9.0 
1.0 1:0.2561302649269807 2:11.0 
1.0 1:0.25648884853912707 2:4.0 
1.0 1:0.27077983853711973 2:10.0 
1.0 1:0.22790017967274287 2:30.0 
1.0 1:0.15205260663117334 2:5.0 
1.0 1:0.16563769141053192 2:20.0 
0.3886950810751876 1:0.24916750285842773 2:140.0 
1.0 1:0.29266842153296496 2:8.0 
1.0 1:0.25733595064732917 2:69.0 
1.0 1:0.06138755988450513 2:8.0 
1.0 1:0.0 2:0.0 
1.0 1:0.3017332310779833 2:48.0 
1.0 1:0.12806957530205085 2:2.0 
1.0 1:0.04434600701584929 2:2.0 
0.045818709281744786 1:0.24825426853097268 2:66.0 
1.0 1:0.25665928825997203 2:30.0 
1.0 1:0.21991788951596306 2:18.0 
1.0 1:0.12930774555389618 2:18.0 
1.0 1:0.12745175224728944 2:5.0 
0.6896806081372671 1:0.2009770806662099 2:53.0 
1.0 1:0.23006137386047373 2:30.0 
1.0 1:0.25 2:4.0 
1.0 1:0.08388912969065253 2:10.0 
0.27517378200813614 1:0.4437167602073436 2:169.0 
1.0 1:0.10858685772760271 2:3.0 
1.0 1:0.2083370566505923 2:27.0 
1.0 1:0.03131121455425748 2:2.0 
1.0 1:0.2020780086244556 2:22.0 
0.34251040618919715 1:0.16094260227191462 2:70.0 
1.0 1:0.22880021209609494 2:40.0 
1.0 1:0.2159943312027148 2:22.0 
1.0 1:0.2627291008788496 2:30.0 
1.0 1:0.0303977044520364 2:2.0 
0.38824091219027324 1:0.32149900075343446 2:138.0 
1.0 1:0.25805610235057624 2:47.0 
1.0 1:0.4261525874394261 2:7.0 
1.0 1:0.2026716093621165 2:31.0 
1.0 1:0.13180499207950877 2:25.0 
1.0 1:0.13537750779528723 2:31.0 
1.0 1:0.0626645686409423 2:5.0 
1.0 1:0.0 2:0.0 
1.0 1:0.19064327485380114 2:21.0 
0.7571046307573925 1:0.3674974160148545 2:38.0 
1.0 1:0.08824022432608969 2:32.0 
1.0 1:0.15212472690937748 2:53.0 
1.0 1:0.0 2:0.0 
1.0 1:0.117368144660677 2:12.0 
1.0 1:0.14122831777711348 2:5.0 
1.0 1:0.2301991582111203 2:27.0 
0.524318845780315 1:0.2998336452393729 2:49.0 
1.0 1:0.3203689965625209 2:9.0 
1.0 1:0.2369488763117836 2:14.0 
1.0 1:0.09776474334756886 2:4.0 
1.0 1:0.247849324453416 2:11.0 
1.0 1:0.06774141827707826 2:5.0 
1.0 1:0.11058146711617285 2:2.0 
1.0 1:0.1562042725826381 2:36.0 
1.0 1:0.03217447260438935 2:1.0 
1.0 1:0.15116061285199378 2:13.0 
1.0 1:0.09679627038923629 2:18.0 
1.0 1:0.18068832090632192 2:15.0 
1.0 1:0.2802927926058336 2:2.0 
1.0 1:0.07301115881907741 2:26.0 
1.0 1:0.2285602340585989 2:5.0 
1.0 1:0.24174729597856973 2:40.0 
1.0 1:0.09806671795212966 2:13.0 
0.620662269057406 1:0.377030708771024 2:13.0 
1.0 1:0.02997284940227421 2:4.0 
0.26642456340923815 1:0.2581494943046988 2:94.0 
1.0 1:0.04034403306603079 2:4.0 
1.0 1:0.21001263609879847 2:3.0 
1.0 1:0.0 2:0.0 
1.0 1:0.21168842764318788 2:22.0 
1.0 1:0.26667934747235983 2:13.0 
1.0 1:0.06201736729460422 2:2.0 
1.0 1:0.15538300358280627 2:2.0 
1.0 1:0.08891084489487741 2:2.0 
1.0 1:0.19640049978574822 2:14.0 
1.0 1:0.13683108074323355 2:20.0 
0.36140879690274486 1:0.2682204077643346 2:85.0 
0.7378278176857587 1:0.2319790625883394 2:67.0 
1.0 1:0.13180452531126585 2:19.0 
1.0 1:0.1722279499994077 2:37.0 
0.24203846379351643 1:0.18828503489937745 2:94.0 
1.0 1:0.2884019361956819 2:39.0 
1.0 1:0.2308808806635803 2:17.0 
1.0 1:0.16659506599006177 2:16.0 
1.0 1:0.08333333333333334 2:4.0 
1.0 1:0.16753091344956947 2:9.0 
1.0 1:0.07550993175197035 2:8.0 
1.0 1:0.04770650232563334 2:5.0 
1.0 1:0.1621279731679473 2:19.0 
1.0 1:0.11607620001760188 2:3.0 
1.0 1:0.15811388300841897 2:1.0 
1.0 1:0.2344124664504134 2:22.0 
1.0 1:0.1445998495411829 2:10.0 
1.0 1:0.03644471480623968 2:2.0 
1.0 1:0.18131172556228092 2:33.0 
1.0 1:0.1503062731974789 2:7.0 
1.0 1:0.0 2:0.0 
0.4410240676327715 1:0.2588213699706318 2:187.0 
1.0 1:0.22034772182280699 2:16.0 
1.0 1:0.2667921002978557 2:27.0 
1.0 1:0.20971498728209453 2:18.0 
1.0 1:0.10607222396811031 2:4.0 
1.0 1:0.2135807011059239 2:12.0 
1.0 1:0.05317757389633507 2:2.0 
0.05401097303057551 1:0.24873754710885906 2:68.0 
1.0 1:0.06252180968067218 2:7.0 
1.0 1:0.13292773751685036 2:26.0 
1.0 1:0.2873172284464308 2:55.0 
0.9019369811942713 1:0.17458583065398997 2:58.0 
1.0 1:0.17784505791423258 2:18.0 
1.0 1:0.21443708290018354 2:39.0 
1.0 1:0.13069628920633847 2:8.0 
1.0 1:0.12581986604800366 2:12.0 
1.0 1:0.28079959269206517 2:25.0 
1.0 1:0.18927061330856335 2:25.0 
1.0 1:0.24572672646643465 2:11.0 
1.0 1:0.0029676857074823443 2:1.0 
0.8004890417995862 1:0.21837475837881745 2:42.0 
1.0 1:0.16857129787538105 2:8.0 
1.0 1:0.14229544346376477 2:16.0 
0.43012201186960225 1:0.2279684055869653 2:107.0 
1.0 1:0.14261822293275705 2:8.0 
1.0 1:0.1980781787549478 2:20.0 
1.0 1:0.008039977681052937 2:2.0 
1.0 1:0.2631704118895705 2:63.0 
1.0 1:0.22599178204228643 2:55.0 
1.0 1:0.2814167667038504 2:29.0 
1.0 1:0.18995609931089139 2:16.0 
1.0 1:0.05404788568278931 2:5.0 
1.0 1:0.20694357114892672 2:13.0 
1.0 1:0.0 2:0.0 
1.0 1:0.22581217217055471 2:23.0 
1.0 1:0.2084104165576851 2:16.0 
1.0 1:0.3358074048188891 2:20.0 
-1.0 1:0.19405589808997284 2:7.0 
-1.0 1:0.05158087057737686 2:13.0 
-1.0 1:0.28167934805625006 2:3.0 
-1.0 1:0.09705387192756534 2:6.0 
-0.6665223424649537 1:0.11131852050927805 2:28.0 
-1.0 1:0.0 2:0.0 
-1.0 1:0.18679087148921097 2:5.0 
-1.0 1:0.12240688537356466 2:22.0 
-1.0 1:0.025758784337707466 2:1.0 
-1.0 1:0.02352750400545973 2:3.0 
-1.0 1:0.19044535737483456 2:10.0 
-1.0 1:0.19265050509165504 2:32.0 
-1.0 1:0.15401896060447778 2:1.0 
-1.0 1:0.22968982627649412 2:34.0 
-1.0 1:0.03616689748253366 2:1.0 
-1.0 1:0.2468014971915097 2:9.0 
-1.0 1:0.1477133020184445 2:3.0 
-1.0 1:0.19874007424196544 2:27.0 
-1.0 1:0.19135594763633634 2:55.0 
-1.0 1:0.17622004625211174 2:9.0 
-1.0 1:0.2861723979272926 2:23.0 
-1.0 1:0.0 2:0.0 
-1.0 1:0.18527202703831389 2:32.0 
-1.0 1:0.24373404589036468 2:31.0 
-1.0 1:0.1260295943285407 2:3.0 
-1.0 1:0.15103075017366752 2:28.0 
-1.0 1:0.24487389935475337 2:16.0 
-1.0 1:0.23627331305865315 2:92.0 
-1.0 1:0.12947608991604692 2:15.0 
-1.0 1:0.32234066483255996 2:25.0 
-1.0 1:0.020815272356090667 2:1.0 
-1.0 1:0.221726109550209 2:5.0 
-1.0 1:0.1381521917362527 2:9.0 
-1.0 1:0.030298393621754134 2:1.0 
-1.0 1:0.20029983132462378 2:44.0 
-1.0 1:0.12809450359068075 2:9.0 
-1.0 1:0.0 2:0.0 
-1.0 1:0.1212546038840545 2:25.0 
-1.0 1:0.02058606995288888 2:4.0 
-1.0 1:0.2331538086687927 2:77.0 
-1.0 1:0.1448965469686619 2:12.0 
-1.0 1:0.14464123452850192 2:27.0 
-1.0 1:0.2760096995107202 2:14.0 
-1.0 1:0.21380899352993948 2:2.0 
-1.0 1:0.08903995514138348 2:15.0 
-1.0 1:0.09671474291233285 2:4.0 
-1.0 1:0.0 2:0.0 
-1.0 1:0.17966329857156346 2:25.0 
-1.0 1:0.12535628229350038 2:24.0 
-1.0 1:0.1083812430219107 2:8.0 
-1.0 1:0.13626570702092897 2:29.0 
-1.0 1:0.05381180683992875 2:13.0 
-1.0 1:0.16357216402190616 2:4.0 
-1.0 1:0.17907293673159191 2:52.0 
-1.0 1:0.08605403904524841 2:1.0 
-1.0 1:0.037860522229083524 2:2.0 
-1.0 1:0.13046958274549023 2:32.0 
-1.0 1:0.15057810039045036 2:4.0 
-1.0 1:0.02815462531857365 2:3.0 
-1.0 1:0.2668558925125507 2:24.0 
-1.0 1:0.35355739920329093 2:4.0 
-1.0 1:0.17318646675137137 2:21.0 
-1.0 1:0.17036957510864792 2:27.0 
-1.0 1:0.18685047782451947 2:19.0 
-0.9218394859227618 1:0.0449596948399377 2:12.0 
-1.0 1:0.24724862875725856 2:23.0 
-1.0 1:0.14624175211347312 2:11.0 
-1.0 1:0.1014194057101971 2:23.0 
-1.0 1:0.2031596121581731 2:21.0 
-1.0 1:0.11288138573367999 2:3.0 
-1.0 1:0.08434630491811484 2:2.0 
-1.0 1:0.0 2:0.0 
-1.0 1:0.15531098123889672 2:3.0 
-1.0 1:0.3096031243960198 2:51.0 
-1.0 1:0.1973368007341208 2:64.0 
-1.0 1:0.1727837273306053 2:17.0 
-1.0 1:0.18290920600128935 2:18.0 
-1.0 1:0.19144268966180358 2:19.0 
-1.0 1:0.1440284056176162 2:36.0 
-1.0 1:0.055483736943152166 2:2.0 
-1.0 1:0.17986939278903996 2:24.0 
-1.0 1:0.1493527545685581 2:3.0 
-1.0 1:0.10455364010589856 2:7.0 
-1.0 1:0.07518820606756282 2:1.0 
-1.0 1:0.12576276559423535 2:21.0 
-1.0 1:0.2257169385539485 2:66.0 
-1.0 1:0.20692994794901606 2:22.0 
-1.0 1:0.0 2:0.0 
-1.0 1:0.138104618711782 2:8.0 
-1.0 1:0.125623975621043 2:19.0 
-1.0 1:0.20056953129059574 2:4.0 
-1.0 1:0.12120581334266063 2:8.0 
-1.0 1:0.0 2:0.0 
-1.0 1:0.0 2:0.0 
-1.0 1:0.0 2:0.0 
-1.0 1:0.11234238708801338 2:3.0 
-1.0 1:0.16487996791047535 2:8.0 
-1.0 1:0.1402691485682968 2:4.0 
-1.0 1:0.18476627335744944 2:19.0 
-1.0 1:0.0 2:0.0 
-1.0 1:0.07106690545187015 2:1.0 
-1.0 1:0.19561932335813415 2:6.0 
-1.0 1:0.11958634040240801 2:4.0 
-0.3866447237662693 1:0.06109366460913441 2:6.0 
-1.0 1:0.042315525464409635 2:8.0 
-1.0 1:0.12039736995149715 2:13.0 
-1.0 1:0.20260145521098963 2:18.0 
-1.0 1:0.18647616339797307 2:10.0 
-1.0 1:0.07075019535794314 2:5.0 
-1.0 1:0.24316197633226258 2:31.0 
-1.0 1:0.0 2:0.0 
-1.0 1:0.03128056235449272 2:3.0 
-1.0 1:0.25051888432579866 2:25.0 
-1.0 1:0.20534825474114135 2:19.0 
-1.0 1:0.23627638478216584 2:35.0 
-1.0 1:0.17570639293921103 2:11.0 
-1.0 1:0.2627621874243778 2:27.0 
-1.0 1:0.14082784662182474 2:32.0 
-1.0 1:0.1433311718049638 2:14.0 
-1.0 1:0.11621507296113333 2:31.0 
-1.0 1:0.35865930746241437 2:49.0 
-1.0 1:0.33495034066718066 2:27.0 
-1.0 1:0.15362969641786287 2:3.0 
-1.0 1:0.215607103425931 2:19.0 
-1.0 1:0.2628880087238794 2:45.0 
-1.0 1:0.2817138687491229 2:25.0 
-1.0 1:0.2590829519133516 2:20.0 
-0.024452426575181208 1:0.09250786517052198 2:7.0 
-1.0 1:0.05620114916428598 2:12.0 
-1.0 1:0.18936460703185096 2:11.0 
-1.0 1:0.03648468894693283 2:4.0 
-1.0 1:0.17831346902711923 2:30.0 
-1.0 1:0.252318493979219 2:40.0 
-1.0 1:0.2295467628848272 2:55.0 
-1.0 1:0.09186143191866104 2:15.0 
-1.0 1:0.07979331946716718 2:6.0 
-1.0 1:0.37199693531736044 2:12.0 
-1.0 1:0.15001771270006764 2:10.0 
-0.8949606181079561 1:0.015211385893403189 2:1.0 
-1.0 1:0.08608683964994877 2:16.0 
-1.0 1:0.22533463556890665 2:81.0 
-1.0 1:0.11625966291046 2:5.0 
-1.0 1:0.04746444525345672 2:2.0 
-1.0 1:0.18293732081895234 2:11.0 
-1.0 1:0.07622180824806601 2:12.0 
-1.0 1:0.224638908168908 2:37.0 
-1.0 1:0.15025800580204757 2:46.0 
-1.0 1:0.16107982421761072 2:33.0 
-0.814467939268661 1:0.12702767772338908 2:11.0 
-1.0 1:0.13828996894083706 2:10.0 
-1.0 1:0.11480522402419636 2:15.0 
-1.0 1:0.21767954975050446 2:41.0 
-1.0 1:0.13283586680101805 2:21.0 
-1.0 1:0.05837680781178805 2:8.0 
-1.0 1:0.20138165421258772 2:12.0 
-1.0 1:0.051250238011640664 2:2.0 
-1.0 1:0.042683545859305526 2:8.0 
-1.0 1:0.14056971142303462 2:14.0 
-1.0 1:0.030970020586843568 2:1.0 
-1.0 1:0.0 2:0.0 
-1.0 1:0.09764006326340043 2:16.0 
-1.0 1:0.2658540204593695 2:28.0 
-1.0 1:0.0633230536205443 2:6.0 
-1.0 1:0.14065025597325662 2:10.0 
-1.0 1:0.3010219613740794 2:14.0 
-1.0 1:0.08484825297180307 2:12.0 
-1.0 1:0.0 2:0.0 
-1.0 1:0.14315172635346363 2:9.0 
-1.0 1:0.25672919586348086 2:10.0 
-1.0 1:0.17736355182061894 2:34.0 
-1.0 1:0.08459804369285916 2:6.0 
-1.0 1:0.128564869306645 2:3.0 
-1.0 1:0.04850379838620126 2:4.0 
-1.0 1:0.04552660148960659 2:1.0 
-1.0 1:0.2690650965159722 2:14.0 
-1.0 1:0.0 2:0.0 
-1.0 1:0.09901475429766741 2:2.0 
-1.0 1:0.14192531682563939 2:15.0 
-1.0 1:0.12857560317176966 2:17.0 
-1.0 1:0.060553536927716034 2:2.0 
-1.0 1:0.0822560402904857 2:13.0 
-1.0 1:0.10359969302537189 2:10.0 
-1.0 1:0.17140208767489465 2:16.0 
-1.0 1:0.0 2:0.0 
-1.0 1:0.16427895551915042 2:22.0 
-1.0 1:0.17665619632853305 2:61.0 
-1.0 1:0.17398582227739298 2:5.0 
-1.0 1:0.09802509763790428 2:7.0 
-0.2735768501023323 1:0.1009079134068916 2:9.0 
-1.0 1:0.17663445986404963 2:34.0 
-1.0 1:0.032531056256793596 2:4.0 
-1.0 1:0.33993100382372343 2:11.0 
-1.0 1:0.18395901693124098 2:32.0 
-1.0 1:0.16857908713146824 2:17.0 
-1.0 1:0.020312159070015455 2:1.0 
-1.0 1:0.08640517808392285 2:14.0 
-1.0 1:0.0 2:0.0 
-1.0 1:0.2905060442679649 2:24.0 
-1.0 1:0.2917056857549685 2:5.0 
-1.0 1:0.16199062891235927 2:7.0 
-1.0 1:0.19429060969190773 2:20.0 
-1.0 1:0.2014040703363111 2:39.0 
-1.0 1:0.12329924047901797 2:5.0 
-1.0 1:0.1398469081863167 2:18.0 
-1.0 1:0.0780809320533427 2:12.0 
-1.0 1:0.12203914272745413 2:9.0 
-1.0 1:0.15997647049604102 2:30.0 
-1.0 1:0.19522082770381702 2:10.0 
-1.0 1:0.1343562280924258 2:28.0 
-1.0 1:0.16396391934881677 2:16.0 
-1.0 1:0.17549418831597444 2:22.0 
-1.0 1:0.180429725719946 2:12.0 
-1.0 1:0.19431609237132444 2:12.0 
-1.0 1:0.09391432171591313 2:5.0 
-1.0 1:0.27030983597016117 2:52.0 
-1.0 1:0.23652495839563303 2:3.0 
-1.0 1:0.13622231907429408 2:8.0 
-1.0 1:0.2753055185090006 2:5.0 
-1.0 1:0.18795219564261964 2:6.0 
-1.0 1:0.0 2:0.0 
-1.0 1:0.20750064572503352 2:53.0 
-1.0 1:0.1467494252750053 2:11.0 
-1.0 1:0.2446985896985561 2:20.0 
-1.0 1:0.1508284224488393 2:16.0 
-1.0 1:0.0 2:0.0 
-1.0 1:0.29744932813376745 2:33.0 
-1.0 1:0.28778704623541096 2:47.0 
-1.0 1:0.12560387882213964 2:9.0 
-1.0 1:0.19331038088638638 2:61.0 
-1.0 1:0.1456085214930044 2:1.0 
-1.0 1:0.15206064272204178 2:14.0 
-1.0 1:0.10886811289704186 2:10.0 
-1.0 1:0.03568435900518972 2:2.0 
-1.0 1:0.036990378499834005 2:2.0 
-1.0 1:0.15080625607182452 2:17.0 
-1.0 1:0.157879026957353 2:27.0 
-0.9830733026874114 1:0.09978676019952623 2:3.0 
-1.0 1:0.10171668390084186 2:5.0 
-1.0 1:0.14538837300266658 2:7.0 
-1.0 1:0.11654604913483277 2:9.0 
-1.0 1:0.3127329150770796 2:9.0 
-1.0 1:0.10558839306516453 2:6.0 
-1.0 1:0.09245203093648312 2:25.0 
-1.0 1:0.15118578920369088 2:3.0 
-1.0 1:0.06277648205743445 2:1.0 
-1.0 1:0.21749249525727163 2:15.0 
-1.0 1:0.250208804492996 2:7.0 
-1.0 1:0.06530231484483391 2:1.0 
-0.7008949688413237 1:0.0675266213248184 2:5.0 
-1.0 1:0.17646446067793067 2:3.0 
-1.0 1:0.09811457675978846 2:8.0 
-1.0 1:0.019119530803973567 2:1.0 
-1.0 1:0.17181680135036048 2:11.0 
-1.0 1:0.17250791001489219 2:33.0 
-1.0 1:0.0 2:0.0 
-1.0 1:0.17896613907912123 2:56.0 
-1.0 1:0.16152222078936604 2:29.0 
-1.0 1:0.10661332404995988 2:15.0 
-1.0 1:0.19653520089209295 2:65.0 
-1.0 1:0.019493583876387933 2:1.0 
-1.0 1:0.06093031849993656 2:2.0 
-1.0 1:0.13204587704331794 2:21.0 
-1.0 1:0.10498289307046921 2:2.0 
-0.2207856303360103 1:0.13291502934694827 2:18.0 
-1.0 1:0.12556749504002948 2:10.0 
-1.0 1:0.1969936445203536 2:37.0 
-1.0 1:0.19846170735463708 2:8.0 
-1.0 1:0.18995904681616654 2:22.0 
-1.0 1:0.0 2:0.0 
-1.0 1:0.16864358151902087 2:7.0 
-1.0 1:0.09271072797300078 2:2.0 
-1.0 1:0.18433440201892612 2:36.0 
-1.0 1:0.08186889324030643 2:5.0 
-1.0 1:0.3060390371523545 2:30.0 
-1.0 1:0.19945140289275354 2:17.0 
-1.0 1:0.2009745624358972 2:40.0 
-1.0 1:0.0 2:0.0 
-1.0 1:0.017924054566105574 2:3.0 
-1.0 1:0.12839174703413 2:3.0 
-1.0 1:0.1105796288640884 2:9.0 
-1.0 1:0.2446196197840672 2:55.0 
-1.0 1:0.1851212632493784 2:17.0 
-1.0 1:0.202453163000382 2:21.0 
-1.0 1:0.09582771701346172 2:23.0 
-1.0 1:0.262529669314161 2:15.0 
-1.0 1:0.2518853787715655 2:23.0 
-1.0 1:0.045643546458763846 2:2.0 
-1.0 1:0.08972006153026083 2:5.0 
-1.0 1:0.15037483202070068 2:8.0 
-1.0 1:0.15888146114193283 2:32.0 
-1.0 1:0.09536787735784717 2:4.0 
-1.0 1:0.01810121535639991 2:1.0 
-1.0 1:0.19795103357033678 2:22.0 
-1.0 1:0.1381221072364266 2:12.0 
-1.0 1:0.11780355065252579 2:10.0 
-1.0 1:0.2898845196829869 2:75.0 
-1.0 1:0.1343313655561455 2:19.0 
-1.0 1:0.023931938620591276 2:1.0 
-1.0 1:0.09589953458362871 2:24.0 
-1.0 1:0.26590687877549557 2:38.0 
-1.0 1:0.146292831403933 2:16.0 
-1.0 1:0.11789072857943214 2:19.0 
-1.0 1:0.2081809104918242 2:39.0 
-1.0 1:0.042333375666730164 2:2.0 
-1.0 1:0.19997863655432047 2:17.0 
-1.0 1:0.11027846799720971 2:22.0 
-1.0 1:0.14866964500365895 2:42.0 
-1.0 1:0.13749460654294615 2:15.0 
-1.0 1:0.2664828711383333 2:34.0 
-1.0 1:0.2374544486550569 2:20.0 
-1.0 1:0.0 2:0.0 
-1.0 1:0.13900239608124113 2:5.0 
-1.0 1:0.15717169865262318 2:20.0 
-1.0 1:0.10102423570282819 2:13.0 
-1.0 1:0.2220248319302424 2:26.0 
-1.0 1:0.20499821349166336 2:8.0 
-1.0 1:0.05342883692867955 2:8.0 
-1.0 1:0.2676737034522074 2:14.0 
-1.0 1:0.06490923813159057 2:6.0 
-1.0 1:0.07224259262577373 2:22.0 
-1.0 1:0.022367670764624703 2:4.0 
-1.0 1:0.18264993524571965 2:7.0 
-1.0 1:0.33477632377372457 2:7.0 
-1.0 1:0.1898698284129059 2:56.0 
-0.355817431457391 1:0.0352729745957665 2:3.0 
-1.0 1:0.11448448236702916 2:5.0 
-1.0 1:0.20412432002311048 2:20.0 
-1.0 1:0.157412538210125 2:12.0 
-1.0 1:0.2234162120353738 2:24.0 
-1.0 1:0.1820316645724492 2:20.0 
-1.0 1:0.08321912463460181 2:8.0 
-1.0 1:0.0 2:0.0 
-1.0 1:0.08683632885374387 2:4.0 
-1.0 1:0.2383471692647688 2:13.0 
-1.0 1:0.25138950952869554 2:35.0 
-1.0 1:0.15333691202548846 2:26.0 
-1.0 1:0.1842456401719456 2:18.0 
-1.0 1:0.05345224838248487 2:1.0 
-1.0 1:0.13303780777511057 2:2.0 
-1.0 1:0.2346886684873249 2:12.0 
-1.0 1:0.015508070173307846 2:1.0 
-1.0 1:0.04212419672262978 2:1.0 
-1.0 1:0.067387113353781 2:6.0 
-1.0 1:0.23928389455601118 2:31.0 
-1.0 1:0.09370331273847966 2:8.0 
-1.0 1:0.10373979834081697 2:5.0 
-1.0 1:0.240127172179671 2:40.0 
-1.0 1:0.1727808405678284 2:27.0 
-1.0 1:0.15643260426455724 2:27.0 
-1.0 1:0.12446466563427948 2:3.0 
-1.0 1:0.2235304164706736 2:35.0 
-1.0 1:0.2616162235001714 2:16.0 
-1.0 1:0.23792026358526633 2:20.0 
-1.0 1:0.21132626153488276 2:34.0 
-1.0 1:0.1344669704710584 2:7.0 
-1.0 1:0.0982946374365981 2:4.0 
-1.0 1:0.11012242630388996 2:7.0 
-1.0 1:0.0 2:0.0 
-1.0 1:0.07786378336891057 2:8.0 
-1.0 1:0.08281391985957592 2:8.0 
-1.0 1:0.02116668783336509 2:1.0 
-1.0 1:0.12479976689414982 2:7.0 
-1.0 1:0.02817180849095055 2:1.0 
-1.0 1:0.1932375608278354 2:30.0 
-1.0 1:0.13306474931407253 2:7.0 
-1.0 1:0.2358719931331115 2:23.0 
-1.0 1:0.05830879009313216 2:2.0 
-1.0 1:0.15134723411289844 2:4.0 
-1.0 1:0.21333544036043336 2:2.0 
-1.0 1:0.17305932892208453 2:3.0 
-1.0 1:0.24519144462754303 2:103.0 
-1.0 1:0.3357421048818318 2:5.0 
-1.0 1:0.16681086317759472 2:8.0 
-1.0 1:0.20163413408165745 2:16.0 
-1.0 1:0.11728776433417584 2:5.0 
-1.0 1:0.20002544047312848 2:7.0 
-1.0 1:0.14016420787471462 2:16.0 
-1.0 1:0.12116894804288796 2:14.0 
-1.0 1:0.17180309760863488 2:40.0 
-1.0 1:0.15482774688560758 2:3.0 
-1.0 1:0.22519668035615917 2:25.0 
-1.0 1:0.018907088426330234 2:3.0 
-1.0 1:0.17839315794797805 2:9.0 
-1.0 1:0.3072354108415304 2:47.0 
-1.0 1:0.09674765587667249 2:6.0 
-1.0 1:0.0 2:0.0 
-1.0 1:0.1894926968966636 2:13.0 
-1.0 1:0.19365749543730396 2:32.0 
-1.0 1:0.20483662259967564 2:2.0 
-1.0 1:0.11861553330601465 2:3.0 
-1.0 1:0.13960635290154313 2:4.0 
-1.0 1:0.10777693820257299 2:2.0 
-1.0 1:0.08734540578796329 2:6.0 
-1.0 1:0.1901308823772752 2:29.0 
-1.0 1:0.2735461802823166 2:47.0 
-1.0 1:0.1221968873252843 2:12.0 
-1.0 1:0.11939395556868196 2:5.0 
-1.0 1:0.19356851540410447 2:52.0 
-1.0 1:0.14286314448326395 2:10.0 
-1.0 1:0.25792228713779664 2:30.0 
-0.08194821885204795 1:0.17208655377889537 2:19.0 
-1.0 1:0.0 2:0.0 
-1.0 1:0.0 2:0.0 
-1.0 1:0.11183890025435726 2:5.0 
-1.0 1:0.0 2:0.0 
-1.0 1:0.18390368837962282 2:7.0 
-1.0 1:0.08311165866709465 2:14.0 
-1.0 1:0.08612363356437983 2:5.0 
-1.0 1:0.27613109616115716 2:53.0 
-1.0 1:0.2682100640011978 2:8.0 
-1.0 1:0.15902756317509908 2:34.0 
-1.0 1:0.09231677606154336 2:13.0 
-1.0 1:0.015640281177246362 2:1.0 
-1.0 1:0.19010351764290337 2:22.0 
-1.0 1:0.2283959420603252 2:37.0 
-1.0 1:0.09890707100936805 2:2.0 
-1.0 1:0.018781205660633706 2:1.0 
-1.0 1:0.20668545862386517 2:39.0 
-1.0 1:0.24648915634091972 2:6.0 
-1.0 1:0.19693112930256929 2:12.0 
-1.0 1:0.1534741328417247 2:17.0 
-1.0 1:0.06470154480826261 2:2.0 
-1.0 1:0.19904393884427588 2:46.0 
-1.0 1:0.20838198153076282 2:52.0 
-1.0 1:0.1800023119711482 2:7.0 
-1.0 1:0.0978892397306639 2:6.0 
-0.34568603021776523 1:0.05735980142844187 2:4.0 
-1.0 1:0.163215737967897 2:21.0 
-1.0 1:0.10018433195367271 2:5.0 
-1.0 1:0.10281048172718851 2:25.0 
-1.0 1:0.18688599630131883 2:9.0 
-1.0 1:0.049629166698546515 2:1.0 
-1.0 1:0.12981130226966278 2:4.0 
-1.0 1:0.1943643569125734 2:63.0 
-1.0 1:0.22892755452958458 2:40.0 
-1.0 1:0.07142857142857142 2:1.0 
-1.0 1:0.20202608460302374 2:39.0 
-1.0 1:0.1013212575056141 2:4.0 
-1.0 1:0.20029250306308977 2:27.0 
-1.0 1:0.1118062164666274 2:8.0 
-1.0 1:0.0 2:0.0 
-1.0 1:0.2091176695411231 2:69.0 
-1.0 1:0.0956369274774592 2:16.0 
-1.0 1:0.13854734575827746 2:23.0 
-1.0 1:0.06528171015201821 2:15.0 
-1.0 1:0.138705347673651 2:26.0 
-1.0 1:0.06350006350009525 2:1.0 
-1.0 1:0.026020147394144395 2:1.0 
-1.0 1:0.11486146460105282 2:5.0 
-0.8357890173554479 1:0.1559035297242756 2:20.0 
-1.0 1:0.2528763941401836 2:46.0 
-1.0 1:0.2588844147230659 2:10.0 
-1.0 1:0.27918743760659526 2:15.0 
-1.0 1:0.16456060291290175 2:7.0 
-1.0 1:0.06923076923076923 2:5.0 
-1.0 1:0.0 2:0.0 
-1.0 1:0.11369173773541551 2:2.0 
-1.0 1:0.15935129807934278 2:15.0 
-1.0 1:0.09737646239930625 2:12.0 
-0.12588279049677026 1:0.03496761425772592 2:2.0 
-1.0 1:0.0 2:0.0 
-1.0 1:0.19703770195176387 2:34.0 
-1.0 1:0.02817180849095055 2:1.0 
-1.0 1:0.30175284349079223 2:6.0 
-1.0 1:0.03362518797466652 2:1.0 
-1.0 1:0.14966033327761502 2:51.0 
-1.0 1:0.20564741652754806 2:22.0 
-1.0 1:0.2092646709967304 2:3.0 
-1.0 1:0.0 2:0.0 
-1.0 1:0.1381793650992069 2:4.0 
-1.0 1:0.18420853307288287 2:13.0 
-0.8088452943893494 1:0.1066810697856549 2:21.0 
-1.0 1:0.11301360920940967 2:9.0 
-1.0 1:0.09117173682566349 2:5.0 
-1.0 1:0.20410008634054344 2:19.0 
-1.0 1:0.10427628104433148 2:7.0 
-1.0 1:0.12995110317555994 2:2.0 
-1.0 1:0.11793660316277785 2:21.0 
-1.0 1:0.14592902161619759 2:29.0 
-1.0 1:0.19985406689745672 2:11.0 
-1.0 1:0.17624566071611358 2:21.0 
-1.0 1:0.34558935506047467 2:26.0 
-1.0 1:0.028745720940339274 2:3.0 
-1.0 1:0.10866239062352807 2:22.0 
-1.0 1:0.1294997541905147 2:5.0 
-1.0 1:0.14402887321484384 2:6.0 
-1.0 1:0.04331679174266444 2:13.0 
-1.0 1:0.05558301073665107 2:4.0 
-1.0 1:0.18458375304021044 2:10.0 
-1.0 1:0.1061997068074251 2:1.0 
-1.0 1:0.17977236116801623 2:19.0 
-1.0 1:0.06476122838255005 2:2.0 
-1.0 1:0.13405372688341016 2:3.0 
-1.0 1:0.10831199529762336 2:21.0 
-1.0 1:0.0 2:0.0 
-1.0 1:0.07147882158000955 2:2.0 
-1.0 1:0.14194856753720234 2:64.0 
-1.0 1:0.15604814688466423 2:21.0 
-1.0 1:0.20901590354998162 2:17.0 
-1.0 1:0.0 2:0.0 
-1.0 1:0.13633380743477083 2:11.0 
-1.0 1:0.1929197784275416 2:14.0 
-1.0 1:0.06659094771474484 2:15.0 
-1.0 1:0.21807696052511058 2:44.0 
-1.0 1:0.12521980673998823 2:4.0 
-1.0 1:0.21574425031691635 2:32.0 
-1.0 1:0.1638221033283843 2:17.0 
-1.0 1:0.2430658277049854 2:17.0 
-1.0 1:0.22694399476567922 2:15.0 
-1.0 1:0.2822583902977466 2:7.0 
-0.6278013311187264 1:0.14435125743225863 2:27.0 
-1.0 1:0.22040335835004182 2:32.0 
-1.0 1:0.047016543918548113 2:2.0 
-1.0 1:0.13271727172862696 2:7.0 
-0.07125662862936286 1:0.11857700424399983 2:17.0 
-1.0 1:0.10643623127803487 2:4.0 
-1.0 1:0.20060821990379676 2:58.0 
-1.0 1:0.2898434162854053 2:20.0 
-1.0 1:0.2857676556413864 2:38.0 
-1.0 1:0.23775626708674902 2:18.0 
-1.0 1:0.26627234844231285 2:26.0 
-1.0 1:0.1300214209713218 2:14.0 
-1.0 1:0.031782086308186415 2:3.0 
-1.0 1:0.08317893808139783 2:8.0 
-1.0 1:0.18181197755405132 2:15.0 
-1.0 1:0.05773502691896257 2:2.0 
-1.0 1:0.19240514347082258 2:14.0 
-1.0 1:0.2848024733975512 2:18.0 
-1.0 1:0.25841836323980977 2:13.0 
