svm_type c_svc
kernel_type rbf
gamma 0.5
nr_class 2
total_sv 1225
rho 0.22738189023028169
label 1 -1
probA 1.0847047820327023
probB 1.133430919338552
nr_sv 612 613
SV
1.0 1:0.0 2:0.0 
1.0 1:0.0 2:0.0 
1.0 1:0.0 2:0.0 
1.0 1:0.0 2:0.0 
1.0 1:0.0 2:0.0 
1.0 1:0.0 2:0.0 
1.0 1:0.0 2:0.0 
1.0 1:0.0 2:0.0 
1.0 1:0.0 2:0.0 
1.0 1:0.0 2:0.0 
1.0 1:0.0 2:0.0 
1.0 1:0.0 2:0.0 
1.0 1:0.0 2:0.0 
1.0 1:0.0 2:0.0 
1.0 1:0.0 2:0.0 
1.0 1:0.0 2:0.0 
1.0 1:0.0 2:0.0 
1.0 1:0.0 2:0.0 
1.0 1:0.0 2:0.0 
1.0 1:0.0 2:0.0 
1.0 1:0.0 2:0.0 
1.0 1:0.0 2:0.0 
1.0 1:0.0 2:0.0 
1.0 1:0.0 2:0.0 
1.0 1:0.0 2:0.0 
1.0 1:0.0 2:0.0 
1.0 1:0.0 2:0.0 
1.0 1:0.0 2:0.0 
1.0 1:0.0 2:0.0 
1.0 1:0.0 2:0.0 
1.0 1:0.0 2:0.0 
1.0 1:0.0 2:0.0 
1.0 1:0.0 2:0.0 
1.0 1:0.0 2:0.0 
1.0 1:0.0 2:0.0 
1.0 1:0.0 2:0.0 
1.0 1:0.0 2:0.0 
1.0 1:0.0 2:0.0 
1.0 1:0.0 2:0.0 
1.0 1:0.0 2:0.0 
1.0 1:0.0 2:0.0 
1.0 1:0.0 2:0.0 
1.0 1:0.0 2:0.0 
1.0 1:0.0 2:0.0 
1.0 1:0.0 2:0.0 
1.0 1:0.0 2:0.0 
1.0 1:0.0 2:0.0 
1.0 1:0.0 2:0.0 
1.0 1:0.0 2:0.0 
1.0 1:0.0 2:0.0 
1.0 1:0.0 2:0.0 
1.0 1:0.0 2:0.0 
1.0 1:0.0 2:0.0 
1.0 1:0.0 2:0.0 
1.0 1:0.0 2:0.0 
1.0 1:0.0 2:0.0 
1.0 1:0.0 2:0.0 
1.0 1:0.0 2:0.0 
1.0 1:0.0 2:0.0 
1.0 1:0.0 2:0.0 
1.0 1:0.0 2:0.0 
1.0 1:0.0 2:0.0 
1.0 1:0.0 2:0.0 
1.0 1:0.0 2:0.0 
1.0 1:0.0 2:0.0 
1.0 1:0.0 2:0.0 
1.0 1:0.0 2:0.0 
1.0 1:0.0 2:0.0 
1.0 1:0.0 2:0.0 
1.0 1:0.0 2:0.0 
1.0 1:0.0 2:0.0 
1.0 1:0.0 2:0.0 
1.0 1:0.0 2:0.0 
1.0 1:0.0 2:0.0 
1.0 1:0.0 2:0.0 
1.0 1:0.0 2:0.0 
1.0 1:0.0 2:0.0 
1.0 1:0.0 2:0.0 
1.0 1:0.0 2:0.0 
1.0 1:0.0 2:0.0 
1.0 1:0.0 2:0.0 
1.0 1:0.0 2:0.0 
1.0 1:0.0 2:0.0 
1.0 1:0.0 2:0.0 
1.0 1:0.0 2:0.0 
1.0 1:0.0 2:0.0 
1.0 1:0.0 2:0.0 
1.0 1:0.0 2:0.0 
1.0 1:0.0 2:0.0 
1.0 1:0.0 2:0.0 
1.0 1:0.0 2:0.0 
1.0 1:0.0 2:0.0 
1.0 1:0.0 2:0.0 
1.0 1:0.0 2:0.0 
1.0 1:0.0 2:0.0 
1.0 1:0.0 2:0.0 
1.0 1:0.0 2:0.0 
1.0 1:0.0 2:0.0 
1.0 1:0.0 2:0.0 
1.0 1:0.0 2:0.0 
1.0 1:0.0 2:0.0 
1.0 1:0.0 2:0.0 
1.0 1:0.0 2:0.0 
1.0 1:0.0 2:0.0 
1.0 1:0.0 2:0.0 
1.0 1:0.0 2:0.0 
1.0 1:0.0 2:0.0 
1.0 1:0.0 2:0.0 
1.0 1:0.0 2:0.0 
1.0 1:0.0 2:0.0 
1.0 1:0.0 2:0.0 
1.0 1:0.0 2:0.0 
1.0 1:0.0 2:0.0 
1.0 1:0.0 2:0.0 
1.0 1:0.0 2:0.0 
1.0 1:0.0 2:0.0 
1.0 1:0.0 2:0.0 
1.0 1:0.0 2:0.0 
1.0 1:0.0 2:0.0 
1.0 1:0.0 2:0.0 
1.0 1:0.0 2:0.0 
1.0 1:0.0 2:0.0 
1.0 1:0.0 2:0.0 
1.0 1:0.0 2:0.0 
1.0 1:0.0 2:0.0 
1.0 1:0.0 2:0.0 
1.0 1:0.0 2:0.0 
1.0 1:0.0 2:0.0 
1.0 1:0.0 2:0.0 
1.0 1:0.0 2:0.0 
1.0 1:0.0 2:0.0 
1.0 1:0.0 2:0.0 
1.0 1:0.0 2:0.0 
1.0 1:0.0 2:0.0 
1.0 1:0.0 2:0.0 
1.0 1:0.0 2:0.0 
1.0 1:0.0 2:0.0 
0.9013497114272913 1:0.15235874900827354 2:5.0 
1.0 1:0.0 2:0.0 
1.0 1:0.0 2:0.0 
1.0 1:0.0 2:0.0 
1.0 1:0.0 2:0.0 
1.0 1:0.0 2:0.0 
1.0 1:0.0 2:0.0 
1.0 1:0.0 2:0.0 
1.0 1:0.0 2:0.0 
1.0 1:0.0 2:0.0 
1.0 1:0.0 2:0.0 
1.0 1:0.0 2:0.0 
1.0 1:0.0 2:0.0 
1.0 1:0.0 2:0.0 
1.0 1:0.0 2:0.0 
1.0 1:0.0 2:0.0 
1.0 1:0.0 2:0.0 
1.0 1:0.0 2:0.0 
1.0 1:0.0 2:0.0 
1.0 1:0.0 2:0.0 
1.0 1:0.0 2:0.0 
1.0 1:0.0 2:0.0 
1.0 1:0.0 2:0.0 
1.0 1:0.25665767922752813 2:4.0 
1.0 1:0.0 2:0.0 
1.0 1:0.0 2:0.0 
1.0 1:0.0 2:0.0 
1.0 1:0.0 2:0.0 
1.0 1:0.0 2:0.0 
1.0 1:0.0 2:0.0 
1.0 1:0.0 2:0.0 
1.0 1:0.0 2:0.0 
1.0 1:0.0 2:0.0 
1.0 1:0.0 2:0.0 
1.0 1:0.0 2:0.0 
1.0 1:0.0 2:0.0 
1.0 1:0.0 2:0.0 
1.0 1:0.0 2:0.0 
1.0 1:0.0 2:0.0 
1.0 1:0.0 2:0.0 
1.0 1:0.0 2:0.0 
1.0 1:0.0 2:0.0 
1.0 1:0.0 2:0.0 
1.0 1:0.0 2:0.0 
1.0 1:0.0 2:0.0 
1.0 1:0.0 2:0.0 
1.0 1:0.0 2:0.0 
1.0 1:0.0 2:0.0 
1.0 1:0.0 2:0.0 
1.0 1:0.0 2:0.0 
1.0 1:0.0 2:0.0 
1.0 1:0.0 2:0.0 
1.0 1:0.0 2:0.0 
1.0 1:0.0 2:0.0 
1.0 1:0.0 2:0.0 
1.0 1:0.0 2:0.0 
1.0 1:0.0 2:0.0 
1.0 1:0.0 2:0.0 
1.0 1:0.0 2:0.0 
1.0 1:0.0 2:0.0 
1.0 1:0.0 2:0.0 
1.0 1:0.0 2:0.0 
1.0 1:0.0 2:0.0 
1.0 1:0.0 2:0.0 
1.0 1:0.0 2:0.0 
1.0 1:0.0 2:0.0 
1.0 1:0.0 2:0.0 
1.0 1:0.0 2:0.0 
1.0 1:0.0 2:0.0 
1.0 1:0.0 2:0.0 
1.0 1:0.0 2:0.0 
1.0 1:0.0 2:0.0 
1.0 1:0.0 2:0.0 
1.0 1:0.0 2:0.0 
1.0 1:0.0 2:0.0 
1.0 1:0.0 2:0.0 
1.0 1:0.0 2:0.0 
1.0 1:0.0 2:0.0 
1.0 1:0.0 2:0.0 
1.0 1:0.08595082592914441 2:3.0 
1.0 1:0.0 2:0.0 
1.0 1:0.0 2:0.0 
1.0 1:0.0 2:0.0 
1.0 1:0.0 2:0.0 
1.0 1:0.0 2:0.0 
1.0 1:0.0 2:0.0 
1.0 1:0.0 2:0.0 
1.0 1:0.0 2:0.0 
1.0 1:0.0 2:0.0 
1.0 1:0.0 2:0.0 
1.0 1:0.0 2:0.0 
1.0 1:0.0 2:0.0 
1.0 1:0.0 2:0.0 
1.0 1:0.0 2:0.0 
1.0 1:0.0 2:0.0 
1.0 1:0.0 2:0.0 
1.0 1:0.0 2:0.0 
1.0 1:0.0 2:0.0 
1.0 1:0.0 2:0.0 
1.0 1:0.0 2:0.0 
1.0 1:0.0 2:0.0 
1.0 1:0.0 2:0.0 
1.0 1:0.0 2:0.0 
1.0 1:0.0 2:0.0 
1.0 1:0.0 2:0.0 
1.0 1:0.0 2:0.0 
1.0 1:0.0 2:0.0 
1.0 1:0.0 2:0.0 
1.0 1:0.0 2:0.0 
1.0 1:0.0 2:0.0 
1.0 1:0.0 2:0.0 
1.0 1:0.0 2:0.0 
1.0 1:0.0 2:0.0 
1.0 1:0.0 2:0.0 
1.0 1:0.0 2:0.0 
1.0 1:0.0 2:0.0 
1.0 1:0.0 2:0.0 
1.0 1:0.0 2:0.0 
1.0 1:0.0 2:0.0 
1.0 1:0.0 2:0.0 
1.0 1:0.0 2:0.0 
1.0 1:0.0 2:0.0 
1.0 1:0.0 2:0.0 
1.0 1:0.0 2:0.0 
1.0 1:0.0 2:0.0 
1.0 1:0.0 2:0.0 
1.0 1:0.0 2:0.0 
1.0 1:0.0 2:0.0 
1.0 1:0.0 2:0.0 
1.0 1:0.0 2:0.0 
1.0 1:0.0 2:0.0 
1.0 1:0.0 2:0.0 
1.0 1:0.0 2:0.0 
1.0 1:0.0 2:0.0 
1.0 1:0.0 2:0.0 
1.0 1:0.0 2:0.0 
1.0 1:0.0 2:0.0 
1.0 1:0.0 2:0.0 
1.0 1:0.0 2:0.0 
1.0 1:0.0 2:0.0 
1.0 1:0.0 2:0.0 
1.0 1:0.0 2:0.0 
1.0 1:0.0 2:0.0 
1.0 1:0.0 2:0.0 
1.0 1:0.0 2:0.0 
1.0 1:0.0 2:0.0 
1.0 1:0.0 2:0.0 
1.0 1:0.0 2:0.0 
1.0 1:0.0 2:0.0 
1.0 1:0.0 2:0.0 
1.0 1:0.0 2:0.0 
1.0 1:0.0 2:0.0 
1.0 1:0.0 2:0.0 
1.0 1:0.0 2:0.0 
1.0 1:0.0 2:0.0 
1.0 1:0.24253562503633297 2:1.0 
1.0 1:0.0 2:0.0 
1.0 1:0.0 2:0.0 
1.0 1:0.0 2:0.0 
1.0 1:0.0 2:0.0 
1.0 1:0.0 2:0.0 
1.0 1:0.0 2:0.0 
1.0 1:0.0 2:0.0 
1.0 1:0.0 2:0.0 
1.0 1:0.0 2:0.0 
1.0 1:0.0 2:0.0 
1.0 1:0.0 2:0.0 
1.0 1:0.0 2:0.0 
1.0 1:0.0 2:0.0 
1.0 1:0.0 2:0.0 
1.0 1:0.0 2:0.0 
1.0 1:0.0 2:0.0 
1.0 1:0.0 2:0.0 
1.0 1:0.0 2:0.0 
1.0 1:0.0 2:0.0 
1.0 1:0.0 2:0.0 
1.0 1:0.0 2:0.0 
1.0 1:0.0 2:0.0 
1.0 1:0.0 2:0.0 
1.0 1:0.0 2:0.0 
1.0 1:0.0 2:0.0 
1.0 1:0.0 2:0.0 
1.0 1:0.0 2:0.0 
1.0 1:0.0 2:0.0 
1.0 1:0.0 2:0.0 
1.0 1:0.0 2:0.0 
1.0 1:0.0 2:0.0 
1.0 1:0.0 2:0.0 
1.0 1:0.0 2:0.0 
1.0 1:0.0 2:0.0 
1.0 1:0.0 2:0.0 
1.0 1:0.0 2:0.0 
1.0 1:0.0 2:0.0 
1.0 1:0.0 2:0.0 
1.0 1:0.0 2:0.0 
1.0 1:0.0 2:0.0 
1.0 1:0.0 2:0.0 
1.0 1:0.0 2:0.0 
1.0 1:0.1874166992689073 2:4.0 
1.0 1:0.0 2:0.0 
1.0 1:0.0 2:0.0 
1.0 1:0.0 2:0.0 
1.0 1:0.0 2:0.0 
1.0 1:0.0 2:0.0 
1.0 1:0.0 2:0.0 
1.0 1:0.0 2:0.0 
1.0 1:0.0 2:0.0 
1.0 1:0.0 2:0.0 
1.0 1:0.0 2:0.0 
1.0 1:0.0 2:0.0 
1.0 1:0.0 2:0.0 
1.0 1:0.0 2:0.0 
1.0 1:0.0 2:0.0 
1.0 1:0.0 2:0.0 
1.0 1:0.0 2:0.0 
1.0 1:0.0 2:0.0 
1.0 1:0.0 2:0.0 
1.0 1:0.0 2:0.0 
1.0 1:0.0 2:0.0 
1.0 1:0.0 2:0.0 
1.0 1:0.0 2:0.0 
1.0 1:0.0 2:0.0 
1.0 1:0.0 2:0.0 
1.0 1:0.0 2:0.0 
1.0 1:0.0 2:0.0 
1.0 1:0.0 2:0.0 
1.0 1:0.0 2:0.0 
1.0 1:0.0 2:0.0 
1.0 1:0.0 2:0.0 
1.0 1:0.0 2:0.0 
1.0 1:0.0 2:0.0 
1.0 1:0.0 2:0.0 
1.0 1:0.0 2:0.0 
1.0 1:0.0 2:0.0 
1.0 1:0.0 2:0.0 
1.0 1:0.0 2:0.0 
1.0 1:0.0 2:0.0 
1.0 1:0.0 2:0.0 
1.0 1:0.0 2:0.0 
1.0 1:0.0 2:0.0 
1.0 1:0.0 2:0.0 
1.0 1:0.0 2:0.0 
1.0 1:0.0 2:0.0 
1.0 1:0.0 2:0.0 
1.0 1:0.0 2:0.0 
1.0 1:0.0 2:0.0 
1.0 1:0.0 2:0.0 
1.0 1:0.0 2:0.0 
1.0 1:0.0 2:0.0 
1.0 1:0.0 2:0.0 
1.0 1:0.0 2:0.0 
1.0 1:0.0 2:0.0 
1.0 1:0.0 2:0.0 
1.0 1:0.0 2:0.0 
1.0 1:0.0 2:0.0 
1.0 1:0.0 2:0.0 
1.0 1:0.0 2:0.0 
1.0 1:0.0 2:0.0 
1.0 1:0.0 2:0.0 
1.0 1:0.0 2:0.0 
1.0 1:0.0 2:0.0 
1.0 1:0.0 2:0.0 
1.0 1:0.0 2:0.0 
1.0 1:0.0 2:0.0 
1.0 1:0.0 2:0.0 
1.0 1:0.0 2:0.0 
1.0 1:0.0 2:0.0 
1.0 1:0.0 2:0.0 
1.0 1:0.0 2:0.0 
1.0 1:0.0 2:0.0 
1.0 1:0.0 2:0.0 
1.0 1:0.0 2:0.0 
1.0 1:0.0 2:0.0 
1.0 1:0.0 2:0.0 
1.0 1:0.0 2:0.0 
1.0 1:0.0 2:0.0 
1.0 1:0.0 2:0.0 
1.0 1:0.0 2:0.0 
1.0 1:0.0 2:0.0 
1.0 1:0.0 2:0.0 
1.0 1:0.0 2:0.0 
1.0 1:0.0 2:0.0 
1.0 1:0.0 2:0.0 
1.0 1:0.0 2:0.0 
1.0 1:0.0 2:0.0 
1.0 1:0.0 2:0.0 
1.0 1:0.0 2:0.0 
1.0 1:0.0 2:0.0 
1.0 1:0.0 2:0.0 
1.0 1:0.0 2:0.0 
1.0 1:0.0 2:0.0 
1.0 1:0.0 2:0.0 
1.0 1:0.0 2:0.0 
1.0 1:0.0 2:0.0 
1.0 1:0.0 2:0.0 
1.0 1:0.0 2:0.0 
1.0 1:0.0 2:0.0 
1.0 1:0.0 2:0.0 
1.0 1:0.0 2:0.0 
1.0 1:0.0 2:0.0 
1.0 1:0.0 2:0.0 
1.0 1:0.0 2:0.0 
1.0 1:0.0 2:0.0 
1.0 1:0.0 2:0.0 
1.0 1:0.14405140270548622 2:4.0 
1.0 1:0.0 2:0.0 
1.0 1:0.14117253172619026 2:5.0 
1.0 1:0.0 2:0.0 
1.0 1:0.0 2:0.0 
1.0 1:0.0 2:0.0 
1.0 1:0.0 2:0.0 
1.0 1:0.0 2:0.0 
1.0 1:0.0 2:0.0 
1.0 1:0.0 2:0.0 
1.0 1:0.0 2:0.0 
1.0 1:0.0 2:0.0 
1.0 1:0.0 2:0.0 
1.0 1:0.0 2:0.0 
1.0 1:0.0 2:0.0 
1.0 1:0.0 2:0.0 
1.0 1:0.0 2:0.0 
1.0 1:0.0 2:0.0 
1.0 1:0.0 2:0.0 
1.0 1:0.0 2:0.0 
1.0 1:0.0 2:0.0 
1.0 1:0.0 2:0.0 
1.0 1:0.0 2:0.0 
1.0 1:0.0 2:0.0 
1.0 1:0.0 2:0.0 
1.0 1:0.0 2:0.0 
1.0 1:0.0 2:0.0 
1.0 1:0.0 2:0.0 
1.0 1:0.0 2:0.0 
1.0 1:0.0 2:0.0 
1.0 1:0.0 2:0.0 
1.0 1:0.0 2:0.0 
1.0 1:0.07724939333254838 2:4.0 
1.0 1:0.0 2:0.0 
1.0 1:0.0 2:0.0 
1.0 1:0.0 2:0.0 
1.0 1:0.0 2:0.0 
1.0 1:0.0 2:0.0 
1.0 1:0.0 2:0.0 
1.0 1:0.0 2:0.0 
1.0 1:0.0 2:0.0 
1.0 1:0.0 2:0.0 
1.0 1:0.0 2:0.0 
1.0 1:0.0 2:0.0 
1.0 1:0.0 2:0.0 
1.0 1:0.0 2:0.0 
1.0 1:0.0 2:0.0 
1.0 1:0.0 2:0.0 
1.0 1:0.0 2:0.0 
1.0 1:0.0 2:0.0 
1.0 1:0.0 2:0.0 
1.0 1:0.0 2:0.0 
1.0 1:0.0 2:0.0 
1.0 1:0.0 2:0.0 
1.0 1:0.0 2:0.0 
1.0 1:0.0 2:0.0 
1.0 1:0.0 2:0.0 
1.0 1:0.0 2:0.0 
1.0 1:0.0 2:0.0 
1.0 1:0.0 2:0.0 
1.0 1:0.0 2:0.0 
1.0 1:0.0 2:0.0 
1.0 1:0.0 2:0.0 
1.0 1:0.0 2:0.0 
1.0 1:0.0 2:0.0 
1.0 1:0.0 2:0.0 
1.0 1:0.0 2:0.0 
1.0 1:0.0 2:0.0 
1.0 1:0.0 2:0.0 
1.0 1:0.0 2:0.0 
1.0 1:0.0 2:0.0 
1.0 1:0.0 2:0.0 
1.0 1:0.0 2:0.0 
1.0 1:0.0 2:0.0 
1.0 1:0.0 2:0.0 
1.0 1:0.0 2:0.0 
1.0 1:0.0 2:0.0 
1.0 1:0.0 2:0.0 
1.0 1:0.0 2:0.0 
1.0 1:0.0 2:0.0 
1.0 1:0.0 2:0.0 
1.0 1:0.0 2:0.0 
1.0 1:0.0 2:0.0 
1.0 1:0.0 2:0.0 
1.0 1:0.0 2:0.0 
1.0 1:0.0 2:0.0 
1.0 1:0.0 2:0.0 
1.0 1:0.0 2:0.0 
1.0 1:0.0 2:0.0 
1.0 1:0.0 2:0.0 
1.0 1:0.0 2:0.0 
1.0 1:0.0 2:0.0 
1.0 1:0.0 2:0.0 
1.0 1:0.0 2:0.0 
1.0 1:0.0 2:0.0 
1.0 1:0.0 2:0.0 
1.0 1:0.0 2:0.0 
1.0 1:0.0 2:0.0 
1.0 1:0.0 2:0.0 
1.0 1:0.0 2:0.0 
1.0 1:0.0 2:0.0 
1.0 1:0.0 2:0.0 
1.0 1:0.0 2:0.0 
1.0 1:0.0 2:0.0 
1.0 1:0.0 2:0.0 
1.0 1:0.0 2:0.0 
1.0 1:0.0 2:0.0 
1.0 1:0.0 2:0.0 
1.0 1:0.0 2:0.0 
1.0 1:0.0 2:0.0 
1.0 1:0.0 2:0.0 
1.0 1:0.0 2:0.0 
1.0 1:0.0 2:0.0 
1.0 1:0.0 2:0.0 
1.0 1:0.0 2:0.0 
1.0 1:0.0 2:0.0 
1.0 1:0.0 2:0.0 
1.0 1:0.0 2:0.0 
1.0 1:0.0 2:0.0 
1.0 1:0.0 2:0.0 
1.0 1:0.0 2:0.0 
1.0 1:0.0 2:0.0 
1.0 1:0.0 2:0.0 
1.0 1:0.0 2:0.0 
1.0 1:0.0 2:0.0 
1.0 1:0.0 2:0.0 
1.0 1:0.0 2:0.0 
1.0 1:0.0 2:0.0 
1.0 1:0.0 2:0.0 
1.0 1:0.0 2:0.0 
1.0 1:0.0 2:0.0 
1.0 1:0.0 2:0.0 
1.0 1:0.0 2:0.0 
1.0 1:0.0 2:0.0 
1.0 1:0.0 2:0.0 
1.0 1:0.0 2:0.0 
1.0 1:0.0 2:0.0 
1.0 1:0.0 2:0.0 
1.0 1:0.0 2:0.0 
1.0 1:0.0 2:0.0 
1.0 1:0.0 2:0.0 
1.0 1:0.0 2:0.0 
1.0 1:0.0 2:0.0 
1.0 1:0.0 2:0.0 
1.0 1:0.0 2:0.0 
1.0 1:0.0 2:0.0 
1.0 1:0.0 2:0.0 
1.0 1:0.0 2:0.0 
1.0 1:0.0 2:0.0 
1.0 1:0.0 2:0.0 
1.0 1:0.0 2:0.0 
1.0 1:0.0 2:0.0 
1.0 1:0.0 2:0.0 
1.0 1:0.18603179792550079 2:4.0 
1.0 1:0.0 2:0.0 
1.0 1:0.0 2:0.0 
1.0 1:0.0 2:0.0 
1.0 1:0.0 2:0.0 
1.0 1:0.0 2:0.0 
1.0 1:0.0 2:0.0 
1.0 1:0.0 2:0.0 
1.0 1:0.0 2:0.0 
1.0 1:0.0 2:0.0 
1.0 1:0.0 2:0.0 
1.0 1:0.0 2:0.0 
1.0 1:0.0 2:0.0 
1.0 1:0.0 2:0.0 
1.0 1:0.0 2:0.0 
1.0 1:0.0 2:0.0 
1.0 1:0.0 2:0.0 
1.0 1:0.0 2:0.0 
-0.3550280426009394 1:0.0 2:0.0 
-1.0 1:0.0 2:0.0 
-1.0 1:0.0 2:0.0 
-1.0 1:0.0 2:0.0 
-1.0 1:0.0 2:0.0 
-1.0 1:0.0 2:0.0 
-1.0 1:0.0 2:0.0 
-1.0 1:0.0 2:0.0 
-1.0 1:0.0 2:0.0 
-1.0 1:0.0 2:0.0 
-1.0 1:0.0 2:0.0 
-1.0 1:0.0 2:0.0 
-1.0 1:0.0 2:0.0 
-1.0 1:0.0 2:0.0 
-1.0 1:0.0 2:0.0 
-1.0 1:0.0 2:0.0 
-1.0 1:0.0 2:0.0 
-1.0 1:0.0 2:0.0 
-1.0 1:0.0 2:0.0 
-1.0 1:0.0 2:0.0 
-1.0 1:0.0 2:0.0 
-1.0 1:0.0 2:0.0 
-1.0 1:0.0 2:0.0 
-1.0 1:0.0 2:0.0 
-1.0 1:0.0 2:0.0 
-1.0 1:0.0 2:0.0 
-1.0 1:0.0 2:0.0 
-1.0 1:0.0 2:0.0 
-1.0 1:0.0 2:0.0 
-1.0 1:0.0 2:0.0 
-1.0 1:0.0 2:0.0 
-1.0 1:0.0 2:0.0 
-1.0 1:0.0 2:0.0 
-1.0 1:0.0 2:0.0 
-1.0 1:0.0 2:0.0 
-1.0 1:0.0 2:0.0 
-1.0 1:0.0 2:0.0 
-1.0 1:0.0 2:0.0 
-1.0 1:0.0 2:0.0 
-1.0 1:0.0 2:0.0 
-1.0 1:0.0 2:0.0 
-1.0 1:0.0 2:0.0 
-1.0 1:0.0 2:0.0 
-1.0 1:0.0 2:0.0 
-1.0 1:0.0 2:0.0 
-1.0 1:0.0 2:0.0 
-1.0 1:0.0 2:0.0 
-1.0 1:0.0 2:0.0 
-1.0 1:0.0 2:0.0 
-1.0 1:0.0 2:0.0 
-1.0 1:0.0 2:0.0 
-1.0 1:0.0 2:0.0 
-1.0 1:0.0 2:0.0 
-1.0 1:0.0 2:0.0 
-1.0 1:0.0 2:0.0 
-1.0 1:0.0 2:0.0 
-1.0 1:0.0 2:0.0 
-1.0 1:0.0 2:0.0 
-1.0 1:0.0 2:0.0 
-1.0 1:0.0 2:0.0 
-1.0 1:0.0 2:0.0 
-1.0 1:0.0 2:0.0 
-1.0 1:0.0 2:0.0 
-1.0 1:0.0 2:0.0 
-1.0 1:0.0 2:0.0 
-1.0 1:0.0 2:0.0 
-1.0 1:0.0 2:0.0 
-1.0 1:0.0 2:0.0 
-1.0 1:0.0 2:0.0 
-1.0 1:0.0 2:0.0 
-1.0 1:0.0 2:0.0 
-1.0 1:0.0 2:0.0 
-1.0 1:0.0 2:0.0 
-1.0 1:0.0 2:0.0 
-1.0 1:0.0 2:0.0 
-1.0 1:0.0 2:0.0 
-1.0 1:0.0 2:0.0 
-1.0 1:0.0 2:0.0 
-1.0 1:0.0 2:0.0 
-1.0 1:0.0 2:0.0 
-1.0 1:0.0 2:0.0 
-1.0 1:0.0 2:0.0 
-1.0 1:0.0 2:0.0 
-1.0 1:0.0 2:0.0 
-1.0 1:0.0 2:0.0 
-1.0 1:0.0 2:0.0 
-1.0 1:0.0 2:0.0 
-1.0 1:0.0 2:0.0 
-1.0 1:0.0 2:0.0 
-1.0 1:0.0 2:0.0 
-1.0 1:0.0 2:0.0 
-1.0 1:0.0 2:0.0 
-1.0 1:0.0 2:0.0 
-1.0 1:0.0 2:0.0 
-1.0 1:0.0 2:0.0 
-1.0 1:0.0 2:0.0 
-1.0 1:0.0 2:0.0 
-1.0 1:0.0 2:0.0 
-1.0 1:0.0 2:0.0 
-1.0 1:0.0 2:0.0 
-1.0 1:0.0 2:0.0 
-1.0 1:0.0 2:0.0 
-1.0 1:0.0 2:0.0 
-1.0 1:0.0 2:0.0 
-1.0 1:0.0 2:0.0 
-1.0 1:0.0 2:0.0 
-1.0 1:0.0 2:0.0 
-1.0 1:0.0 2:0.0 
-1.0 1:0.0 2:0.0 
-1.0 1:0.0 2:0.0 
-1.0 1:0.0 2:0.0 
-0.5463216688263519 1:0.07706330400412542 2:3.0 
-1.0 1:0.0 2:0.0 
-1.0 1:0.0 2:0.0 
-1.0 1:0.0 2:0.0 
-1.0 1:0.0 2:0.0 
-1.0 1:0.0 2:0.0 
-1.0 1:0.0 2:0.0 
-1.0 1:0.0 2:0.0 
-1.0 1:0.0 2:0.0 
-1.0 1:0.0 2:0.0 
-1.0 1:0.0 2:0.0 
-1.0 1:0.0 2:0.0 
-1.0 1:0.0 2:0.0 
-1.0 1:0.0 2:0.0 
-1.0 1:0.0 2:0.0 
-1.0 1:0.0 2:0.0 
-1.0 1:0.0 2:0.0 
-1.0 1:0.0 2:0.0 
-1.0 1:0.0 2:0.0 
-1.0 1:0.0 2:0.0 
-1.0 1:0.0 2:0.0 
-1.0 1:0.0 2:0.0 
-1.0 1:0.0 2:0.0 
-1.0 1:0.0 2:0.0 
-1.0 1:0.0 2:0.0 
-1.0 1:0.0 2:0.0 
-1.0 1:0.11659573973199802 2:4.0 
-1.0 1:0.0 2:0.0 
-1.0 1:0.0 2:0.0 
-1.0 1:0.0 2:0.0 
-1.0 1:0.0 2:0.0 
-1.0 1:0.0 2:0.0 
-1.0 1:0.0 2:0.0 
-1.0 1:0.0 2:0.0 
-1.0 1:0.0 2:0.0 
-1.0 1:0.0 2:0.0 
-1.0 1:0.0 2:0.0 
-1.0 1:0.0 2:0.0 
-1.0 1:0.0 2:0.0 
-1.0 1:0.0 2:0.0 
-1.0 1:0.0 2:0.0 
-1.0 1:0.0 2:0.0 
-1.0 1:0.0 2:0.0 
-1.0 1:0.0 2:0.0 
-1.0 1:0.0 2:0.0 
-1.0 1:0.0 2:0.0 
-1.0 1:0.0 2:0.0 
-1.0 1:0.0 2:0.0 
-1.0 1:0.0 2:0.0 
-1.0 1:0.0 2:0.0 
-1.0 1:0.0 2:0.0 
-1.0 1:0.0 2:0.0 
-1.0 1:0.0 2:0.0 
-1.0 1:0.0 2:0.0 
-1.0 1:0.0 2:0.0 
-1.0 1:0.0 2:0.0 
-1.0 1:0.0 2:0.0 
-1.0 1:0.0 2:0.0 
-1.0 1:0.0 2:0.0 
-1.0 1:0.0 2:0.0 
-1.0 1:0.0 2:0.0 
-1.0 1:0.0 2:0.0 
-1.0 1:0.0 2:0.0 
-1.0 1:0.0 2:0.0 
-1.0 1:0.0 2:0.0 
-1.0 1:0.0 2:0.0 
-1.0 1:0.0 2:0.0 
-1.0 1:0.0 2:0.0 
-1.0 1:0.0 2:0.0 
-1.0 1:0.0 2:0.0 
-1.0 1:0.0 2:0.0 
-1.0 1:0.0 2:0.0 
-1.0 1:0.0 2:0.0 
-1.0 1:0.0 2:0.0 
-1.0 1:0.0 2:0.0 
-1.0 1:0.0 2:0.0 
-1.0 1:0.0 2:0.0 
-1.0 1:0.0 2:0.0 
-1.0 1:0.0 2:0.0 
-1.0 1:0.0 2:0.0 
-1.0 1:0.0 2:0.0 
-1.0 1:0.0 2:0.0 
-1.0 1:0.0 2:0.0 
-1.0 1:0.0 2:0.0 
-1.0 1:0.0 2:0.0 
-1.0 1:0.0 2:0.0 
-1.0 1:0.09062865088588874 2:3.0 
-1.0 1:0.0 2:0.0 
-1.0 1:0.0 2:0.0 
-1.0 1:0.0 2:0.0 
-1.0 1:0.0 2:0.0 
-1.0 1:0.0 2:0.0 
-1.0 1:0.0 2:0.0 
-1.0 1:0.0 2:0.0 
-1.0 1:0.0 2:0.0 
-1.0 1:0.0 2:0.0 
-1.0 1:0.0 2:0.0 
-1.0 1:0.0 2:0.0 
-1.0 1:0.0 2:0.0 
-1.0 1:0.0 2:0.0 
-1.0 1:0.0 2:0.0 
-1.0 1:0.0 2:0.0 
-1.0 1:0.0 2:0.0 
-1.0 1:0.0 2:0.0 
-1.0 1:0.0 2:0.0 
-1.0 1:0.0 2:0.0 
-1.0 1:0.0 2:0.0 
-1.0 1:0.0 2:0.0 
-1.0 1:0.0 2:0.0 
-1.0 1:0.0 2:0.0 
-1.0 1:0.0 2:0.0 
-1.0 1:0.0 2:0.0 
-1.0 1:0.0 2:0.0 
-1.0 1:0.0 2:0.0 
-1.0 1:0.0 2:0.0 
-1.0 1:0.0 2:0.0 
-1.0 1:0.0 2:0.0 
-1.0 1:0.0 2:0.0 
-1.0 1:0.0 2:0.0 
-1.0 1:0.0 2:0.0 
-1.0 1:0.0 2:0.0 
-1.0 1:0.0 2:0.0 
-1.0 1:0.0 2:0.0 
-1.0 1:0.0 2:0.0 
-1.0 1:0.0 2:0.0 
-1.0 1:0.0 2:0.0 
-1.0 1:0.0 2:0.0 
-1.0 1:0.0 2:0.0 
-1.0 1:0.0 2:0.0 
-1.0 1:0.0 2:0.0 
-1.0 1:0.0 2:0.0 
-1.0 1:0.0 2:0.0 
-1.0 1:0.0 2:0.0 
-1.0 1:0.0 2:0.0 
-1.0 1:0.0 2:0.0 
-1.0 1:0.0 2:0.0 
-1.0 1:0.0 2:0.0 
-1.0 1:0.0 2:0.0 
-1.0 1:0.0 2:0.0 
-1.0 1:0.0 2:0.0 
-1.0 1:0.0 2:0.0 
-1.0 1:0.0 2:0.0 
-1.0 1:0.0 2:0.0 
-1.0 1:0.0 2:0.0 
-1.0 1:0.0 2:0.0 
-1.0 1:0.0 2:0.0 
-1.0 1:0.0 2:0.0 
-1.0 1:0.0 2:0.0 
-1.0 1:0.0 2:0.0 
-1.0 1:0.0 2:0.0 
-1.0 1:0.0 2:0.0 
-1.0 1:0.0 2:0.0 
-1.0 1:0.0 2:0.0 
-1.0 1:0.0 2:0.0 
-1.0 1:0.0 2:0.0 
-1.0 1:0.0 2:0.0 
-1.0 1:0.0 2:0.0 
-1.0 1:0.0 2:0.0 
-1.0 1:0.0 2:0.0 
-1.0 1:0.0 2:0.0 
-1.0 1:0.0 2:0.0 
-1.0 1:0.0 2:0.0 
-1.0 1:0.0 2:0.0 
-1.0 1:0.0 2:0.0 
-1.0 1:0.0 2:0.0 
-1.0 1:0.0 2:0.0 
-1.0 1:0.0 2:0.0 
-1.0 1:0.0 2:0.0 
-1.0 1:0.0 2:0.0 
-1.0 1:0.0 2:0.0 
-1.0 1:0.0 2:0.0 
-1.0 1:0.0 2:0.0 
-1.0 1:0.0 2:0.0 
-1.0 1:0.0 2:0.0 
-1.0 1:0.0 2:0.0 
-1.0 1:0.0 2:0.0 
-1.0 1:0.0 2:0.0 
-1.0 1:0.0 2:0.0 
-1.0 1:0.0 2:0.0 
-1.0 1:0.0 2:0.0 
-1.0 1:0.0 2:0.0 
-1.0 1:0.0 2:0.0 
-1.0 1:0.0 2:0.0 
-1.0 1:0.0 2:0.0 
-1.0 1:0.0 2:0.0 
-1.0 1:0.0 2:0.0 
-1.0 1:0.0 2:0.0 
-1.0 1:0.0 2:0.0 
-1.0 1:0.0 2:0.0 
-1.0 1:0.0 2:0.0 
-1.0 1:0.0 2:0.0 
-1.0 1:0.0 2:0.0 
-1.0 1:0.0 2:0.0 
-1.0 1:0.0 2:0.0 
-1.0 1:0.0 2:0.0 
-1.0 1:0.0 2:0.0 
-1.0 1:0.0 2:0.0 
-1.0 1:0.0 2:0.0 
-1.0 1:0.0 2:0.0 
-1.0 1:0.0 2:0.0 
-1.0 1:0.0 2:0.0 
-1.0 1:0.0 2:0.0 
-1.0 1:0.0 2:0.0 
-1.0 1:0.0 2:0.0 
-1.0 1:0.0 2:0.0 
-1.0 1:0.0 2:0.0 
-1.0 1:0.0 2:0.0 
-1.0 1:0.0 2:0.0 
-1.0 1:0.0 2:0.0 
-1.0 1:0.0 2:0.0 
-1.0 1:0.0 2:0.0 
-1.0 1:0.0 2:0.0 
-1.0 1:0.0 2:0.0 
-1.0 1:0.26046343836501057 2:4.0 
-1.0 1:0.0 2:0.0 
-1.0 1:0.0 2:0.0 
-1.0 1:0.0 2:0.0 
-1.0 1:0.0 2:0.0 
-1.0 1:0.0 2:0.0 
-1.0 1:0.0 2:0.0 
-1.0 1:0.0 2:0.0 
-1.0 1:0.0 2:0.0 
-1.0 1:0.0 2:0.0 
-1.0 1:0.0 2:0.0 
-1.0 1:0.0 2:0.0 
-1.0 1:0.0 2:0.0 
-1.0 1:0.0 2:0.0 
-1.0 1:0.0 2:0.0 
-1.0 1:0.0 2:0.0 
-1.0 1:0.0 2:0.0 
-1.0 1:0.0 2:0.0 
-1.0 1:0.0 2:0.0 
-1.0 1:0.0 2:0.0 
-1.0 1:0.0 2:0.0 
-1.0 1:0.0 2:0.0 
-1.0 1:0.0 2:0.0 
-1.0 1:0.0 2:0.0 
-1.0 1:0.0 2:0.0 
-1.0 1:0.0 2:0.0 
-1.0 1:0.0 2:0.0 
-1.0 1:0.0 2:0.0 
-1.0 1:0.0 2:0.0 
-1.0 1:0.0 2:0.0 
-1.0 1:0.0 2:0.0 
-1.0 1:0.0 2:0.0 
-1.0 1:0.0 2:0.0 
-1.0 1:0.0 2:0.0 
-1.0 1:0.0 2:0.0 
-1.0 1:0.0 2:0.0 
-1.0 1:0.0 2:0.0 
-1.0 1:0.0 2:0.0 
-1.0 1:0.0 2:0.0 
-1.0 1:0.0 2:0.0 
-1.0 1:0.0 2:0.0 
-1.0 1:0.0 2:0.0 
-1.0 1:0.0 2:0.0 
-1.0 1:0.0 2:0.0 
-1.0 1:0.0 2:0.0 
-1.0 1:0.0 2:0.0 
-1.0 1:0.0 2:0.0 
-1.0 1:0.0 2:0.0 
-1.0 1:0.0 2:0.0 
-1.0 1:0.0 2:0.0 
-1.0 1:0.0 2:0.0 
-1.0 1:0.0 2:0.0 
-1.0 1:0.0 2:0.0 
-1.0 1:0.0 2:0.0 
-1.0 1:0.0 2:0.0 
-1.0 1:0.0 2:0.0 
-1.0 1:0.0 2:0.0 
-1.0 1:0.0 2:0.0 
-1.0 1:0.0 2:0.0 
-1.0 1:0.0 2:0.0 
-1.0 1:0.0 2:0.0 
-1.0 1:0.0 2:0.0 
-1.0 1:0.0 2:0.0 
-1.0 1:0.0 2:0.0 
-1.0 1:0.0 2:0.0 
-1.0 1:0.0 2:0.0 
-1.0 1:0.0 2:0.0 
-1.0 1:0.0 2:0.0 
-1.0 1:0.0 2:0.0 
-1.0 1:0.0 2:0.0 
-1.0 1:0.0 2:0.0 
-1.0 1:0.0 2:0.0 
-1.0 1:0.0 2:0.0 
-1.0 1:0.0 2:0.0 
-1.0 1:0.0 2:0.0 
-1.0 1:0.0 2:0.0 
-1.0 1:0.0 2:0.0 
-1.0 1:0.0 2:0.0 
-1.0 1:0.0 2:0.0 
-1.0 1:0.0 2:0.0 
-1.0 1:0.0 2:0.0 
-1.0 1:0.0 2:0.0 
-1.0 1:0.0 2:0.0 
-1.0 1:0.0 2:0.0 
-1.0 1:0.0 2:0.0 
-1.0 1:0.0 2:0.0 
-1.0 1:0.0 2:0.0 
-1.0 1:0.0 2:0.0 
-1.0 1:0.0 2:0.0 
-1.0 1:0.0 2:0.0 
-1.0 1:0.0 2:0.0 
-1.0 1:0.0 2:0.0 
-1.0 1:0.0 2:0.0 
-1.0 1:0.0 2:0.0 
-1.0 1:0.0 2:0.0 
-1.0 1:0.0 2:0.0 
-1.0 1:0.0 2:0.0 
-1.0 1:0.0 2:0.0 
-1.0 1:0.0 2:0.0 
-1.0 1:0.0 2:0.0 
-1.0 1:0.0 2:0.0 
-1.0 1:0.0 2:0.0 
-1.0 1:0.0 2:0.0 
-1.0 1:0.0 2:0.0 
-1.0 1:0.0 2:0.0 
-1.0 1:0.0 2:0.0 
-1.0 1:0.0 2:0.0 
-1.0 1:0.0 2:0.0 
-1.0 1:0.0 2:0.0 
-1.0 1:0.0 2:0.0 
-1.0 1:0.0 2:0.0 
-1.0 1:0.11354469815672356 2:4.0 
-1.0 1:0.0 2:0.0 
-1.0 1:0.2745105064841128 2:4.0 
-1.0 1:0.0 2:0.0 
-1.0 1:0.0 2:0.0 
-1.0 1:0.0 2:0.0 
-1.0 1:0.0 2:0.0 
-1.0 1:0.0 2:0.0 
-1.0 1:0.0 2:0.0 
-1.0 1:0.0 2:0.0 
-1.0 1:0.0 2:0.0 
-1.0 1:0.0 2:0.0 
-1.0 1:0.0 2:0.0 
-1.0 1:0.0 2:0.0 
-1.0 1:0.0 2:0.0 
-1.0 1:0.0 2:0.0 
-1.0 1:0.0 2:0.0 
-1.0 1:0.0 2:0.0 
-1.0 1:0.0 2:0.0 
-1.0 1:0.0 2:0.0 
-1.0 1:0.0 2:0.0 
-1.0 1:0.0 2:0.0 
-1.0 1:0.0 2:0.0 
-1.0 1:0.0 2:0.0 
-1.0 1:0.0 2:0.0 
-1.0 1:0.0 2:0.0 
-1.0 1:0.0 2:0.0 
-1.0 1:0.0 2:0.0 
-1.0 1:0.0 2:0.0 
-1.0 1:0.0 2:0.0 
-1.0 1:0.0 2:0.0 
-1.0 1:0.0 2:0.0 
-1.0 1:0.0 2:0.0 
-1.0 1:0.06380055741514505 2:4.0 
-1.0 1:0.0 2:0.0 
-1.0 1:0.0 2:0.0 
-1.0 1:0.0 2:0.0 
-1.0 1:0.0 2:0.0 
-1.0 1:0.0 2:0.0 
-1.0 1:0.0 2:0.0 
-1.0 1:0.0 2:0.0 
-1.0 1:0.0 2:0.0 
-1.0 1:0.0 2:0.0 
-1.0 1:0.0 2:0.0 
-1.0 1:0.0 2:0.0 
-1.0 1:0.0 2:0.0 
-1.0 1:0.0 2:0.0 
-1.0 1:0.0 2:0.0 
-1.0 1:0.0 2:0.0 
-1.0 1:0.0 2:0.0 
-1.0 1:0.0 2:0.0 
-1.0 1:0.0 2:0.0 
-1.0 1:0.0 2:0.0 
-1.0 1:0.0 2:0.0 
-1.0 1:0.0 2:0.0 
-1.0 1:0.0 2:0.0 
-1.0 1:0.0 2:0.0 
-1.0 1:0.0 2:0.0 
-1.0 1:0.0 2:0.0 
-1.0 1:0.0 2:0.0 
-1.0 1:0.0 2:0.0 
-1.0 1:0.0 2:0.0 
-1.0 1:0.0 2:0.0 
-1.0 1:0.0 2:0.0 
-1.0 1:0.0 2:0.0 
-1.0 1:0.0 2:0.0 
-1.0 1:0.0 2:0.0 
-1.0 1:0.0 2:0.0 
-1.0 1:0.0 2:0.0 
-1.0 1:0.0 2:0.0 
-1.0 1:0.0 2:0.0 
-1.0 1:0.0 2:0.0 
-1.0 1:0.0 2:0.0 
-1.0 1:0.0 2:0.0 
-1.0 1:0.0 2:0.0 
-1.0 1:0.0 2:0.0 
-1.0 1:0.0 2:0.0 
-1.0 1:0.0 2:0.0 
-1.0 1:0.0 2:0.0 
-1.0 1:0.0 2:0.0 
-1.0 1:0.0 2:0.0 
-1.0 1:0.0 2:0.0 
-1.0 1:0.0 2:0.0 
-1.0 1:0.0 2:0.0 
-1.0 1:0.0 2:0.0 
-1.0 1:0.0 2:0.0 
-1.0 1:0.0 2:0.0 
-1.0 1:0.0 2:0.0 
-1.0 1:0.0 2:0.0 
-1.0 1:0.0 2:0.0 
-1.0 1:0.0 2:0.0 
-1.0 1:0.0 2:0.0 
-1.0 1:0.0 2:0.0 
-1.0 1:0.0 2:0.0 
-1.0 1:0.0 2:0.0 
-1.0 1:0.0 2:0.0 
-1.0 1:0.0 2:0.0 
-1.0 1:0.0 2:0.0 
-1.0 1:0.0 2:0.0 
-1.0 1:0.0 2:0.0 
-1.0 1:0.0 2:0.0 
-1.0 1:0.0 2:0.0 
-1.0 1:0.0 2:0.0 
-1.0 1:0.0 2:0.0 
-1.0 1:0.0 2:0.0 
-1.0 1:0.0 2:0.0 
-1.0 1:0.0 2:0.0 
-1.0 1:0.0 2:0.0 
-1.0 1:0.0 2:0.0 
-1.0 1:0.0 2:0.0 
-1.0 1:0.0 2:0.0 
-1.0 1:0.0 2:0.0 
-1.0 1:0.0 2:0.0 
-1.0 1:0.0 2:0.0 
-1.0 1:0.0 2:0.0 
-1.0 1:0.0 2:0.0 
-1.0 1:0.0 2:0.0 
-1.0 1:0.0 2:0.0 
-1.0 1:0.0 2:0.0 
-1.0 1:0.0 2:0.0 
-1.0 1:0.0 2:0.0 
-1.0 1:0.0 2:0.0 
-1.0 1:0.0 2:0.0 
-1.0 1:0.0 2:0.0 
-1.0 1:0.0 2:0.0 
-1.0 1:0.0 2:0.0 
-1.0 1:0.0 2:0.0 
-1.0 1:0.0 2:0.0 
-1.0 1:0.0 2:0.0 
-1.0 1:0.0 2:0.0 
-1.0 1:0.0 2:0.0 
-1.0 1:0.0 2:0.0 
-1.0 1:0.0 2:0.0 
-1.0 1:0.0 2:0.0 
-1.0 1:0.0 2:0.0 
-1.0 1:0.0 2:0.0 
-1.0 1:0.0 2:0.0 
-1.0 1:0.0 2:0.0 
-1.0 1:0.0 2:0.0 
-1.0 1:0.0 2:0.0 
-1.0 1:0.0 2:0.0 
-1.0 1:0.0 2:0.0 
-1.0 1:0.0 2:0.0 
-1.0 1:0.0 2:0.0 
-1.0 1:0.0 2:0.0 
-1.0 1:0.0 2:0.0 
-1.0 1:0.0 2:0.0 
-1.0 1:0.0 2:0.0 
-1.0 1:0.0 2:0.0 
-1.0 1:0.0 2:0.0 
-1.0 1:0.0 2:0.0 
-1.0 1:0.0 2:0.0 
-1.0 1:0.0 2:0.0 
-1.0 1:0.0 2:0.0 
-1.0 1:0.0 2:0.0 
-1.0 1:0.0 2:0.0 
-1.0 1:0.0 2:0.0 
-1.0 1:0.0 2:0.0 
-1.0 1:0.12679863883558917 2:4.0 
-1.0 1:0.0 2:0.0 
-1.0 1:0.0 2:0.0 
-1.0 1:0.0 2:0.0 
-1.0 1:0.0 2:0.0 
-1.0 1:0.0 2:0.0 
-1.0 1:0.0 2:0.0 
-1.0 1:0.0 2:0.0 
-1.0 1:0.0 2:0.0 
-1.0 1:0.0 2:0.0 
-1.0 1:0.0 2:0.0 
-1.0 1:0.0 2:0.0 
-1.0 1:0.0 2:0.0 
-1.0 1:0.0 2:0.0 
-1.0 1:0.0 2:0.0 
-1.0 1:0.0 2:0.0 
-1.0 1:0.0 2:0.0 
-1.0 1:0.0 2:0.0 
-1.0 1:0.0 2:0.0 
-1.0 1:0.0 2:0.0 
