svm_type c_svc
kernel_type rbf
gamma 0.5
nr_class 2
total_sv 32253
rho -0.013190520578751017
label 1 -1
probA -0.38096324248352786
probB -0.32036051090446593
nr_sv 16126 16127
SV
1.0 1:0.0 2:0.0 
1.0 1:0.0 2:0.0 
1.0 1:0.0 2:0.0 
1.0 1:0.0 2:0.0 
1.0 1:0.0 2:0.0 
1.0 1:0.0 2:0.0 
1.0 1:0.0 2:0.0 
1.0 1:0.0 2:0.0 
1.0 1:0.0 2:0.0 
1.0 1:0.0 2:0.0 
1.0 1:0.0 2:0.0 
1.0 1:0.0 2:0.0 
1.0 1:0.0 2:0.0 
1.0 1:0.0 2:0.0 
1.0 1:0.0 2:0.0 
1.0 1:0.0 2:0.0 
1.0 1:0.0 2:0.0 
1.0 1:0.0 2:0.0 
1.0 1:0.0 2:0.0 
1.0 1:0.0 2:0.0 
1.0 1:0.0 2:0.0 
1.0 1:0.0 2:0.0 
1.0 1:0.0 2:0.0 
1.0 1:0.0 2:0.0 
1.0 1:0.0 2:0.0 
1.0 1:0.0 2:0.0 
1.0 1:0.0 2:0.0 
1.0 1:0.0 2:0.0 
1.0 1:0.0 2:0.0 
1.0 1:0.0 2:0.0 
1.0 1:0.0 2:0.0 
1.0 1:0.0 2:0.0 
1.0 1:0.0 2:0.0 
1.0 1:0.0 2:0.0 
1.0 1:0.0 2:0.0 
1.0 1:0.0 2:0.0 
1.0 1:0.0 2:0.0 
1.0 1:0.0 2:0.0 
1.0 1:0.0 2:0.0 
1.0 1:0.0 2:0.0 
1.0 1:0.0 2:0.0 
1.0 1:0.0 2:0.0 
1.0 1:0.0 2:0.0 
1.0 1:0.0 2:0.0 
1.0 1:0.0 2:0.0 
1.0 1:0.0 2:0.0 
1.0 1:0.0 2:0.0 
1.0 1:0.0 2:0.0 
1.0 1:0.0 2:0.0 
1.0 1:0.0 2:0.0 
1.0 1:0.0 2:0.0 
1.0 1:0.0 2:0.0 
1.0 1:0.0 2:0.0 
1.0 1:0.0 2:0.0 
1.0 1:0.0 2:0.0 
1.0 1:0.0 2:0.0 
1.0 1:0.0 2:0.0 
1.0 1:0.0 2:0.0 
1.0 1:0.0 2:0.0 
1.0 1:0.0 2:0.0 
1.0 1:0.0 2:0.0 
1.0 1:0.0 2:0.0 
1.0 1:0.0 2:0.0 
1.0 1:0.0 2:0.0 
1.0 1:0.0 2:0.0 
1.0 1:0.0 2:0.0 
1.0 1:0.0 2:0.0 
1.0 1:0.0 2:0.0 
1.0 1:0.0 2:0.0 
1.0 1:0.0 2:0.0 
1.0 1:0.0 2:0.0 
1.0 1:0.0 2:0.0 
1.0 1:0.0 2:0.0 
1.0 1:0.0 2:0.0 
1.0 1:0.0 2:0.0 
1.0 1:0.0 2:0.0 
1.0 1:0.0 2:0.0 
1.0 1:0.0 2:0.0 
1.0 1:0.0 2:0.0 
1.0 1:0.0 2:0.0 
1.0 1:0.0 2:0.0 
1.0 1:0.0 2:0.0 
1.0 1:0.0 2:0.0 
1.0 1:0.0 2:0.0 
1.0 1:0.0 2:0.0 
1.0 1:0.0 2:0.0 
1.0 1:0.0 2:0.0 
1.0 1:0.0 2:0.0 
1.0 1:0.0 2:0.0 
1.0 1:0.0 2:0.0 
1.0 1:0.0 2:0.0 
1.0 1:0.0 2:0.0 
1.0 1:0.0 2:0.0 
1.0 1:0.0 2:0.0 
1.0 1:0.0 2:0.0 
1.0 1:0.0 2:0.0 
1.0 1:0.0 2:0.0 
1.0 1:0.0 2:0.0 
1.0 1:0.0 2:0.0 
1.0 1:0.0 2:0.0 
1.0 1:0.0 2:0.0 
1.0 1:0.0 2:0.0 
1.0 1:0.0 2:0.0 
1.0 1:0.0 2:0.0 
1.0 1:0.0 2:0.0 
1.0 1:0.0 2:0.0 
1.0 1:0.0 2:0.0 
1.0 1:0.0 2:0.0 
1.0 1:0.0 2:0.0 
1.0 1:0.0 2:0.0 
1.0 1:0.0 2:0.0 
1.0 1:0.0 2:0.0 
1.0 1:0.0 2:0.0 
1.0 1:0.0 2:0.0 
1.0 1:0.0 2:0.0 
1.0 1:0.0 2:0.0 
1.0 1:0.0 2:0.0 
1.0 1:0.0 2:0.0 
1.0 1:0.0 2:0.0 
1.0 1:0.0 2:0.0 
1.0 1:0.0 2:0.0 
1.0 1:0.0 2:0.0 
1.0 1:0.0 2:0.0 
1.0 1:0.0 2:0.0 
1.0 1:0.0 2:0.0 
1.0 1:0.0 2:0.0 
1.0 1:0.0 2:0.0 
1.0 1:0.0 2:0.0 
1.0 1:0.0 2:0.0 
1.0 1:0.0 2:0.0 
1.0 1:0.0 2:0.0 
1.0 1:0.0 2:0.0 
1.0 1:0.0 2:0.0 
1.0 1:0.0 2:0.0 
1.0 1:0.0 2:0.0 
1.0 1:0.0 2:0.0 
1.0 1:0.0 2:0.0 
1.0 1:0.0 2:0.0 
1.0 1:0.0 2:0.0 
1.0 1:0.0 2:0.0 
1.0 1:0.0 2:0.0 
1.0 1:0.0 2:0.0 
1.0 1:0.0 2:0.0 
1.0 1:0.0 2:0.0 
1.0 1:0.0 2:0.0 
1.0 1:0.0 2:0.0 
1.0 1:0.0 2:0.0 
1.0 1:0.0 2:0.0 
1.0 1:0.0 2:0.0 
1.0 1:0.0 2:0.0 
1.0 1:0.0 2:0.0 
1.0 1:0.0 2:0.0 
1.0 1:0.0 2:0.0 
1.0 1:0.0 2:0.0 
1.0 1:0.0 2:0.0 
1.0 1:0.0 2:0.0 
1.0 1:0.0 2:0.0 
1.0 1:0.0 2:0.0 
1.0 1:0.0 2:0.0 
1.0 1:0.25665767922752813 2:4.0 
1.0 1:0.0 2:0.0 
1.0 1:0.0 2:0.0 
1.0 1:0.0 2:0.0 
1.0 1:0.0 2:0.0 
1.0 1:0.0 2:0.0 
1.0 1:0.0 2:0.0 
1.0 1:0.0 2:0.0 
1.0 1:0.0 2:0.0 
1.0 1:0.0 2:0.0 
1.0 1:0.0 2:0.0 
1.0 1:0.0 2:0.0 
1.0 1:0.0 2:0.0 
1.0 1:0.0 2:0.0 
1.0 1:0.0 2:0.0 
1.0 1:0.0 2:0.0 
1.0 1:0.0 2:0.0 
1.0 1:0.0 2:0.0 
1.0 1:0.0 2:0.0 
1.0 1:0.0 2:0.0 
1.0 1:0.0 2:0.0 
1.0 1:0.0 2:0.0 
1.0 1:0.0 2:0.0 
1.0 1:0.0 2:0.0 
1.0 1:0.0 2:0.0 
1.0 1:0.0 2:0.0 
1.0 1:0.0 2:0.0 
1.0 1:0.0 2:0.0 
1.0 1:0.0 2:0.0 
1.0 1:0.0 2:0.0 
1.0 1:0.0 2:0.0 
1.0 1:0.0 2:0.0 
1.0 1:0.0 2:0.0 
1.0 1:0.0 2:0.0 
1.0 1:0.0 2:0.0 
1.0 1:0.0 2:0.0 
1.0 1:0.0 2:0.0 
1.0 1:0.0 2:0.0 
1.0 1:0.0 2:0.0 
1.0 1:0.0 2:0.0 
1.0 1:0.0 2:0.0 
1.0 1:0.0 2:0.0 
1.0 1:0.0 2:0.0 
1.0 1:0.0 2:0.0 
1.0 1:0.0 2:0.0 
1.0 1:0.0 2:0.0 
1.0 1:0.0 2:0.0 
1.0 1:0.0 2:0.0 
1.0 1:0.0 2:0.0 
1.0 1:0.0 2:0.0 
1.0 1:0.0 2:0.0 
1.0 1:0.0 2:0.0 
1.0 1:0.0 2:0.0 
1.0 1:0.0 2:0.0 
1.0 1:0.0 2:0.0 
1.0 1:0.0 2:0.0 
1.0 1:0.08595082592914441 2:3.0 
1.0 1:0.0 2:0.0 
1.0 1:0.0 2:0.0 
1.0 1:0.0 2:0.0 
1.0 1:0.0 2:0.0 
1.0 1:0.0 2:0.0 
1.0 1:0.0 2:0.0 
1.0 1:0.0 2:0.0 
1.0 1:0.0 2:0.0 
1.0 1:0.0 2:0.0 
1.0 1:0.0 2:0.0 
1.0 1:0.0 2:0.0 
1.0 1:0.0 2:0.0 
1.0 1:0.0 2:0.0 
1.0 1:0.0 2:0.0 
1.0 1:0.0 2:0.0 
1.0 1:0.0 2:0.0 
1.0 1:0.0 2:0.0 
1.0 1:0.0 2:0.0 
1.0 1:0.0 2:0.0 
1.0 1:0.0 2:0.0 
1.0 1:0.0 2:0.0 
1.0 1:0.0 2:0.0 
1.0 1:0.0 2:0.0 
1.0 1:0.0 2:0.0 
1.0 1:0.0 2:0.0 
1.0 1:0.0 2:0.0 
1.0 1:0.0 2:0.0 
1.0 1:0.0 2:0.0 
1.0 1:0.0 2:0.0 
1.0 1:0.0 2:0.0 
1.0 1:0.0 2:0.0 
1.0 1:0.0 2:0.0 
1.0 1:0.0 2:0.0 
1.0 1:0.0 2:0.0 
1.0 1:0.0 2:0.0 
1.0 1:0.0 2:0.0 
1.0 1:0.0 2:0.0 
1.0 1:0.0 2:0.0 
1.0 1:0.0 2:0.0 
1.0 1:0.0 2:0.0 
1.0 1:0.0 2:0.0 
1.0 1:0.0 2:0.0 
1.0 1:0.0 2:0.0 
1.0 1:0.0 2:0.0 
1.0 1:0.0 2:0.0 
1.0 1:0.0 2:0.0 
1.0 1:0.0 2:0.0 
1.0 1:0.0 2:0.0 
1.0 1:0.0 2:0.0 
1.0 1:0.0 2:0.0 
1.0 1:0.0 2:0.0 
1.0 1:0.0 2:0.0 
1.0 1:0.0 2:0.0 
1.0 1:0.0 2:0.0 
1.0 1:0.0 2:0.0 
1.0 1:0.0 2:0.0 
1.0 1:0.0 2:0.0 
1.0 1:0.0 2:0.0 
1.0 1:0.0 2:0.0 
1.0 1:0.0 2:0.0 
1.0 1:0.0 2:0.0 
1.0 1:0.0 2:0.0 
1.0 1:0.0 2:0.0 
1.0 1:0.0 2:0.0 
1.0 1:0.0 2:0.0 
1.0 1:0.0 2:0.0 
1.0 1:0.0 2:0.0 
1.0 1:0.0 2:0.0 
1.0 1:0.0 2:0.0 
1.0 1:0.0 2:0.0 
1.0 1:0.0 2:0.0 
1.0 1:0.0 2:0.0 
1.0 1:0.0 2:0.0 
1.0 1:0.0 2:0.0 
1.0 1:0.0 2:0.0 
1.0 1:0.24253562503633297 2:1.0 
1.0 1:0.0 2:0.0 
1.0 1:0.0 2:0.0 
1.0 1:0.0 2:0.0 
1.0 1:0.0 2:0.0 
1.0 1:0.0 2:0.0 
1.0 1:0.0 2:0.0 
1.0 1:0.0 2:0.0 
1.0 1:0.0 2:0.0 
1.0 1:0.0 2:0.0 
1.0 1:0.0 2:0.0 
1.0 1:0.0 2:0.0 
1.0 1:0.0 2:0.0 
1.0 1:0.0 2:0.0 
1.0 1:0.0 2:0.0 
1.0 1:0.0 2:0.0 
1.0 1:0.0 2:0.0 
1.0 1:0.0 2:0.0 
1.0 1:0.0 2:0.0 
1.0 1:0.0 2:0.0 
1.0 1:0.0 2:0.0 
1.0 1:0.0 2:0.0 
1.0 1:0.0 2:0.0 
1.0 1:0.0 2:0.0 
1.0 1:0.0 2:0.0 
1.0 1:0.0 2:0.0 
1.0 1:0.0 2:0.0 
1.0 1:0.0 2:0.0 
1.0 1:0.0 2:0.0 
1.0 1:0.0 2:0.0 
1.0 1:0.0 2:0.0 
1.0 1:0.0 2:0.0 
1.0 1:0.0 2:0.0 
1.0 1:0.0 2:0.0 
1.0 1:0.0 2:0.0 
1.0 1:0.0 2:0.0 
1.0 1:0.0 2:0.0 
1.0 1:0.0 2:0.0 
1.0 1:0.0 2:0.0 
1.0 1:0.0 2:0.0 
1.0 1:0.0 2:0.0 
1.0 1:0.0 2:0.0 
1.0 1:0.0 2:0.0 
1.0 1:0.0 2:0.0 
1.0 1:0.0 2:0.0 
1.0 1:0.0 2:0.0 
1.0 1:0.0 2:0.0 
1.0 1:0.0 2:0.0 
1.0 1:0.0 2:0.0 
1.0 1:0.0 2:0.0 
1.0 1:0.0 2:0.0 
1.0 1:0.0 2:0.0 
1.0 1:0.0 2:0.0 
1.0 1:0.0 2:0.0 
1.0 1:0.0 2:0.0 
1.0 1:0.0 2:0.0 
1.0 1:0.0 2:0.0 
1.0 1:0.0 2:0.0 
1.0 1:0.0 2:0.0 
1.0 1:0.0 2:0.0 
1.0 1:0.0 2:0.0 
1.0 1:0.0 2:0.0 
1.0 1:0.0 2:0.0 
1.0 1:0.0 2:0.0 
1.0 1:0.0 2:0.0 
1.0 1:0.0 2:0.0 
1.0 1:0.0 2:0.0 
1.0 1:0.0 2:0.0 
1.0 1:0.0 2:0.0 
1.0 1:0.0 2:0.0 
1.0 1:0.0 2:0.0 
1.0 1:0.0 2:0.0 
1.0 1:0.0 2:0.0 
1.0 1:0.0 2:0.0 
1.0 1:0.0 2:0.0 
1.0 1:0.0 2:0.0 
1.0 1:0.0 2:0.0 
1.0 1:0.0 2:0.0 
1.0 1:0.0 2:0.0 
1.0 1:0.0 2:0.0 
1.0 1:0.0 2:0.0 
1.0 1:0.0 2:0.0 
1.0 1:0.0 2:0.0 
1.0 1:0.0 2:0.0 
1.0 1:0.0 2:0.0 
1.0 1:0.0 2:0.0 
1.0 1:0.0 2:0.0 
1.0 1:0.0 2:0.0 
1.0 1:0.0 2:0.0 
1.0 1:0.0 2:0.0 
1.0 1:0.0 2:0.0 
1.0 1:0.0 2:0.0 
1.0 1:0.0 2:0.0 
1.0 1:0.0 2:0.0 
1.0 1:0.0 2:0.0 
1.0 1:0.0 2:0.0 
1.0 1:0.0 2:0.0 
1.0 1:0.0 2:0.0 
1.0 1:0.0 2:0.0 
1.0 1:0.0 2:0.0 
1.0 1:0.0 2:0.0 
1.0 1:0.0 2:0.0 
1.0 1:0.0 2:0.0 
1.0 1:0.0 2:0.0 
1.0 1:0.0 2:0.0 
1.0 1:0.0 2:0.0 
1.0 1:0.0 2:0.0 
1.0 1:0.0 2:0.0 
1.0 1:0.0 2:0.0 
1.0 1:0.0 2:0.0 
1.0 1:0.0 2:0.0 
1.0 1:0.0 2:0.0 
1.0 1:0.0 2:0.0 
1.0 1:0.0 2:0.0 
1.0 1:0.0 2:0.0 
1.0 1:0.0 2:0.0 
1.0 1:0.0 2:0.0 
1.0 1:0.0 2:0.0 
1.0 1:0.0 2:0.0 
1.0 1:0.0 2:0.0 
1.0 1:0.0 2:0.0 
1.0 1:0.0 2:0.0 
1.0 1:0.0 2:0.0 
1.0 1:0.0 2:0.0 
1.0 1:0.0 2:0.0 
1.0 1:0.0 2:0.0 
1.0 1:0.0 2:0.0 
1.0 1:0.0 2:0.0 
1.0 1:0.0 2:0.0 
1.0 1:0.0 2:0.0 
1.0 1:0.0 2:0.0 
1.0 1:0.0 2:0.0 
1.0 1:0.0 2:0.0 
1.0 1:0.0 2:0.0 
1.0 1:0.0 2:0.0 
1.0 1:0.0 2:0.0 
1.0 1:0.0 2:0.0 
1.0 1:0.0 2:0.0 
1.0 1:0.0 2:0.0 
1.0 1:0.0 2:0.0 
1.0 1:0.0 2:0.0 
1.0 1:0.0 2:0.0 
1.0 1:0.0 2:0.0 
1.0 1:0.0 2:0.0 
1.0 1:0.0 2:0.0 
1.0 1:0.0 2:0.0 
1.0 1:0.0 2:0.0 
1.0 1:0.0 2:0.0 
1.0 1:0.14405140270548622 2:4.0 
1.0 1:0.0 2:0.0 
1.0 1:0.0 2:0.0 
1.0 1:0.0 2:0.0 
1.0 1:0.0 2:0.0 
1.0 1:0.0 2:0.0 
1.0 1:0.0 2:0.0 
1.0 1:0.0 2:0.0 
1.0 1:0.0 2:0.0 
1.0 1:0.0 2:0.0 
1.0 1:0.0 2:0.0 
1.0 1:0.0 2:0.0 
1.0 1:0.0 2:0.0 
1.0 1:0.0 2:0.0 
1.0 1:0.0 2:0.0 
1.0 1:0.0 2:0.0 
1.0 1:0.0 2:0.0 
1.0 1:0.0 2:0.0 
1.0 1:0.0 2:0.0 
1.0 1:0.0 2:0.0 
1.0 1:0.0 2:0.0 
1.0 1:0.0 2:0.0 
1.0 1:0.0 2:0.0 
1.0 1:0.0 2:0.0 
1.0 1:0.0 2:0.0 
1.0 1:0.0 2:0.0 
1.0 1:0.0 2:0.0 
1.0 1:0.0 2:0.0 
1.0 1:0.0 2:0.0 
1.0 1:0.0 2:0.0 
1.0 1:0.0 2:0.0 
1.0 1:0.07724939333254838 2:4.0 
1.0 1:0.0 2:0.0 
1.0 1:0.0 2:0.0 
1.0 1:0.0 2:0.0 
1.0 1:0.0 2:0.0 
1.0 1:0.0 2:0.0 
1.0 1:0.0 2:0.0 
1.0 1:0.0 2:0.0 
1.0 1:0.0 2:0.0 
1.0 1:0.0 2:0.0 
1.0 1:0.0 2:0.0 
1.0 1:0.0 2:0.0 
1.0 1:0.0 2:0.0 
1.0 1:0.0 2:0.0 
1.0 1:0.0 2:0.0 
1.0 1:0.0 2:0.0 
1.0 1:0.0 2:0.0 
1.0 1:0.0 2:0.0 
1.0 1:0.0 2:0.0 
1.0 1:0.0 2:0.0 
1.0 1:0.0 2:0.0 
1.0 1:0.0 2:0.0 
1.0 1:0.0 2:0.0 
1.0 1:0.0 2:0.0 
1.0 1:0.0 2:0.0 
1.0 1:0.0 2:0.0 
1.0 1:0.0 2:0.0 
1.0 1:0.0 2:0.0 
1.0 1:0.0 2:0.0 
1.0 1:0.0 2:0.0 
1.0 1:0.0 2:0.0 
1.0 1:0.0 2:0.0 
1.0 1:0.0 2:0.0 
1.0 1:0.0 2:0.0 
1.0 1:0.0 2:0.0 
1.0 1:0.0 2:0.0 
1.0 1:0.0 2:0.0 
1.0 1:0.0 2:0.0 
1.0 1:0.0 2:0.0 
1.0 1:0.0 2:0.0 
1.0 1:0.0 2:0.0 
1.0 1:0.0 2:0.0 
1.0 1:0.0 2:0.0 
1.0 1:0.0 2:0.0 
1.0 1:0.0 2:0.0 
1.0 1:0.0 2:0.0 
1.0 1:0.0 2:0.0 
1.0 1:0.0 2:0.0 
1.0 1:0.0 2:0.0 
1.0 1:0.0 2:0.0 
1.0 1:0.0 2:0.0 
1.0 1:0.0 2:0.0 
1.0 1:0.0 2:0.0 
1.0 1:0.0 2:0.0 
1.0 1:0.0 2:0.0 
1.0 1:0.0 2:0.0 
1.0 1:0.0 2:0.0 
1.0 1:0.0 2:0.0 
1.0 1:0.0 2:0.0 
1.0 1:0.0 2:0.0 
1.0 1:0.0 2:0.0 
1.0 1:0.0 2:0.0 
1.0 1:0.0 2:0.0 
1.0 1:0.0 2:0.0 
1.0 1:0.0 2:0.0 
1.0 1:0.0 2:0.0 
1.0 1:0.0 2:0.0 
1.0 1:0.0 2:0.0 
1.0 1:0.0 2:0.0 
1.0 1:0.0 2:0.0 
1.0 1:0.0 2:0.0 
1.0 1:0.0 2:0.0 
1.0 1:0.0 2:0.0 
1.0 1:0.0 2:0.0 
1.0 1:0.0 2:0.0 
1.0 1:0.0 2:0.0 
1.0 1:0.0 2:0.0 
1.0 1:0.0 2:0.0 
1.0 1:0.0 2:0.0 
1.0 1:0.0 2:0.0 
1.0 1:0.0 2:0.0 
1.0 1:0.0 2:0.0 
1.0 1:0.0 2:0.0 
1.0 1:0.0 2:0.0 
1.0 1:0.0 2:0.0 
1.0 1:0.0 2:0.0 
1.0 1:0.0 2:0.0 
1.0 1:0.0 2:0.0 
1.0 1:0.0 2:0.0 
1.0 1:0.0 2:0.0 
1.0 1:0.0 2:0.0 
1.0 1:0.0 2:0.0 
1.0 1:0.0 2:0.0 
1.0 1:0.0 2:0.0 
1.0 1:0.0 2:0.0 
1.0 1:0.0 2:0.0 
1.0 1:0.0 2:0.0 
1.0 1:0.0 2:0.0 
1.0 1:0.0 2:0.0 
1.0 1:0.0 2:0.0 
1.0 1:0.0 2:0.0 
1.0 1:0.0 2:0.0 
1.0 1:0.0 2:0.0 
1.0 1:0.0 2:0.0 
1.0 1:0.0 2:0.0 
1.0 1:0.0 2:0.0 
1.0 1:0.0 2:0.0 
1.0 1:0.0 2:0.0 
1.0 1:0.0 2:0.0 
1.0 1:0.0 2:0.0 
1.0 1:0.0 2:0.0 
1.0 1:0.0 2:0.0 
1.0 1:0.0 2:0.0 
1.0 1:0.0 2:0.0 
1.0 1:0.0 2:0.0 
1.0 1:0.0 2:0.0 
1.0 1:0.0 2:0.0 
1.0 1:0.0 2:0.0 
1.0 1:0.0 2:0.0 
1.0 1:0.0 2:0.0 
1.0 1:0.0 2:0.0 
1.0 1:0.0 2:0.0 
1.0 1:0.0 2:0.0 
1.0 1:0.0 2:0.0 
1.0 1:0.0 2:0.0 
1.0 1:0.0 2:0.0 
1.0 1:0.0 2:0.0 
1.0 1:0.0 2:0.0 
1.0 1:0.0 2:0.0 
1.0 1:0.0 2:0.0 
1.0 1:0.0 2:0.0 
1.0 1:0.0 2:0.0 
1.0 1:0.0 2:0.0 
1.0 1:0.0 2:0.0 
1.0 1:0.0 2:0.0 
1.0 1:0.0 2:0.0 
1.0 1:0.0 2:0.0 
1.0 1:0.0 2:0.0 
1.0 1:0.0 2:0.0 
1.0 1:0.0 2:0.0 
1.0 1:0.0 2:0.0 
1.0 1:0.0 2:0.0 
1.0 1:0.0 2:0.0 
1.0 1:0.0 2:0.0 
1.0 1:0.0 2:0.0 
1.0 1:0.0 2:0.0 
1.0 1:0.0 2:0.0 
1.0 1:0.0 2:0.0 
1.0 1:0.0 2:0.0 
1.0 1:0.0 2:0.0 
1.0 1:0.0 2:0.0 
1.0 1:0.0 2:0.0 
1.0 1:0.0 2:0.0 
1.0 1:0.0 2:0.0 
1.0 1:0.0 2:0.0 
1.0 1:0.0 2:0.0 
1.0 1:0.0 2:0.0 
1.0 1:0.0 2:0.0 
1.0 1:0.0 2:0.0 
1.0 1:0.0 2:0.0 
1.0 1:0.0 2:0.0 
1.0 1:0.0 2:0.0 
1.0 1:0.0 2:0.0 
1.0 1:0.0 2:0.0 
1.0 1:0.0 2:0.0 
1.0 1:0.0 2:0.0 
1.0 1:0.0 2:0.0 
1.0 1:0.0 2:0.0 
1.0 1:0.0 2:0.0 
1.0 1:0.0 2:0.0 
1.0 1:0.0 2:0.0 
1.0 1:0.0 2:0.0 
1.0 1:0.0 2:0.0 
1.0 1:0.0 2:0.0 
1.0 1:0.0 2:0.0 
1.0 1:0.0 2:0.0 
1.0 1:0.0 2:0.0 
1.0 1:0.0 2:0.0 
1.0 1:0.0 2:0.0 
1.0 1:0.0 2:0.0 
1.0 1:0.0 2:0.0 
1.0 1:0.0 2:0.0 
1.0 1:0.0 2:0.0 
1.0 1:0.0 2:0.0 
1.0 1:0.0 2:0.0 
1.0 1:0.0 2:0.0 
1.0 1:0.0 2:0.0 
1.0 1:0.0 2:0.0 
1.0 1:0.0 2:0.0 
1.0 1:0.0 2:0.0 
1.0 1:0.0 2:0.0 
1.0 1:0.0 2:0.0 
1.0 1:0.0 2:0.0 
1.0 1:0.008030263667175228 2:2.0 
1.0 1:0.0 2:0.0 
1.0 1:0.0 2:0.0 
1.0 1:0.0 2:0.0 
1.0 1:0.0 2:0.0 
1.0 1:0.0 2:0.0 
1.0 1:0.0 2:0.0 
1.0 1:0.0 2:0.0 
1.0 1:0.0 2:0.0 
1.0 1:0.0 2:0.0 
1.0 1:0.0 2:0.0 
1.0 1:0.0 2:0.0 
1.0 1:0.0 2:0.0 
1.0 1:0.0 2:0.0 
1.0 1:0.0 2:0.0 
1.0 1:0.0 2:0.0 
1.0 1:0.0 2:0.0 
1.0 1:0.0 2:0.0 
1.0 1:0.0 2:0.0 
1.0 1:0.0 2:0.0 
1.0 1:0.0 2:0.0 
1.0 1:0.0 2:0.0 
1.0 1:0.0 2:0.0 
1.0 1:0.0 2:0.0 
1.0 1:0.0 2:0.0 
1.0 1:0.0 2:0.0 
1.0 1:0.0 2:0.0 
1.0 1:0.0 2:0.0 
1.0 1:0.0 2:0.0 
1.0 1:0.0 2:0.0 
1.0 1:0.0 2:0.0 
1.0 1:0.0 2:0.0 
1.0 1:0.0 2:0.0 
1.0 1:0.0 2:0.0 
1.0 1:0.0 2:0.0 
1.0 1:0.0 2:0.0 
1.0 1:0.0 2:0.0 
1.0 1:0.0 2:0.0 
1.0 1:0.0 2:0.0 
1.0 1:0.0 2:0.0 
1.0 1:0.0 2:0.0 
1.0 1:0.0 2:0.0 
1.0 1:0.0 2:0.0 
1.0 1:0.0 2:0.0 
1.0 1:0.0 2:0.0 
1.0 1:0.0 2:0.0 
1.0 1:0.0 2:0.0 
1.0 1:0.0 2:0.0 
1.0 1:0.0 2:0.0 
1.0 1:0.0 2:0.0 
1.0 1:0.0 2:0.0 
1.0 1:0.0 2:0.0 
1.0 1:0.0 2:0.0 
1.0 1:0.0 2:0.0 
1.0 1:0.0 2:0.0 
1.0 1:0.0 2:0.0 
0.9520293952467109 1:0.1737469468356391 2:4.0 
1.0 1:0.0 2:0.0 
1.0 1:0.0 2:0.0 
1.0 1:0.0 2:0.0 
1.0 1:0.0 2:0.0 
1.0 1:0.0 2:0.0 
1.0 1:0.0 2:0.0 
1.0 1:0.0 2:0.0 
1.0 1:0.0 2:0.0 
1.0 1:0.0 2:0.0 
1.0 1:0.0 2:0.0 
1.0 1:0.0 2:0.0 
1.0 1:0.0 2:0.0 
1.0 1:0.0 2:0.0 
1.0 1:0.0 2:0.0 
1.0 1:0.0 2:0.0 
1.0 1:0.0 2:0.0 
1.0 1:0.0 2:0.0 
1.0 1:0.25 2:1.0 
1.0 1:0.0 2:0.0 
1.0 1:0.0 2:0.0 
1.0 1:0.0 2:0.0 
1.0 1:0.0 2:0.0 
1.0 1:0.0 2:0.0 
1.0 1:0.0 2:0.0 
1.0 1:0.0 2:0.0 
1.0 1:0.0 2:0.0 
1.0 1:0.0 2:0.0 
1.0 1:0.0 2:0.0 
1.0 1:0.0 2:0.0 
1.0 1:0.0 2:0.0 
1.0 1:0.0 2:0.0 
1.0 1:0.0 2:0.0 
1.0 1:0.0 2:0.0 
1.0 1:0.0 2:0.0 
1.0 1:0.0 2:0.0 
1.0 1:0.0 2:0.0 
1.0 1:0.0 2:0.0 
1.0 1:0.0 2:0.0 
1.0 1:0.0 2:0.0 
1.0 1:0.0 2:0.0 
1.0 1:0.0 2:0.0 
1.0 1:0.0 2:0.0 
1.0 1:0.0 2:0.0 
1.0 1:0.0 2:0.0 
1.0 1:0.0 2:0.0 
1.0 1:0.0 2:0.0 
1.0 1:0.0 2:0.0 
1.0 1:0.0 2:0.0 
1.0 1:0.0 2:0.0 
1.0 1:0.0 2:0.0 
1.0 1:0.0 2:0.0 
1.0 1:0.0 2:0.0 
1.0 1:0.0 2:0.0 
1.0 1:0.0 2:0.0 
1.0 1:0.0 2:0.0 
1.0 1:0.0 2:0.0 
1.0 1:0.0 2:0.0 
1.0 1:0.0 2:0.0 
1.0 1:0.0 2:0.0 
1.0 1:0.0 2:0.0 
1.0 1:0.0 2:0.0 
1.0 1:0.0 2:0.0 
1.0 1:0.0 2:0.0 
1.0 1:0.0 2:0.0 
1.0 1:0.0 2:0.0 
1.0 1:0.0 2:0.0 
1.0 1:0.0 2:0.0 
1.0 1:0.0 2:0.0 
1.0 1:0.0 2:0.0 
1.0 1:0.0 2:0.0 
1.0 1:0.0 2:0.0 
1.0 1:0.0 2:0.0 
1.0 1:0.0 2:0.0 
1.0 1:0.0 2:0.0 
1.0 1:0.0 2:0.0 
1.0 1:0.0 2:0.0 
1.0 1:0.0 2:0.0 
1.0 1:0.0 2:0.0 
1.0 1:0.0 2:0.0 
1.0 1:0.0 2:0.0 
1.0 1:0.0 2:0.0 
1.0 1:0.0 2:0.0 
1.0 1:0.0 2:0.0 
1.0 1:0.0 2:0.0 
1.0 1:0.0 2:0.0 
1.0 1:0.0 2:0.0 
1.0 1:0.0 2:0.0 
1.0 1:0.0 2:0.0 
1.0 1:0.0 2:0.0 
1.0 1:0.0 2:0.0 
1.0 1:0.0 2:0.0 
1.0 1:0.0 2:0.0 
1.0 1:0.0 2:0.0 
1.0 1:0.0 2:0.0 
1.0 1:0.0 2:0.0 
1.0 1:0.0 2:0.0 
1.0 1:0.0 2:0.0 
1.0 1:0.0 2:0.0 
1.0 1:0.0 2:0.0 
1.0 1:0.0 2:0.0 
1.0 1:0.0 2:0.0 
1.0 1:0.0 2:0.0 
1.0 1:0.0 2:0.0 
1.0 1:0.0 2:0.0 
1.0 1:0.0 2:0.0 
1.0 1:0.0 2:0.0 
1.0 1:0.0 2:0.0 
1.0 1:0.0 2:0.0 
1.0 1:0.0 2:0.0 
1.0 1:0.0 2:0.0 
1.0 1:0.0 2:0.0 
1.0 1:0.0 2:0.0 
1.0 1:0.0 2:0.0 
1.0 1:0.0 2:0.0 
1.0 1:0.0 2:0.0 
1.0 1:0.0 2:0.0 
1.0 1:0.0 2:0.0 
1.0 1:0.0 2:0.0 
1.0 1:0.0 2:0.0 
1.0 1:0.0 2:0.0 
1.0 1:0.0 2:0.0 
1.0 1:0.0 2:0.0 
1.0 1:0.0 2:0.0 
1.0 1:0.0 2:0.0 
1.0 1:0.0 2:0.0 
1.0 1:0.0 2:0.0 
1.0 1:0.0 2:0.0 
1.0 1:0.0 2:0.0 
1.0 1:0.0 2:0.0 
1.0 1:0.0 2:0.0 
1.0 1:0.0 2:0.0 
1.0 1:0.0 2:0.0 
1.0 1:0.0 2:0.0 
1.0 1:0.0 2:0.0 
1.0 1:0.0 2:0.0 
1.0 1:0.0 2:0.0 
1.0 1:0.0 2:0.0 
1.0 1:0.0 2:0.0 
1.0 1:0.0 2:0.0 
1.0 1:0.0 2:0.0 
1.0 1:0.0 2:0.0 
1.0 1:0.0 2:0.0 
1.0 1:0.0 2:0.0 
1.0 1:0.0 2:0.0 
1.0 1:0.0 2:0.0 
1.0 1:0.0 2:0.0 
1.0 1:0.0 2:0.0 
1.0 1:0.0 2:0.0 
1.0 1:0.0 2:0.0 
1.0 1:0.0 2:0.0 
1.0 1:0.0 2:0.0 
1.0 1:0.0 2:0.0 
1.0 1:0.0 2:0.0 
1.0 1:0.0 2:0.0 
1.0 1:0.0 2:0.0 
1.0 1:0.0 2:0.0 
1.0 1:0.0 2:0.0 
1.0 1:0.0 2:0.0 
1.0 1:0.0 2:0.0 
1.0 1:0.0 2:0.0 
1.0 1:0.0 2:0.0 
1.0 1:0.0 2:0.0 
1.0 1:0.0 2:0.0 
1.0 1:0.0 2:0.0 
1.0 1:0.0 2:0.0 
1.0 1:0.0 2:0.0 
1.0 1:0.0 2:0.0 
1.0 1:0.0 2:0.0 
1.0 1:0.0 2:0.0 
1.0 1:0.0 2:0.0 
1.0 1:0.0 2:0.0 
1.0 1:0.0 2:0.0 
1.0 1:0.0 2:0.0 
1.0 1:0.0 2:0.0 
1.0 1:0.0 2:0.0 
1.0 1:0.0 2:0.0 
1.0 1:0.0 2:0.0 
1.0 1:0.0 2:0.0 
1.0 1:0.0 2:0.0 
1.0 1:0.0 2:0.0 
1.0 1:0.0 2:0.0 
1.0 1:0.0 2:0.0 
1.0 1:0.0 2:0.0 
1.0 1:0.0 2:0.0 
1.0 1:0.0 2:0.0 
1.0 1:0.0 2:0.0 
1.0 1:0.0 2:0.0 
1.0 1:0.0 2:0.0 
1.0 1:0.0 2:0.0 
1.0 1:0.0 2:0.0 
1.0 1:0.0 2:0.0 
1.0 1:0.0 2:0.0 
1.0 1:0.0 2:0.0 
1.0 1:0.0 2:0.0 
1.0 1:0.0 2:0.0 
1.0 1:0.0 2:0.0 
1.0 1:0.0 2:0.0 
1.0 1:0.0 2:0.0 
1.0 1:0.0 2:0.0 
1.0 1:0.0 2:0.0 
1.0 1:0.0 2:0.0 
1.0 1:0.0 2:0.0 
1.0 1:0.0 2:0.0 
1.0 1:0.0 2:0.0 
1.0 1:0.0 2:0.0 
1.0 1:0.0 2:0.0 
1.0 1:0.0 2:0.0 
1.0 1:0.0 2:0.0 
1.0 1:0.0 2:0.0 
1.0 1:0.0 2:0.0 
1.0 1:0.0 2:0.0 
1.0 1:0.0 2:0.0 
1.0 1:0.0 2:0.0 
1.0 1:0.0 2:0.0 
1.0 1:0.0 2:0.0 
1.0 1:0.0 2:0.0 
1.0 1:0.0 2:0.0 
1.0 1:0.0 2:0.0 
1.0 1:0.0 2:0.0 
1.0 1:0.0 2:0.0 
1.0 1:0.0 2:0.0 
1.0 1:0.0 2:0.0 
1.0 1:0.0 2:0.0 
1.0 1:0.0 2:0.0 
1.0 1:0.0 2:0.0 
1.0 1:0.0 2:0.0 
1.0 1:0.0 2:0.0 
1.0 1:0.0 2:0.0 
1.0 1:0.0 2:0.0 
1.0 1:0.0 2:0.0 
1.0 1:0.0 2:0.0 
1.0 1:0.0 2:0.0 
1.0 1:0.0 2:0.0 
1.0 1:0.0 2:0.0 
1.0 1:0.0 2:0.0 
1.0 1:0.0 2:0.0 
1.0 1:0.0 2:0.0 
1.0 1:0.0 2:0.0 
1.0 1:0.0 2:0.0 
1.0 1:0.0 2:0.0 
1.0 1:0.0 2:0.0 
1.0 1:0.0 2:0.0 
1.0 1:0.0 2:0.0 
1.0 1:0.0 2:0.0 
1.0 1:0.0 2:0.0 
1.0 1:0.0 2:0.0 
1.0 1:0.0 2:0.0 
1.0 1:0.0 2:0.0 
1.0 1:0.0 2:0.0 
1.0 1:0.0 2:0.0 
1.0 1:0.0 2:0.0 
1.0 1:0.0 2:0.0 
1.0 1:0.0 2:0.0 
1.0 1:0.0 2:0.0 
1.0 1:0.0 2:0.0 
1.0 1:0.0 2:0.0 
1.0 1:0.0 2:0.0 
1.0 1:0.0 2:0.0 
1.0 1:0.0 2:0.0 
1.0 1:0.0 2:0.0 
1.0 1:0.0 2:0.0 
1.0 1:0.0 2:0.0 
1.0 1:0.0 2:0.0 
1.0 1:0.0 2:0.0 
1.0 1:0.0 2:0.0 
1.0 1:0.0 2:0.0 
1.0 1:0.0 2:0.0 
1.0 1:0.0 2:0.0 
1.0 1:0.0 2:0.0 
1.0 1:0.0 2:0.0 
1.0 1:0.0 2:0.0 
1.0 1:0.0 2:0.0 
1.0 1:0.0 2:0.0 
1.0 1:0.0 2:0.0 
1.0 1:0.0 2:0.0 
1.0 1:0.0 2:0.0 
1.0 1:0.0 2:0.0 
1.0 1:0.0 2:0.0 
1.0 1:0.0 2:0.0 
1.0 1:0.0 2:0.0 
1.0 1:0.0 2:0.0 
1.0 1:0.20089758892949855 2:4.0 
1.0 1:0.0 2:0.0 
1.0 1:0.0 2:0.0 
1.0 1:0.0 2:0.0 
1.0 1:0.0 2:0.0 
1.0 1:0.0 2:0.0 
1.0 1:0.0 2:0.0 
1.0 1:0.0 2:0.0 
1.0 1:0.0 2:0.0 
1.0 1:0.0 2:0.0 
1.0 1:0.0 2:0.0 
1.0 1:0.0 2:0.0 
1.0 1:0.0 2:0.0 
1.0 1:0.0 2:0.0 
1.0 1:0.0 2:0.0 
1.0 1:0.0 2:0.0 
1.0 1:0.0 2:0.0 
1.0 1:0.0 2:0.0 
1.0 1:0.0 2:0.0 
1.0 1:0.0036034924676550443 2:1.0 
1.0 1:0.0 2:0.0 
1.0 1:0.0 2:0.0 
1.0 1:0.0 2:0.0 
1.0 1:0.0 2:0.0 
1.0 1:0.0 2:0.0 
1.0 1:0.0 2:0.0 
1.0 1:0.0 2:0.0 
1.0 1:0.0 2:0.0 
1.0 1:0.0 2:0.0 
1.0 1:0.0 2:0.0 
1.0 1:0.0 2:0.0 
1.0 1:0.0 2:0.0 
1.0 1:0.0 2:0.0 
1.0 1:0.0 2:0.0 
1.0 1:0.0 2:0.0 
1.0 1:0.0 2:0.0 
1.0 1:0.0 2:0.0 
1.0 1:0.0 2:0.0 
1.0 1:0.0 2:0.0 
1.0 1:0.0 2:0.0 
1.0 1:0.0 2:0.0 
1.0 1:0.0 2:0.0 
1.0 1:0.0 2:0.0 
1.0 1:0.0 2:0.0 
1.0 1:0.0 2:0.0 
1.0 1:0.0 2:0.0 
1.0 1:0.0 2:0.0 
1.0 1:0.0 2:0.0 
1.0 1:0.0 2:0.0 
1.0 1:0.0 2:0.0 
1.0 1:0.0 2:0.0 
1.0 1:0.0 2:0.0 
1.0 1:0.0 2:0.0 
1.0 1:0.0 2:0.0 
1.0 1:0.0 2:0.0 
1.0 1:0.0 2:0.0 
1.0 1:0.0 2:0.0 
1.0 1:0.0 2:0.0 
1.0 1:0.0 2:0.0 
1.0 1:0.0 2:0.0 
1.0 1:0.0 2:0.0 
1.0 1:0.0 2:0.0 
1.0 1:0.0 2:0.0 
1.0 1:0.0 2:0.0 
1.0 1:0.0 2:0.0 
1.0 1:0.0 2:0.0 
1.0 1:0.0 2:0.0 
1.0 1:0.0 2:0.0 
1.0 1:0.0 2:0.0 
1.0 1:0.0 2:0.0 
1.0 1:0.0 2:0.0 
1.0 1:0.0 2:0.0 
1.0 1:0.0 2:0.0 
1.0 1:0.0 2:0.0 
1.0 1:0.0 2:0.0 
1.0 1:0.0 2:0.0 
1.0 1:0.0 2:0.0 
1.0 1:0.0 2:0.0 
1.0 1:0.0 2:0.0 
1.0 1:0.0 2:0.0 
1.0 1:0.0 2:0.0 
1.0 1:0.0 2:0.0 
1.0 1:0.0 2:0.0 
1.0 1:0.0 2:0.0 
1.0 1:0.0 2:0.0 
1.0 1:0.0 2:0.0 
1.0 1:0.0 2:0.0 
1.0 1:0.0 2:0.0 
1.0 1:0.0 2:0.0 
1.0 1:0.0 2:0.0 
1.0 1:0.0 2:0.0 
1.0 1:0.0 2:0.0 
1.0 1:0.0 2:0.0 
1.0 1:0.0 2:0.0 
1.0 1:0.0 2:0.0 
1.0 1:0.0 2:0.0 
1.0 1:0.0 2:0.0 
1.0 1:0.0 2:0.0 
1.0 1:0.0 2:0.0 
1.0 1:0.0 2:0.0 
1.0 1:0.0 2:0.0 
1.0 1:0.0 2:0.0 
1.0 1:0.0 2:0.0 
1.0 1:0.0 2:0.0 
1.0 1:0.0 2:0.0 
1.0 1:0.0 2:0.0 
1.0 1:0.0 2:0.0 
1.0 1:0.0 2:0.0 
1.0 1:0.0 2:0.0 
1.0 1:0.0 2:0.0 
1.0 1:0.0 2:0.0 
1.0 1:0.0 2:0.0 
1.0 1:0.0 2:0.0 
1.0 1:0.0 2:0.0 
1.0 1:0.0 2:0.0 
1.0 1:0.0 2:0.0 
1.0 1:0.0 2:0.0 
1.0 1:0.0 2:0.0 
1.0 1:0.0 2:0.0 
1.0 1:0.0 2:0.0 
1.0 1:0.0 2:0.0 
1.0 1:0.0 2:0.0 
1.0 1:0.0 2:0.0 
1.0 1:0.0 2:0.0 
1.0 1:0.0 2:0.0 
1.0 1:0.0 2:0.0 
1.0 1:0.0 2:0.0 
1.0 1:0.0 2:0.0 
1.0 1:0.0 2:0.0 
1.0 1:0.0 2:0.0 
1.0 1:0.0 2:0.0 
1.0 1:0.0 2:0.0 
1.0 1:0.0 2:0.0 
1.0 1:0.0 2:0.0 
1.0 1:0.0 2:0.0 
1.0 1:0.0 2:0.0 
1.0 1:0.0 2:0.0 
1.0 1:0.0 2:0.0 
1.0 1:0.0 2:0.0 
1.0 1:0.0 2:0.0 
1.0 1:0.0 2:0.0 
1.0 1:0.0 2:0.0 
1.0 1:0.0 2:0.0 
1.0 1:0.0 2:0.0 
1.0 1:0.0 2:0.0 
1.0 1:0.0 2:0.0 
1.0 1:0.0 2:0.0 
1.0 1:0.0 2:0.0 
1.0 1:0.0 2:0.0 
1.0 1:0.0 2:0.0 
1.0 1:0.0 2:0.0 
1.0 1:0.0 2:0.0 
1.0 1:0.0 2:0.0 
1.0 1:0.0 2:0.0 
1.0 1:0.0 2:0.0 
1.0 1:0.0 2:0.0 
1.0 1:0.0 2:0.0 
1.0 1:0.0 2:0.0 
1.0 1:0.0 2:0.0 
1.0 1:0.0 2:0.0 
1.0 1:0.0 2:0.0 
1.0 1:0.0 2:0.0 
1.0 1:0.0 2:0.0 
1.0 1:0.0 2:0.0 
1.0 1:0.0 2:0.0 
1.0 1:0.0 2:0.0 
1.0 1:0.0 2:0.0 
1.0 1:0.0 2:0.0 
1.0 1:0.0 2:0.0 
1.0 1:0.0 2:0.0 
1.0 1:0.0 2:0.0 
1.0 1:0.0 2:0.0 
1.0 1:0.0 2:0.0 
1.0 1:0.0 2:0.0 
1.0 1:0.0 2:0.0 
1.0 1:0.0 2:0.0 
1.0 1:0.0 2:0.0 
1.0 1:0.0 2:0.0 
1.0 1:0.0 2:0.0 
1.0 1:0.0 2:0.0 
1.0 1:0.0 2:0.0 
1.0 1:0.0 2:0.0 
1.0 1:0.0 2:0.0 
1.0 1:0.0 2:0.0 
1.0 1:0.0 2:0.0 
1.0 1:0.0 2:0.0 
1.0 1:0.0 2:0.0 
1.0 1:0.0 2:0.0 
1.0 1:0.0 2:0.0 
1.0 1:0.0 2:0.0 
1.0 1:0.0 2:0.0 
1.0 1:0.0 2:0.0 
1.0 1:0.0 2:0.0 
1.0 1:0.0 2:0.0 
1.0 1:0.0 2:0.0 
1.0 1:0.0 2:0.0 
1.0 1:0.0 2:0.0 
1.0 1:0.0 2:0.0 
1.0 1:0.0 2:0.0 
1.0 1:0.0 2:0.0 
1.0 1:0.0 2:0.0 
1.0 1:0.0 2:0.0 
1.0 1:0.0 2:0.0 
1.0 1:0.0 2:0.0 
1.0 1:0.0 2:0.0 
1.0 1:0.0 2:0.0 
1.0 1:0.0 2:0.0 
1.0 1:0.0 2:0.0 
1.0 1:0.0 2:0.0 
1.0 1:0.0 2:0.0 
1.0 1:0.0 2:0.0 
1.0 1:0.0 2:0.0 
1.0 1:0.0 2:0.0 
1.0 1:0.0 2:0.0 
1.0 1:0.0 2:0.0 
1.0 1:0.0 2:0.0 
1.0 1:0.0 2:0.0 
1.0 1:0.0 2:0.0 
1.0 1:0.0 2:0.0 
1.0 1:0.0 2:0.0 
1.0 1:0.0 2:0.0 
1.0 1:0.0 2:0.0 
1.0 1:0.0 2:0.0 
1.0 1:0.0 2:0.0 
1.0 1:0.0 2:0.0 
1.0 1:0.0 2:0.0 
1.0 1:0.0 2:0.0 
1.0 1:0.0 2:0.0 
1.0 1:0.0 2:0.0 
1.0 1:0.0 2:0.0 
1.0 1:0.0 2:0.0 
1.0 1:0.0 2:0.0 
1.0 1:0.0 2:0.0 
1.0 1:0.0 2:0.0 
1.0 1:0.0 2:0.0 
1.0 1:0.0 2:0.0 
1.0 1:0.0 2:0.0 
1.0 1:0.0 2:0.0 
1.0 1:0.0 2:0.0 
1.0 1:0.0 2:0.0 
1.0 1:0.0 2:0.0 
1.0 1:0.0 2:0.0 
1.0 1:0.0 2:0.0 
1.0 1:0.0 2:0.0 
1.0 1:0.0 2:0.0 
1.0 1:0.0 2:0.0 
1.0 1:0.0 2:0.0 
1.0 1:0.0 2:0.0 
1.0 1:0.0 2:0.0 
1.0 1:0.0 2:0.0 
1.0 1:0.0 2:0.0 
1.0 1:0.0 2:0.0 
1.0 1:0.0 2:0.0 
1.0 1:0.0 2:0.0 
1.0 1:0.0 2:0.0 
1.0 1:0.0 2:0.0 
1.0 1:0.0 2:0.0 
1.0 1:0.0 2:0.0 
1.0 1:0.0 2:0.0 
1.0 1:0.0 2:0.0 
1.0 1:0.0 2:0.0 
1.0 1:0.0 2:0.0 
1.0 1:0.0 2:0.0 
1.0 1:0.0 2:0.0 
1.0 1:0.0 2:0.0 
1.0 1:0.0 2:0.0 
1.0 1:0.0 2:0.0 
1.0 1:0.0 2:0.0 
1.0 1:0.0 2:0.0 
1.0 1:0.0 2:0.0 
1.0 1:0.0 2:0.0 
1.0 1:0.0 2:0.0 
1.0 1:0.0 2:0.0 
1.0 1:0.0 2:0.0 
1.0 1:0.0 2:0.0 
1.0 1:0.0 2:0.0 
1.0 1:0.0 2:0.0 
1.0 1:0.0 2:0.0 
1.0 1:0.0 2:0.0 
1.0 1:0.0 2:0.0 
1.0 1:0.0 2:0.0 
1.0 1:0.0 2:0.0 
1.0 1:0.0 2:0.0 
1.0 1:0.0 2:0.0 
1.0 1:0.0 2:0.0 
1.0 1:0.0 2:0.0 
1.0 1:0.0 2:0.0 
1.0 1:0.0 2:0.0 
1.0 1:0.0 2:0.0 
1.0 1:0.0 2:0.0 
1.0 1:0.0 2:0.0 
1.0 1:0.0 2:0.0 
1.0 1:0.0 2:0.0 
1.0 1:0.0 2:0.0 
1.0 1:0.0 2:0.0 
1.0 1:0.0 2:0.0 
1.0 1:0.0 2:0.0 
1.0 1:0.0 2:0.0 
1.0 1:0.0 2:0.0 
1.0 1:0.0 2:0.0 
1.0 1:0.0 2:0.0 
1.0 1:0.0 2:0.0 
1.0 1:0.0 2:0.0 
1.0 1:0.0 2:0.0 
1.0 1:0.0 2:0.0 
1.0 1:0.0 2:0.0 
1.0 1:0.0 2:0.0 
1.0 1:0.0 2:0.0 
1.0 1:0.0 2:0.0 
1.0 1:0.0 2:0.0 
1.0 1:0.0 2:0.0 
1.0 1:0.0 2:0.0 
1.0 1:0.0 2:0.0 
1.0 1:0.0 2:0.0 
1.0 1:0.0 2:0.0 
1.0 1:0.0 2:0.0 
1.0 1:0.0 2:0.0 
1.0 1:0.0 2:0.0 
1.0 1:0.0 2:0.0 
1.0 1:0.0 2:0.0 
1.0 1:0.0 2:0.0 
1.0 1:0.0 2:0.0 
1.0 1:0.0 2:0.0 
1.0 1:0.0 2:0.0 
1.0 1:0.0 2:0.0 
1.0 1:0.0 2:0.0 
1.0 1:0.0 2:0.0 
1.0 1:0.0 2:0.0 
1.0 1:0.0 2:0.0 
1.0 1:0.0 2:0.0 
1.0 1:0.0 2:0.0 
1.0 1:0.0 2:0.0 
1.0 1:0.0 2:0.0 
1.0 1:0.0 2:0.0 
1.0 1:0.0 2:0.0 
1.0 1:0.0 2:0.0 
1.0 1:0.0 2:0.0 
1.0 1:0.0 2:0.0 
1.0 1:0.0 2:0.0 
1.0 1:0.0 2:0.0 
1.0 1:0.0 2:0.0 
1.0 1:0.0 2:0.0 
1.0 1:0.0 2:0.0 
1.0 1:0.0 2:0.0 
1.0 1:0.0 2:0.0 
1.0 1:0.0 2:0.0 
1.0 1:0.0 2:0.0 
1.0 1:0.0 2:0.0 
1.0 1:0.0 2:0.0 
1.0 1:0.0 2:0.0 
1.0 1:0.0 2:0.0 
1.0 1:0.0 2:0.0 
1.0 1:0.0 2:0.0 
1.0 1:0.0 2:0.0 
1.0 1:0.0 2:0.0 
1.0 1:0.0 2:0.0 
1.0 1:0.0 2:0.0 
1.0 1:0.0 2:0.0 
1.0 1:0.0 2:0.0 
1.0 1:0.0 2:0.0 
1.0 1:0.0 2:0.0 
1.0 1:0.0 2:0.0 
1.0 1:0.0 2:0.0 
1.0 1:0.0 2:0.0 
1.0 1:0.0 2:0.0 
1.0 1:0.0 2:0.0 
1.0 1:0.0 2:0.0 
1.0 1:0.0 2:0.0 
1.0 1:0.0 2:0.0 
1.0 1:0.0 2:0.0 
1.0 1:0.0 2:0.0 
1.0 1:0.0 2:0.0 
1.0 1:0.0 2:0.0 
1.0 1:0.0 2:0.0 
1.0 1:0.0 2:0.0 
1.0 1:0.0 2:0.0 
1.0 1:0.0 2:0.0 
1.0 1:0.0 2:0.0 
1.0 1:0.0 2:0.0 
1.0 1:0.0 2:0.0 
1.0 1:0.0 2:0.0 
1.0 1:0.0 2:0.0 
1.0 1:0.0 2:0.0 
1.0 1:0.0 2:0.0 
1.0 1:0.0 2:0.0 
1.0 1:0.0 2:0.0 
1.0 1:0.0 2:0.0 
1.0 1:0.0 2:0.0 
1.0 1:0.0 2:0.0 
1.0 1:0.0 2:0.0 
1.0 1:0.0 2:0.0 
1.0 1:0.0 2:0.0 
1.0 1:0.0 2:0.0 
1.0 1:0.0 2:0.0 
1.0 1:0.0 2:0.0 
1.0 1:0.0 2:0.0 
1.0 1:0.0 2:0.0 
1.0 1:0.0 2:0.0 
1.0 1:0.0 2:0.0 
1.0 1:0.0 2:0.0 
1.0 1:0.0 2:0.0 
1.0 1:0.0 2:0.0 
1.0 1:0.0 2:0.0 
1.0 1:0.0 2:0.0 
1.0 1:0.0 2:0.0 
1.0 1:0.0 2:0.0 
1.0 1:0.0 2:0.0 
1.0 1:0.0 2:0.0 
1.0 1:0.0 2:0.0 
1.0 1:0.0 2:0.0 
1.0 1:0.0 2:0.0 
1.0 1:0.0 2:0.0 
1.0 1:0.0 2:0.0 
1.0 1:0.0 2:0.0 
1.0 1:0.0 2:0.0 
1.0 1:0.0 2:0.0 
1.0 1:0.0 2:0.0 
1.0 1:0.0 2:0.0 
1.0 1:0.0 2:0.0 
1.0 1:0.0 2:0.0 
1.0 1:0.0 2:0.0 
1.0 1:0.0 2:0.0 
1.0 1:0.0 2:0.0 
1.0 1:0.0 2:0.0 
1.0 1:0.0 2:0.0 
1.0 1:0.0 2:0.0 
1.0 1:0.0 2:0.0 
1.0 1:0.0 2:0.0 
1.0 1:0.0 2:0.0 
1.0 1:0.0 2:0.0 
1.0 1:0.0 2:0.0 
1.0 1:0.0 2:0.0 
1.0 1:0.0 2:0.0 
1.0 1:0.0 2:0.0 
1.0 1:0.0 2:0.0 
1.0 1:0.0 2:0.0 
1.0 1:0.0 2:0.0 
1.0 1:0.0 2:0.0 
1.0 1:0.0 2:0.0 
1.0 1:0.0 2:0.0 
1.0 1:0.0 2:0.0 
1.0 1:0.0 2:0.0 
1.0 1:0.0 2:0.0 
1.0 1:0.0 2:0.0 
1.0 1:0.0 2:0.0 
1.0 1:0.0 2:0.0 
1.0 1:0.0 2:0.0 
1.0 1:0.0 2:0.0 
1.0 1:0.0 2:0.0 
1.0 1:0.0 2:0.0 
1.0 1:0.0 2:0.0 
1.0 1:0.0 2:0.0 
1.0 1:0.0 2:0.0 
1.0 1:0.0 2:0.0 
1.0 1:0.0 2:0.0 
1.0 1:0.0 2:0.0 
1.0 1:0.0 2:0.0 
1.0 1:0.0 2:0.0 
1.0 1:0.0 2:0.0 
1.0 1:0.0 2:0.0 
1.0 1:0.0 2:0.0 
1.0 1:0.0 2:0.0 
1.0 1:0.0 2:0.0 
1.0 1:0.0 2:0.0 
1.0 1:0.0 2:0.0 
1.0 1:0.0 2:0.0 
1.0 1:0.0 2:0.0 
1.0 1:0.0 2:0.0 
1.0 1:0.0 2:0.0 
1.0 1:0.0 2:0.0 
1.0 1:0.0 2:0.0 
1.0 1:0.0 2:0.0 
1.0 1:0.0 2:0.0 
1.0 1:0.0 2:0.0 
1.0 1:0.0 2:0.0 
1.0 1:0.0 2:0.0 
1.0 1:0.0 2:0.0 
1.0 1:0.0 2:0.0 
1.0 1:0.0 2:0.0 
1.0 1:0.0 2:0.0 
1.0 1:0.0 2:0.0 
1.0 1:0.0 2:0.0 
1.0 1:0.0 2:0.0 
1.0 1:0.0 2:0.0 
1.0 1:0.0 2:0.0 
1.0 1:0.0 2:0.0 
1.0 1:0.0 2:0.0 
1.0 1:0.0 2:0.0 
1.0 1:0.0 2:0.0 
1.0 1:0.0 2:0.0 
1.0 1:0.0 2:0.0 
1.0 1:0.0 2:0.0 
1.0 1:0.0 2:0.0 
1.0 1:0.0 2:0.0 
1.0 1:0.0 2:0.0 
1.0 1:0.0 2:0.0 
1.0 1:0.0 2:0.0 
1.0 1:0.0 2:0.0 
1.0 1:0.0 2:0.0 
1.0 1:0.0 2:0.0 
1.0 1:0.0 2:0.0 
1.0 1:0.0 2:0.0 
1.0 1:0.0 2:0.0 
1.0 1:0.0 2:0.0 
1.0 1:0.0 2:0.0 
1.0 1:0.0 2:0.0 
1.0 1:0.0 2:0.0 
1.0 1:0.0 2:0.0 
1.0 1:0.0 2:0.0 
1.0 1:0.00864610760955432 2:1.0 
1.0 1:0.0 2:0.0 
1.0 1:0.0 2:0.0 
1.0 1:0.0 2:0.0 
1.0 1:0.0 2:0.0 
1.0 1:0.0 2:0.0 
1.0 1:0.0 2:0.0 
1.0 1:0.0 2:0.0 
1.0 1:0.0 2:0.0 
1.0 1:0.0 2:0.0 
1.0 1:0.0 2:0.0 
1.0 1:0.0 2:0.0 
1.0 1:0.0 2:0.0 
1.0 1:0.0 2:0.0 
1.0 1:0.0 2:0.0 
1.0 1:0.0 2:0.0 
1.0 1:0.0 2:0.0 
1.0 1:0.0 2:0.0 
1.0 1:0.0 2:0.0 
1.0 1:0.0 2:0.0 
1.0 1:0.0 2:0.0 
1.0 1:0.0 2:0.0 
1.0 1:0.0 2:0.0 
1.0 1:0.0 2:0.0 
1.0 1:0.0 2:0.0 
1.0 1:0.0 2:0.0 
1.0 1:0.0 2:0.0 
1.0 1:0.0 2:0.0 
1.0 1:0.0 2:0.0 
1.0 1:0.0 2:0.0 
1.0 1:0.0 2:0.0 
1.0 1:0.0 2:0.0 
1.0 1:0.0 2:0.0 
1.0 1:0.0 2:0.0 
1.0 1:0.0 2:0.0 
1.0 1:0.016473324516446338 2:1.0 
1.0 1:0.0 2:0.0 
1.0 1:0.0 2:0.0 
1.0 1:0.0 2:0.0 
1.0 1:0.0 2:0.0 
1.0 1:0.0 2:0.0 
1.0 1:0.0 2:0.0 
1.0 1:0.0 2:0.0 
1.0 1:0.0 2:0.0 
1.0 1:0.0 2:0.0 
1.0 1:0.0 2:0.0 
1.0 1:0.0 2:0.0 
1.0 1:0.0 2:0.0 
1.0 1:0.0 2:0.0 
1.0 1:0.0 2:0.0 
1.0 1:0.0 2:0.0 
1.0 1:0.0 2:0.0 
1.0 1:0.0 2:0.0 
1.0 1:0.0 2:0.0 
1.0 1:0.0 2:0.0 
1.0 1:0.0 2:0.0 
1.0 1:0.0 2:0.0 
1.0 1:0.0 2:0.0 
1.0 1:0.0 2:0.0 
1.0 1:0.0 2:0.0 
1.0 1:0.0 2:0.0 
1.0 1:0.0 2:0.0 
1.0 1:0.0 2:0.0 
1.0 1:0.0 2:0.0 
1.0 1:0.0 2:0.0 
1.0 1:0.0 2:0.0 
1.0 1:0.0 2:0.0 
1.0 1:0.0 2:0.0 
1.0 1:0.0 2:0.0 
1.0 1:0.0 2:0.0 
1.0 1:0.0 2:0.0 
1.0 1:0.0 2:0.0 
1.0 1:0.0 2:0.0 
1.0 1:0.0 2:0.0 
1.0 1:0.0 2:0.0 
1.0 1:0.0 2:0.0 
1.0 1:0.0 2:0.0 
1.0 1:0.0 2:0.0 
1.0 1:0.0 2:0.0 
1.0 1:0.0 2:0.0 
1.0 1:0.0 2:0.0 
1.0 1:0.0 2:0.0 
1.0 1:0.0 2:0.0 
1.0 1:0.0 2:0.0 
1.0 1:0.0 2:0.0 
1.0 1:0.0 2:0.0 
1.0 1:0.0 2:0.0 
1.0 1:0.0 2:0.0 
1.0 1:0.0 2:0.0 
1.0 1:0.0 2:0.0 
1.0 1:0.0 2:0.0 
1.0 1:0.0 2:0.0 
1.0 1:0.0 2:0.0 
1.0 1:0.0 2:0.0 
1.0 1:0.0 2:0.0 
1.0 1:0.0 2:0.0 
1.0 1:0.0 2:0.0 
1.0 1:0.0 2:0.0 
1.0 1:0.0 2:0.0 
1.0 1:0.0 2:0.0 
1.0 1:0.0 2:0.0 
1.0 1:0.0 2:0.0 
1.0 1:0.0 2:0.0 
1.0 1:0.0 2:0.0 
1.0 1:0.0 2:0.0 
1.0 1:0.0 2:0.0 
1.0 1:0.0 2:0.0 
1.0 1:0.0 2:0.0 
1.0 1:0.0 2:0.0 
1.0 1:0.0 2:0.0 
1.0 1:0.0 2:0.0 
1.0 1:0.0 2:0.0 
1.0 1:0.0 2:0.0 
1.0 1:0.0 2:0.0 
1.0 1:0.0 2:0.0 
1.0 1:0.0 2:0.0 
1.0 1:0.0 2:0.0 
1.0 1:0.0 2:0.0 
1.0 1:0.0 2:0.0 
1.0 1:0.0 2:0.0 
1.0 1:0.0 2:0.0 
1.0 1:0.0 2:0.0 
1.0 1:0.0 2:0.0 
1.0 1:0.0 2:0.0 
1.0 1:0.0 2:0.0 
1.0 1:0.0 2:0.0 
1.0 1:0.0 2:0.0 
1.0 1:0.0 2:0.0 
1.0 1:0.0 2:0.0 
1.0 1:0.0 2:0.0 
1.0 1:0.0 2:0.0 
1.0 1:0.0 2:0.0 
1.0 1:0.0 2:0.0 
1.0 1:0.0 2:0.0 
1.0 1:0.0 2:0.0 
1.0 1:0.0 2:0.0 
1.0 1:0.0 2:0.0 
1.0 1:0.0 2:0.0 
1.0 1:0.0 2:0.0 
1.0 1:0.0 2:0.0 
1.0 1:0.0 2:0.0 
1.0 1:0.010227055041875165 2:2.0 
1.0 1:0.0 2:0.0 
1.0 1:0.0 2:0.0 
1.0 1:0.0 2:0.0 
1.0 1:0.0 2:0.0 
1.0 1:0.0 2:0.0 
1.0 1:0.0 2:0.0 
1.0 1:0.0 2:0.0 
1.0 1:0.0 2:0.0 
1.0 1:0.0 2:0.0 
1.0 1:0.0 2:0.0 
1.0 1:0.0 2:0.0 
1.0 1:0.0 2:0.0 
1.0 1:0.0 2:0.0 
1.0 1:0.0 2:0.0 
1.0 1:0.0 2:0.0 
1.0 1:0.0 2:0.0 
1.0 1:0.0 2:0.0 
1.0 1:0.0 2:0.0 
1.0 1:0.0 2:0.0 
1.0 1:0.0 2:0.0 
1.0 1:0.0 2:0.0 
1.0 1:0.0 2:0.0 
1.0 1:0.0 2:0.0 
1.0 1:0.0 2:0.0 
1.0 1:0.0 2:0.0 
1.0 1:0.0 2:0.0 
1.0 1:0.0 2:0.0 
1.0 1:0.0 2:0.0 
1.0 1:0.0 2:0.0 
1.0 1:0.0 2:0.0 
1.0 1:0.0 2:0.0 
1.0 1:0.0 2:0.0 
1.0 1:0.0 2:0.0 
1.0 1:0.0 2:0.0 
1.0 1:0.0 2:0.0 
1.0 1:0.0 2:0.0 
1.0 1:0.0 2:0.0 
1.0 1:0.0 2:0.0 
1.0 1:0.0 2:0.0 
1.0 1:0.0 2:0.0 
1.0 1:0.0 2:0.0 
1.0 1:0.0 2:0.0 
1.0 1:0.0 2:0.0 
1.0 1:0.0 2:0.0 
1.0 1:0.0 2:0.0 
1.0 1:0.0 2:0.0 
1.0 1:0.0 2:0.0 
1.0 1:0.0 2:0.0 
1.0 1:0.0 2:0.0 
1.0 1:0.0 2:0.0 
1.0 1:0.0 2:0.0 
1.0 1:0.0 2:0.0 
1.0 1:0.0 2:0.0 
1.0 1:0.0 2:0.0 
1.0 1:0.0 2:0.0 
1.0 1:0.0 2:0.0 
1.0 1:0.0 2:0.0 
1.0 1:0.0 2:0.0 
1.0 1:0.0 2:0.0 
1.0 1:0.0 2:0.0 
1.0 1:0.0 2:0.0 
1.0 1:0.0 2:0.0 
1.0 1:0.0 2:0.0 
1.0 1:0.0 2:0.0 
1.0 1:0.0 2:0.0 
1.0 1:0.0 2:0.0 
1.0 1:0.0 2:0.0 
1.0 1:0.0 2:0.0 
1.0 1:0.0 2:0.0 
1.0 1:0.0 2:0.0 
1.0 1:0.0 2:0.0 
1.0 1:0.0 2:0.0 
1.0 1:0.0 2:0.0 
1.0 1:0.0 2:0.0 
1.0 1:0.0 2:0.0 
1.0 1:0.0 2:0.0 
1.0 1:0.0 2:0.0 
1.0 1:0.0 2:0.0 
1.0 1:0.0 2:0.0 
1.0 1:0.0 2:0.0 
1.0 1:0.0 2:0.0 
1.0 1:0.0 2:0.0 
1.0 1:0.0 2:0.0 
1.0 1:0.2483501250311851 2:4.0 
1.0 1:0.0 2:0.0 
1.0 1:0.0 2:0.0 
1.0 1:0.0 2:0.0 
1.0 1:0.0 2:0.0 
1.0 1:0.0 2:0.0 
1.0 1:0.0 2:0.0 
1.0 1:0.0 2:0.0 
1.0 1:0.0 2:0.0 
1.0 1:0.0 2:0.0 
1.0 1:0.0 2:0.0 
1.0 1:0.0 2:0.0 
1.0 1:0.0 2:0.0 
1.0 1:0.0 2:0.0 
1.0 1:0.0 2:0.0 
1.0 1:0.0 2:0.0 
1.0 1:0.0 2:0.0 
1.0 1:0.0 2:0.0 
1.0 1:0.0 2:0.0 
1.0 1:0.0 2:0.0 
1.0 1:0.0 2:0.0 
1.0 1:0.0 2:0.0 
1.0 1:0.0 2:0.0 
1.0 1:0.0 2:0.0 
1.0 1:0.0 2:0.0 
1.0 1:0.0 2:0.0 
1.0 1:0.0 2:0.0 
1.0 1:0.0 2:0.0 
1.0 1:0.0 2:0.0 
1.0 1:0.0 2:0.0 
1.0 1:0.0 2:0.0 
1.0 1:0.0 2:0.0 
1.0 1:0.0 2:0.0 
1.0 1:0.0 2:0.0 
1.0 1:0.0 2:0.0 
1.0 1:0.0 2:0.0 
1.0 1:0.0 2:0.0 
1.0 1:0.0 2:0.0 
1.0 1:0.0 2:0.0 
1.0 1:0.0 2:0.0 
1.0 1:0.0 2:0.0 
1.0 1:0.0 2:0.0 
1.0 1:0.0 2:0.0 
1.0 1:0.0 2:0.0 
1.0 1:0.0 2:0.0 
1.0 1:0.0 2:0.0 
1.0 1:0.0 2:0.0 
1.0 1:0.0 2:0.0 
1.0 1:0.0 2:0.0 
1.0 1:0.0 2:0.0 
1.0 1:0.0 2:0.0 
1.0 1:0.0 2:0.0 
1.0 1:0.0 2:0.0 
1.0 1:0.0 2:0.0 
1.0 1:0.0 2:0.0 
1.0 1:0.0 2:0.0 
1.0 1:0.0 2:0.0 
1.0 1:0.0 2:0.0 
1.0 1:0.0 2:0.0 
1.0 1:0.0 2:0.0 
1.0 1:0.0 2:0.0 
1.0 1:0.0 2:0.0 
1.0 1:0.0 2:0.0 
1.0 1:0.0 2:0.0 
1.0 1:0.0 2:0.0 
1.0 1:0.0 2:0.0 
1.0 1:0.0 2:0.0 
1.0 1:0.0 2:0.0 
1.0 1:0.0 2:0.0 
1.0 1:0.0 2:0.0 
1.0 1:0.0 2:0.0 
1.0 1:0.0 2:0.0 
1.0 1:0.0 2:0.0 
1.0 1:0.0 2:0.0 
1.0 1:0.0 2:0.0 
1.0 1:0.0 2:0.0 
1.0 1:0.0 2:0.0 
1.0 1:0.0 2:0.0 
1.0 1:0.0 2:0.0 
1.0 1:0.0 2:0.0 
1.0 1:0.0 2:0.0 
1.0 1:0.0 2:0.0 
1.0 1:0.0 2:0.0 
1.0 1:0.0 2:0.0 
1.0 1:0.0 2:0.0 
1.0 1:0.0 2:0.0 
1.0 1:0.0 2:0.0 
1.0 1:0.0 2:0.0 
1.0 1:0.0 2:0.0 
1.0 1:0.0 2:0.0 
1.0 1:0.0 2:0.0 
1.0 1:0.0 2:0.0 
1.0 1:0.0 2:0.0 
1.0 1:0.0 2:0.0 
1.0 1:0.0 2:0.0 
1.0 1:0.0 2:0.0 
1.0 1:0.0 2:0.0 
1.0 1:0.0 2:0.0 
1.0 1:0.0 2:0.0 
1.0 1:0.0 2:0.0 
1.0 1:0.0 2:0.0 
1.0 1:0.0 2:0.0 
1.0 1:0.0 2:0.0 
1.0 1:0.0 2:0.0 
1.0 1:0.0 2:0.0 
1.0 1:0.0 2:0.0 
1.0 1:0.0 2:0.0 
1.0 1:0.0 2:0.0 
1.0 1:0.0 2:0.0 
1.0 1:0.0 2:0.0 
1.0 1:0.0 2:0.0 
1.0 1:0.0 2:0.0 
1.0 1:0.0 2:0.0 
1.0 1:0.0 2:0.0 
1.0 1:0.0 2:0.0 
1.0 1:0.0 2:0.0 
1.0 1:0.0 2:0.0 
1.0 1:0.0 2:0.0 
1.0 1:0.0 2:0.0 
1.0 1:0.0 2:0.0 
1.0 1:0.0 2:0.0 
1.0 1:0.0 2:0.0 
1.0 1:0.0 2:0.0 
1.0 1:0.0 2:0.0 
1.0 1:0.0 2:0.0 
1.0 1:0.0 2:0.0 
1.0 1:0.0 2:0.0 
1.0 1:0.0 2:0.0 
1.0 1:0.0 2:0.0 
1.0 1:0.0 2:0.0 
1.0 1:0.0 2:0.0 
1.0 1:0.0 2:0.0 
1.0 1:0.0 2:0.0 
1.0 1:0.0 2:0.0 
1.0 1:0.0 2:0.0 
1.0 1:0.0 2:0.0 
1.0 1:0.0 2:0.0 
1.0 1:0.0 2:0.0 
1.0 1:0.0 2:0.0 
1.0 1:0.0 2:0.0 
1.0 1:0.0 2:0.0 
1.0 1:0.0 2:0.0 
1.0 1:0.0 2:0.0 
1.0 1:0.0 2:0.0 
1.0 1:0.0 2:0.0 
1.0 1:0.0 2:0.0 
1.0 1:0.0 2:0.0 
1.0 1:0.0 2:0.0 
1.0 1:0.0 2:0.0 
1.0 1:0.0 2:0.0 
1.0 1:0.0 2:0.0 
1.0 1:0.0 2:0.0 
1.0 1:0.0 2:0.0 
1.0 1:0.0 2:0.0 
1.0 1:0.0 2:0.0 
1.0 1:0.0 2:0.0 
1.0 1:0.0 2:0.0 
1.0 1:0.0 2:0.0 
1.0 1:0.0 2:0.0 
1.0 1:0.0 2:0.0 
1.0 1:0.0 2:0.0 
1.0 1:0.0 2:0.0 
1.0 1:0.0 2:0.0 
1.0 1:0.0 2:0.0 
1.0 1:0.0 2:0.0 
1.0 1:0.0 2:0.0 
1.0 1:0.0 2:0.0 
1.0 1:0.0 2:0.0 
1.0 1:0.0 2:0.0 
1.0 1:0.0 2:0.0 
1.0 1:0.0 2:0.0 
1.0 1:0.0 2:0.0 
1.0 1:0.0 2:0.0 
1.0 1:0.0 2:0.0 
1.0 1:0.0 2:0.0 
1.0 1:0.0 2:0.0 
1.0 1:0.0 2:0.0 
1.0 1:0.0 2:0.0 
1.0 1:0.0 2:0.0 
1.0 1:0.0 2:0.0 
1.0 1:0.0 2:0.0 
1.0 1:0.0 2:0.0 
1.0 1:0.0 2:0.0 
1.0 1:0.0 2:0.0 
1.0 1:0.0 2:0.0 
1.0 1:0.0 2:0.0 
1.0 1:0.0 2:0.0 
1.0 1:0.0 2:0.0 
1.0 1:0.0 2:0.0 
1.0 1:0.0 2:0.0 
1.0 1:0.0 2:0.0 
1.0 1:0.0 2:0.0 
1.0 1:0.0 2:0.0 
1.0 1:0.0 2:0.0 
1.0 1:0.0 2:0.0 
1.0 1:0.0 2:0.0 
1.0 1:0.0 2:0.0 
1.0 1:0.0 2:0.0 
1.0 1:0.0 2:0.0 
1.0 1:0.0 2:0.0 
1.0 1:0.0 2:0.0 
1.0 1:0.0 2:0.0 
1.0 1:0.0 2:0.0 
1.0 1:0.0 2:0.0 
1.0 1:0.0 2:0.0 
1.0 1:0.0 2:0.0 
1.0 1:0.0 2:0.0 
1.0 1:0.0 2:0.0 
1.0 1:0.0 2:0.0 
1.0 1:0.0 2:0.0 
1.0 1:0.0 2:0.0 
1.0 1:0.0 2:0.0 
1.0 1:0.0 2:0.0 
1.0 1:0.0 2:0.0 
1.0 1:0.0 2:0.0 
1.0 1:0.0 2:0.0 
1.0 1:0.0 2:0.0 
1.0 1:0.0 2:0.0 
1.0 1:0.0 2:0.0 
1.0 1:0.0 2:0.0 
1.0 1:0.0 2:0.0 
1.0 1:0.0 2:0.0 
1.0 1:0.0 2:0.0 
1.0 1:0.0 2:0.0 
1.0 1:0.0 2:0.0 
1.0 1:0.0 2:0.0 
1.0 1:0.0 2:0.0 
1.0 1:0.0 2:0.0 
1.0 1:0.0 2:0.0 
1.0 1:0.0 2:0.0 
1.0 1:0.0 2:0.0 
1.0 1:0.0 2:0.0 
1.0 1:0.0 2:0.0 
1.0 1:0.0 2:0.0 
1.0 1:0.0 2:0.0 
1.0 1:0.0 2:0.0 
1.0 1:0.0 2:0.0 
1.0 1:0.0 2:0.0 
1.0 1:0.0 2:0.0 
1.0 1:0.0 2:0.0 
1.0 1:0.0 2:0.0 
1.0 1:0.0 2:0.0 
1.0 1:0.0 2:0.0 
1.0 1:0.0 2:0.0 
1.0 1:0.0 2:0.0 
1.0 1:0.0 2:0.0 
1.0 1:0.0 2:0.0 
1.0 1:0.0 2:0.0 
1.0 1:0.0 2:0.0 
1.0 1:0.0 2:0.0 
1.0 1:0.0 2:0.0 
1.0 1:0.0 2:0.0 
1.0 1:0.0 2:0.0 
1.0 1:0.0 2:0.0 
1.0 1:0.0 2:0.0 
1.0 1:0.0 2:0.0 
1.0 1:0.0 2:0.0 
1.0 1:0.0 2:0.0 
1.0 1:0.0 2:0.0 
1.0 1:0.0 2:0.0 
1.0 1:0.0 2:0.0 
1.0 1:0.0 2:0.0 
1.0 1:0.0 2:0.0 
1.0 1:0.0 2:0.0 
1.0 1:0.0 2:0.0 
1.0 1:0.0 2:0.0 
1.0 1:0.0 2:0.0 
1.0 1:0.0 2:0.0 
1.0 1:0.0 2:0.0 
1.0 1:0.0 2:0.0 
1.0 1:0.0 2:0.0 
1.0 1:0.0 2:0.0 
1.0 1:0.0 2:0.0 
1.0 1:0.0 2:0.0 
1.0 1:0.0 2:0.0 
1.0 1:0.0 2:0.0 
1.0 1:0.0 2:0.0 
1.0 1:0.0 2:0.0 
1.0 1:0.0 2:0.0 
1.0 1:0.0 2:0.0 
1.0 1:0.0 2:0.0 
1.0 1:0.0 2:0.0 
1.0 1:0.0 2:0.0 
1.0 1:0.0 2:0.0 
1.0 1:0.0 2:0.0 
1.0 1:0.0 2:0.0 
1.0 1:0.0 2:0.0 
1.0 1:0.0 2:0.0 
1.0 1:0.0 2:0.0 
1.0 1:0.0 2:0.0 
1.0 1:0.0 2:0.0 
1.0 1:0.0 2:0.0 
1.0 1:0.0 2:0.0 
1.0 1:0.0 2:0.0 
1.0 1:0.0 2:0.0 
1.0 1:0.0 2:0.0 
1.0 1:0.0 2:0.0 
1.0 1:0.0 2:0.0 
1.0 1:0.0 2:0.0 
1.0 1:0.0 2:0.0 
1.0 1:0.0 2:0.0 
1.0 1:0.0 2:0.0 
1.0 1:0.0 2:0.0 
1.0 1:0.0 2:0.0 
1.0 1:0.0 2:0.0 
1.0 1:0.0 2:0.0 
1.0 1:0.0 2:0.0 
1.0 1:0.0 2:0.0 
1.0 1:0.0 2:0.0 
1.0 1:0.0 2:0.0 
1.0 1:0.0 2:0.0 
1.0 1:0.0 2:0.0 
1.0 1:0.0 2:0.0 
1.0 1:0.0 2:0.0 
1.0 1:0.0 2:0.0 
1.0 1:0.0 2:0.0 
1.0 1:0.0 2:0.0 
1.0 1:0.0 2:0.0 
1.0 1:0.0 2:0.0 
1.0 1:0.0 2:0.0 
1.0 1:0.0 2:0.0 
1.0 1:0.0 2:0.0 
1.0 1:0.0 2:0.0 
1.0 1:0.0 2:0.0 
1.0 1:0.0 2:0.0 
1.0 1:0.0 2:0.0 
1.0 1:0.0 2:0.0 
1.0 1:0.0 2:0.0 
1.0 1:0.0 2:0.0 
1.0 1:0.0 2:0.0 
1.0 1:0.0 2:0.0 
1.0 1:0.0 2:0.0 
1.0 1:0.0 2:0.0 
1.0 1:0.0 2:0.0 
1.0 1:0.0 2:0.0 
1.0 1:0.0 2:0.0 
1.0 1:0.0 2:0.0 
1.0 1:0.0 2:0.0 
1.0 1:0.0 2:0.0 
1.0 1:0.0 2:0.0 
1.0 1:0.0 2:0.0 
1.0 1:0.0 2:0.0 
1.0 1:0.0 2:0.0 
1.0 1:0.0 2:0.0 
1.0 1:0.0 2:0.0 
1.0 1:0.0 2:0.0 
1.0 1:0.0 2:0.0 
1.0 1:0.0 2:0.0 
1.0 1:0.0 2:0.0 
1.0 1:0.0 2:0.0 
1.0 1:0.0 2:0.0 
1.0 1:0.0 2:0.0 
1.0 1:0.0 2:0.0 
1.0 1:0.0 2:0.0 
1.0 1:0.0 2:0.0 
1.0 1:0.0 2:0.0 
1.0 1:0.0 2:0.0 
1.0 1:0.0 2:0.0 
1.0 1:0.0 2:0.0 
1.0 1:0.0 2:0.0 
1.0 1:0.0 2:0.0 
1.0 1:0.0 2:0.0 
1.0 1:0.0 2:0.0 
1.0 1:0.0 2:0.0 
1.0 1:0.0 2:0.0 
1.0 1:0.0 2:0.0 
1.0 1:0.0 2:0.0 
1.0 1:0.0 2:0.0 
1.0 1:0.0 2:0.0 
1.0 1:0.0 2:0.0 
1.0 1:0.0 2:0.0 
1.0 1:0.0 2:0.0 
1.0 1:0.0 2:0.0 
1.0 1:0.0 2:0.0 
1.0 1:0.0 2:0.0 
1.0 1:0.0 2:0.0 
1.0 1:0.0 2:0.0 
1.0 1:0.0 2:0.0 
1.0 1:0.0 2:0.0 
1.0 1:0.0 2:0.0 
1.0 1:0.0 2:0.0 
1.0 1:0.0 2:0.0 
1.0 1:0.0 2:0.0 
1.0 1:0.0 2:0.0 
1.0 1:0.0 2:0.0 
1.0 1:0.0 2:0.0 
1.0 1:0.0 2:0.0 
1.0 1:0.0 2:0.0 
1.0 1:0.0 2:0.0 
1.0 1:0.0 2:0.0 
1.0 1:0.0 2:0.0 
1.0 1:0.0 2:0.0 
1.0 1:0.0 2:0.0 
1.0 1:0.0 2:0.0 
1.0 1:0.0 2:0.0 
1.0 1:0.0 2:0.0 
1.0 1:0.0 2:0.0 
1.0 1:0.0 2:0.0 
1.0 1:0.0 2:0.0 
1.0 1:0.0 2:0.0 
1.0 1:0.0 2:0.0 
1.0 1:0.0 2:0.0 
1.0 1:0.0 2:0.0 
1.0 1:0.0 2:0.0 
1.0 1:0.0 2:0.0 
1.0 1:0.0 2:0.0 
1.0 1:0.0 2:0.0 
1.0 1:0.0 2:0.0 
1.0 1:0.0 2:0.0 
1.0 1:0.0 2:0.0 
1.0 1:0.0 2:0.0 
1.0 1:0.0 2:0.0 
1.0 1:0.0 2:0.0 
1.0 1:0.0 2:0.0 
1.0 1:0.0 2:0.0 
1.0 1:0.0 2:0.0 
1.0 1:0.0 2:0.0 
1.0 1:0.0 2:0.0 
1.0 1:0.0 2:0.0 
1.0 1:0.0 2:0.0 
1.0 1:0.0 2:0.0 
1.0 1:0.0 2:0.0 
1.0 1:0.0 2:0.0 
1.0 1:0.0 2:0.0 
1.0 1:0.0 2:0.0 
1.0 1:0.0 2:0.0 
1.0 1:0.0 2:0.0 
1.0 1:0.0 2:0.0 
1.0 1:0.0 2:0.0 
1.0 1:0.0 2:0.0 
1.0 1:0.0 2:0.0 
1.0 1:0.0 2:0.0 
1.0 1:0.0 2:0.0 
1.0 1:0.0 2:0.0 
1.0 1:0.0 2:0.0 
1.0 1:0.0 2:0.0 
1.0 1:0.0 2:0.0 
1.0 1:0.0 2:0.0 
1.0 1:0.0 2:0.0 
1.0 1:0.0 2:0.0 
1.0 1:0.0 2:0.0 
1.0 1:0.0 2:0.0 
1.0 1:0.0 2:0.0 
1.0 1:0.0 2:0.0 
1.0 1:0.0 2:0.0 
1.0 1:0.0 2:0.0 
1.0 1:0.0 2:0.0 
1.0 1:0.0 2:0.0 
1.0 1:0.0 2:0.0 
1.0 1:0.0 2:0.0 
1.0 1:1.0 2:1.0 
1.0 1:0.0 2:0.0 
1.0 1:0.0 2:0.0 
1.0 1:0.0 2:0.0 
1.0 1:0.0 2:0.0 
1.0 1:0.0 2:0.0 
1.0 1:0.0 2:0.0 
1.0 1:0.0 2:0.0 
1.0 1:0.0 2:0.0 
1.0 1:0.0 2:0.0 
1.0 1:0.0 2:0.0 
1.0 1:0.0 2:0.0 
1.0 1:0.0 2:0.0 
1.0 1:0.0 2:0.0 
1.0 1:0.0 2:0.0 
1.0 1:0.0 2:0.0 
1.0 1:0.0 2:0.0 
1.0 1:0.0 2:0.0 
1.0 1:0.0 2:0.0 
1.0 1:0.0 2:0.0 
1.0 1:0.0 2:0.0 
1.0 1:0.0 2:0.0 
1.0 1:0.0 2:0.0 
1.0 1:0.0 2:0.0 
1.0 1:0.0 2:0.0 
1.0 1:0.0 2:0.0 
1.0 1:0.0 2:0.0 
1.0 1:0.0 2:0.0 
1.0 1:0.0 2:0.0 
1.0 1:0.0 2:0.0 
1.0 1:0.0 2:0.0 
1.0 1:0.0 2:0.0 
1.0 1:0.0 2:0.0 
1.0 1:0.0 2:0.0 
1.0 1:0.0 2:0.0 
1.0 1:0.0 2:0.0 
1.0 1:0.0 2:0.0 
1.0 1:0.0 2:0.0 
1.0 1:0.0 2:0.0 
1.0 1:0.0 2:0.0 
1.0 1:0.0 2:0.0 
1.0 1:0.0 2:0.0 
1.0 1:0.0 2:0.0 
1.0 1:0.0 2:0.0 
1.0 1:0.0 2:0.0 
1.0 1:0.0 2:0.0 
1.0 1:0.0 2:0.0 
1.0 1:0.0 2:0.0 
1.0 1:0.0 2:0.0 
1.0 1:0.0 2:0.0 
1.0 1:0.0 2:0.0 
1.0 1:0.0 2:0.0 
1.0 1:0.0 2:0.0 
1.0 1:0.0 2:0.0 
1.0 1:0.0 2:0.0 
1.0 1:0.0 2:0.0 
1.0 1:0.0 2:0.0 
1.0 1:0.0 2:0.0 
1.0 1:0.0 2:0.0 
1.0 1:0.0 2:0.0 
1.0 1:0.0 2:0.0 
1.0 1:0.0 2:0.0 
1.0 1:0.0 2:0.0 
1.0 1:0.0 2:0.0 
1.0 1:0.0 2:0.0 
1.0 1:0.0 2:0.0 
1.0 1:0.0 2:0.0 
1.0 1:0.0 2:0.0 
1.0 1:0.0 2:0.0 
1.0 1:0.0 2:0.0 
1.0 1:0.0 2:0.0 
1.0 1:0.0 2:0.0 
1.0 1:0.0 2:0.0 
1.0 1:0.0 2:0.0 
1.0 1:0.0 2:0.0 
1.0 1:0.0 2:0.0 
1.0 1:0.0 2:0.0 
1.0 1:0.0 2:0.0 
1.0 1:0.0 2:0.0 
1.0 1:0.0 2:0.0 
1.0 1:0.0 2:0.0 
1.0 1:0.0 2:0.0 
1.0 1:0.0 2:0.0 
1.0 1:0.0 2:0.0 
1.0 1:0.0 2:0.0 
1.0 1:0.0 2:0.0 
1.0 1:0.0 2:0.0 
1.0 1:0.0 2:0.0 
1.0 1:0.0 2:0.0 
1.0 1:0.0 2:0.0 
1.0 1:0.0 2:0.0 
1.0 1:0.0 2:0.0 
1.0 1:0.0 2:0.0 
1.0 1:0.0 2:0.0 
1.0 1:0.0 2:0.0 
1.0 1:0.0 2:0.0 
1.0 1:0.0 2:0.0 
1.0 1:0.0 2:0.0 
1.0 1:0.0 2:0.0 
1.0 1:0.0 2:0.0 
1.0 1:0.0 2:0.0 
1.0 1:0.0 2:0.0 
1.0 1:0.0 2:0.0 
1.0 1:0.0 2:0.0 
1.0 1:0.0 2:0.0 
1.0 1:0.0 2:0.0 
1.0 1:0.0 2:0.0 
1.0 1:0.0 2:0.0 
1.0 1:0.0 2:0.0 
1.0 1:0.0 2:0.0 
1.0 1:0.0 2:0.0 
1.0 1:0.0 2:0.0 
1.0 1:0.0 2:0.0 
1.0 1:0.0 2:0.0 
1.0 1:0.0 2:0.0 
1.0 1:0.0 2:0.0 
1.0 1:0.0 2:0.0 
1.0 1:0.0 2:0.0 
1.0 1:0.0 2:0.0 
1.0 1:0.0 2:0.0 
1.0 1:0.0 2:0.0 
1.0 1:0.0 2:0.0 
1.0 1:0.0 2:0.0 
1.0 1:0.0 2:0.0 
1.0 1:0.0 2:0.0 
1.0 1:0.0 2:0.0 
1.0 1:0.0 2:0.0 
1.0 1:0.0 2:0.0 
1.0 1:0.0 2:0.0 
1.0 1:0.0 2:0.0 
1.0 1:0.0 2:0.0 
1.0 1:0.0 2:0.0 
1.0 1:0.0 2:0.0 
1.0 1:0.0 2:0.0 
1.0 1:0.0 2:0.0 
1.0 1:0.0 2:0.0 
1.0 1:0.0 2:0.0 
1.0 1:0.0 2:0.0 
1.0 1:0.0 2:0.0 
1.0 1:0.0 2:0.0 
1.0 1:0.0 2:0.0 
1.0 1:0.0 2:0.0 
1.0 1:0.0 2:0.0 
1.0 1:0.0 2:0.0 
1.0 1:0.0 2:0.0 
1.0 1:0.0 2:0.0 
1.0 1:0.0 2:0.0 
1.0 1:0.0 2:0.0 
1.0 1:0.0 2:0.0 
1.0 1:0.0 2:0.0 
1.0 1:0.0 2:0.0 
1.0 1:0.0 2:0.0 
1.0 1:0.0 2:0.0 
1.0 1:0.0 2:0.0 
1.0 1:0.0 2:0.0 
1.0 1:0.0 2:0.0 
1.0 1:0.0 2:0.0 
1.0 1:0.0 2:0.0 
1.0 1:0.0 2:0.0 
1.0 1:0.0 2:0.0 
1.0 1:0.0 2:0.0 
1.0 1:0.0 2:0.0 
1.0 1:0.0 2:0.0 
1.0 1:0.0 2:0.0 
1.0 1:0.0 2:0.0 
1.0 1:0.0 2:0.0 
1.0 1:0.0 2:0.0 
1.0 1:0.0 2:0.0 
1.0 1:0.0 2:0.0 
1.0 1:0.0 2:0.0 
1.0 1:0.0 2:0.0 
1.0 1:0.0 2:0.0 
1.0 1:0.0 2:0.0 
1.0 1:0.0 2:0.0 
1.0 1:0.0 2:0.0 
1.0 1:0.0 2:0.0 
1.0 1:0.0 2:0.0 
1.0 1:0.0 2:0.0 
1.0 1:0.0 2:0.0 
1.0 1:0.0 2:0.0 
1.0 1:0.0 2:0.0 
1.0 1:0.0 2:0.0 
1.0 1:0.0 2:0.0 
1.0 1:0.0 2:0.0 
1.0 1:0.0 2:0.0 
1.0 1:0.0 2:0.0 
1.0 1:0.0 2:0.0 
1.0 1:0.0 2:0.0 
1.0 1:0.0 2:0.0 
1.0 1:0.0 2:0.0 
1.0 1:0.0 2:0.0 
1.0 1:0.0 2:0.0 
1.0 1:0.0 2:0.0 
1.0 1:0.0 2:0.0 
1.0 1:0.0 2:0.0 
1.0 1:0.0 2:0.0 
1.0 1:0.0 2:0.0 
1.0 1:0.0 2:0.0 
1.0 1:0.0 2:0.0 
1.0 1:0.0 2:0.0 
1.0 1:0.0 2:0.0 
1.0 1:0.0 2:0.0 
1.0 1:0.0 2:0.0 
1.0 1:0.0 2:0.0 
1.0 1:0.0 2:0.0 
1.0 1:0.0 2:0.0 
1.0 1:0.0 2:0.0 
1.0 1:0.0 2:0.0 
1.0 1:0.0 2:0.0 
1.0 1:0.0 2:0.0 
1.0 1:0.0 2:0.0 
1.0 1:0.0 2:0.0 
1.0 1:0.0 2:0.0 
1.0 1:0.0 2:0.0 
1.0 1:0.0 2:0.0 
1.0 1:0.0 2:0.0 
1.0 1:0.0 2:0.0 
1.0 1:0.0 2:0.0 
1.0 1:0.0 2:0.0 
1.0 1:0.0 2:0.0 
1.0 1:0.0 2:0.0 
1.0 1:0.0 2:0.0 
1.0 1:0.0 2:0.0 
1.0 1:0.0 2:0.0 
1.0 1:0.0 2:0.0 
1.0 1:0.0 2:0.0 
1.0 1:0.0 2:0.0 
1.0 1:0.0 2:0.0 
1.0 1:0.0 2:0.0 
1.0 1:0.0 2:0.0 
1.0 1:0.0 2:0.0 
1.0 1:0.0 2:0.0 
1.0 1:0.0 2:0.0 
1.0 1:0.0 2:0.0 
1.0 1:0.0 2:0.0 
1.0 1:0.0 2:0.0 
1.0 1:0.0 2:0.0 
1.0 1:0.0 2:0.0 
1.0 1:0.0 2:0.0 
1.0 1:0.0 2:0.0 
1.0 1:0.0 2:0.0 
1.0 1:0.0 2:0.0 
1.0 1:0.0 2:0.0 
1.0 1:0.0 2:0.0 
1.0 1:0.0 2:0.0 
1.0 1:0.0 2:0.0 
1.0 1:0.0 2:0.0 
1.0 1:0.0 2:0.0 
1.0 1:0.0 2:0.0 
1.0 1:0.0 2:0.0 
1.0 1:0.0 2:0.0 
1.0 1:0.0 2:0.0 
1.0 1:0.0 2:0.0 
1.0 1:0.0 2:0.0 
1.0 1:0.0 2:0.0 
1.0 1:0.0 2:0.0 
1.0 1:0.0 2:0.0 
1.0 1:0.0 2:0.0 
1.0 1:0.0 2:0.0 
1.0 1:0.0 2:0.0 
1.0 1:0.0 2:0.0 
1.0 1:0.0 2:0.0 
1.0 1:0.0 2:0.0 
1.0 1:0.0 2:0.0 
1.0 1:0.0 2:0.0 
1.0 1:0.0 2:0.0 
1.0 1:0.0 2:0.0 
1.0 1:0.0 2:0.0 
1.0 1:0.0 2:0.0 
1.0 1:0.0 2:0.0 
1.0 1:0.0 2:0.0 
1.0 1:0.0 2:0.0 
1.0 1:0.0 2:0.0 
1.0 1:0.0 2:0.0 
1.0 1:0.0 2:0.0 
1.0 1:0.0 2:0.0 
1.0 1:0.0 2:0.0 
1.0 1:0.0 2:0.0 
1.0 1:0.0 2:0.0 
1.0 1:0.0 2:0.0 
1.0 1:0.0 2:0.0 
1.0 1:0.0 2:0.0 
1.0 1:0.0 2:0.0 
1.0 1:0.0 2:0.0 
1.0 1:0.0 2:0.0 
1.0 1:0.0 2:0.0 
1.0 1:0.0 2:0.0 
1.0 1:0.0 2:0.0 
1.0 1:0.0 2:0.0 
1.0 1:0.0 2:0.0 
1.0 1:0.0 2:0.0 
1.0 1:0.0 2:0.0 
1.0 1:0.0 2:0.0 
1.0 1:0.0 2:0.0 
1.0 1:0.0 2:0.0 
1.0 1:0.0 2:0.0 
1.0 1:0.0 2:0.0 
1.0 1:0.0 2:0.0 
1.0 1:0.0 2:0.0 
1.0 1:0.0 2:0.0 
1.0 1:0.0 2:0.0 
1.0 1:0.0 2:0.0 
1.0 1:0.0 2:0.0 
1.0 1:0.0 2:0.0 
1.0 1:0.0 2:0.0 
1.0 1:0.0 2:0.0 
1.0 1:0.0 2:0.0 
1.0 1:0.0 2:0.0 
1.0 1:0.0 2:0.0 
1.0 1:0.0 2:0.0 
1.0 1:0.0 2:0.0 
1.0 1:0.0 2:0.0 
1.0 1:0.0 2:0.0 
1.0 1:0.0 2:0.0 
1.0 1:0.0 2:0.0 
1.0 1:0.0 2:0.0 
1.0 1:0.0 2:0.0 
1.0 1:0.0 2:0.0 
1.0 1:0.0 2:0.0 
1.0 1:0.0 2:0.0 
1.0 1:0.0 2:0.0 
1.0 1:0.0 2:0.0 
1.0 1:0.0 2:0.0 
1.0 1:0.0 2:0.0 
1.0 1:0.0 2:0.0 
1.0 1:0.0 2:0.0 
1.0 1:0.0 2:0.0 
1.0 1:0.0 2:0.0 
1.0 1:0.0 2:0.0 
1.0 1:0.0 2:0.0 
1.0 1:0.0 2:0.0 
1.0 1:0.0 2:0.0 
1.0 1:0.0 2:0.0 
1.0 1:0.0 2:0.0 
1.0 1:0.0 2:0.0 
1.0 1:0.0 2:0.0 
1.0 1:0.0 2:0.0 
1.0 1:0.0 2:0.0 
1.0 1:0.0 2:0.0 
1.0 1:0.0 2:0.0 
1.0 1:0.0 2:0.0 
1.0 1:0.0 2:0.0 
1.0 1:0.0 2:0.0 
1.0 1:0.0 2:0.0 
1.0 1:0.0 2:0.0 
1.0 1:0.0 2:0.0 
1.0 1:0.0 2:0.0 
1.0 1:0.0 2:0.0 
1.0 1:0.0 2:0.0 
1.0 1:0.0 2:0.0 
1.0 1:0.0 2:0.0 
1.0 1:0.0 2:0.0 
1.0 1:0.0 2:0.0 
1.0 1:0.0 2:0.0 
1.0 1:0.0 2:0.0 
1.0 1:0.0 2:0.0 
1.0 1:0.0 2:0.0 
1.0 1:0.0 2:0.0 
1.0 1:0.0 2:0.0 
1.0 1:0.0 2:0.0 
1.0 1:0.0 2:0.0 
1.0 1:0.0 2:0.0 
1.0 1:0.0 2:0.0 
1.0 1:0.0 2:0.0 
1.0 1:0.0 2:0.0 
1.0 1:0.0 2:0.0 
1.0 1:0.0 2:0.0 
1.0 1:0.0 2:0.0 
1.0 1:0.0 2:0.0 
1.0 1:0.0 2:0.0 
1.0 1:0.0 2:0.0 
1.0 1:0.0 2:0.0 
1.0 1:0.0 2:0.0 
1.0 1:0.0 2:0.0 
1.0 1:0.0 2:0.0 
1.0 1:0.0 2:0.0 
1.0 1:0.0 2:0.0 
1.0 1:0.0 2:0.0 
1.0 1:0.0 2:0.0 
1.0 1:0.0 2:0.0 
1.0 1:0.0 2:0.0 
1.0 1:0.0 2:0.0 
1.0 1:0.0 2:0.0 
1.0 1:0.0 2:0.0 
1.0 1:0.0 2:0.0 
1.0 1:0.0 2:0.0 
1.0 1:0.0 2:0.0 
1.0 1:0.0 2:0.0 
1.0 1:0.0 2:0.0 
1.0 1:0.0 2:0.0 
1.0 1:0.0 2:0.0 
1.0 1:0.0 2:0.0 
1.0 1:0.0 2:0.0 
1.0 1:0.0 2:0.0 
1.0 1:0.0 2:0.0 
1.0 1:0.0 2:0.0 
1.0 1:0.0 2:0.0 
1.0 1:0.0 2:0.0 
1.0 1:0.0 2:0.0 
1.0 1:0.0 2:0.0 
1.0 1:0.0 2:0.0 
1.0 1:0.0 2:0.0 
1.0 1:0.0 2:0.0 
1.0 1:0.0 2:0.0 
1.0 1:0.0 2:0.0 
1.0 1:0.0 2:0.0 
1.0 1:0.0 2:0.0 
1.0 1:0.0 2:0.0 
1.0 1:0.0 2:0.0 
1.0 1:0.0 2:0.0 
1.0 1:0.0 2:0.0 
1.0 1:0.0 2:0.0 
1.0 1:0.0 2:0.0 
1.0 1:0.0 2:0.0 
1.0 1:0.0 2:0.0 
1.0 1:0.0 2:0.0 
1.0 1:0.0 2:0.0 
1.0 1:0.0 2:0.0 
1.0 1:0.0 2:0.0 
1.0 1:0.0 2:0.0 
1.0 1:0.0 2:0.0 
1.0 1:0.0 2:0.0 
1.0 1:0.0 2:0.0 
1.0 1:0.0 2:0.0 
1.0 1:0.0 2:0.0 
1.0 1:0.0 2:0.0 
1.0 1:0.0 2:0.0 
1.0 1:0.0 2:0.0 
1.0 1:0.0 2:0.0 
1.0 1:0.0 2:0.0 
1.0 1:0.0 2:0.0 
1.0 1:0.0 2:0.0 
1.0 1:0.0 2:0.0 
1.0 1:0.0 2:0.0 
1.0 1:0.0 2:0.0 
1.0 1:0.0 2:0.0 
1.0 1:0.0 2:0.0 
1.0 1:0.0 2:0.0 
1.0 1:0.0 2:0.0 
1.0 1:0.0 2:0.0 
1.0 1:0.0 2:0.0 
1.0 1:0.0 2:0.0 
1.0 1:0.0 2:0.0 
1.0 1:0.0 2:0.0 
1.0 1:0.0 2:0.0 
1.0 1:0.0 2:0.0 
1.0 1:0.0 2:0.0 
1.0 1:0.0 2:0.0 
1.0 1:0.0 2:0.0 
1.0 1:0.0 2:0.0 
1.0 1:0.0 2:0.0 
1.0 1:0.0 2:0.0 
1.0 1:0.0 2:0.0 
1.0 1:0.0 2:0.0 
1.0 1:0.0 2:0.0 
1.0 1:0.0 2:0.0 
1.0 1:0.0 2:0.0 
1.0 1:0.0 2:0.0 
1.0 1:0.0 2:0.0 
1.0 1:0.0 2:0.0 
1.0 1:0.0 2:0.0 
1.0 1:0.0 2:0.0 
1.0 1:0.0 2:0.0 
1.0 1:0.0 2:0.0 
1.0 1:0.0 2:0.0 
1.0 1:0.0 2:0.0 
1.0 1:0.0 2:0.0 
1.0 1:0.0 2:0.0 
1.0 1:0.0 2:0.0 
1.0 1:0.0 2:0.0 
1.0 1:0.0 2:0.0 
1.0 1:0.0 2:0.0 
1.0 1:0.0 2:0.0 
1.0 1:0.0 2:0.0 
1.0 1:0.0 2:0.0 
1.0 1:0.0 2:0.0 
1.0 1:0.0 2:0.0 
1.0 1:0.0 2:0.0 
1.0 1:0.0 2:0.0 
1.0 1:0.0 2:0.0 
1.0 1:0.0 2:0.0 
1.0 1:0.0 2:0.0 
1.0 1:0.0 2:0.0 
1.0 1:0.0 2:0.0 
1.0 1:0.0 2:0.0 
1.0 1:0.0 2:0.0 
1.0 1:0.0 2:0.0 
1.0 1:0.0 2:0.0 
1.0 1:0.0 2:0.0 
1.0 1:0.0 2:0.0 
1.0 1:0.0 2:0.0 
1.0 1:0.0 2:0.0 
1.0 1:0.0 2:0.0 
1.0 1:0.0 2:0.0 
1.0 1:0.0 2:0.0 
1.0 1:0.0 2:0.0 
1.0 1:0.0 2:0.0 
1.0 1:0.0 2:0.0 
1.0 1:0.0 2:0.0 
1.0 1:0.0 2:0.0 
1.0 1:0.0 2:0.0 
1.0 1:0.0 2:0.0 
1.0 1:0.0 2:0.0 
1.0 1:0.0 2:0.0 
1.0 1:0.0 2:0.0 
1.0 1:0.0 2:0.0 
1.0 1:0.0 2:0.0 
1.0 1:0.0 2:0.0 
1.0 1:0.0 2:0.0 
1.0 1:0.0 2:0.0 
1.0 1:0.0 2:0.0 
1.0 1:0.0 2:0.0 
1.0 1:0.0 2:0.0 
1.0 1:0.0 2:0.0 
1.0 1:0.0 2:0.0 
1.0 1:0.0 2:0.0 
1.0 1:0.0 2:0.0 
1.0 1:0.0 2:0.0 
1.0 1:0.0 2:0.0 
1.0 1:0.0 2:0.0 
1.0 1:0.0 2:0.0 
1.0 1:0.0 2:0.0 
1.0 1:0.0 2:0.0 
1.0 1:0.0 2:0.0 
1.0 1:0.0 2:0.0 
1.0 1:0.0 2:0.0 
1.0 1:0.0 2:0.0 
1.0 1:0.0 2:0.0 
1.0 1:0.0 2:0.0 
1.0 1:0.0 2:0.0 
1.0 1:0.0 2:0.0 
1.0 1:0.0 2:0.0 
1.0 1:0.0 2:0.0 
1.0 1:0.0 2:0.0 
1.0 1:0.0 2:0.0 
1.0 1:0.0 2:0.0 
1.0 1:0.0 2:0.0 
1.0 1:0.0 2:0.0 
1.0 1:0.0 2:0.0 
1.0 1:0.0 2:0.0 
1.0 1:0.0 2:0.0 
1.0 1:0.0 2:0.0 
1.0 1:0.0 2:0.0 
1.0 1:0.0 2:0.0 
1.0 1:0.0 2:0.0 
1.0 1:0.0 2:0.0 
1.0 1:0.0 2:0.0 
1.0 1:0.0 2:0.0 
1.0 1:0.0 2:0.0 
1.0 1:0.0 2:0.0 
1.0 1:0.0 2:0.0 
1.0 1:0.0 2:0.0 
1.0 1:0.0 2:0.0 
1.0 1:0.0 2:0.0 
1.0 1:0.0 2:0.0 
1.0 1:0.0 2:0.0 
1.0 1:0.0 2:0.0 
1.0 1:0.0 2:0.0 
1.0 1:0.0 2:0.0 
1.0 1:0.0 2:0.0 
1.0 1:0.0 2:0.0 
1.0 1:0.0 2:0.0 
1.0 1:0.0 2:0.0 
1.0 1:0.0 2:0.0 
1.0 1:0.0 2:0.0 
1.0 1:0.0 2:0.0 
1.0 1:0.0 2:0.0 
1.0 1:0.0 2:0.0 
1.0 1:0.0 2:0.0 
1.0 1:0.0 2:0.0 
1.0 1:0.0 2:0.0 
1.0 1:0.0 2:0.0 
1.0 1:0.0 2:0.0 
1.0 1:0.0 2:0.0 
1.0 1:0.0 2:0.0 
1.0 1:0.0 2:0.0 
1.0 1:0.0 2:0.0 
1.0 1:0.0 2:0.0 
1.0 1:0.0 2:0.0 
1.0 1:0.0 2:0.0 
1.0 1:0.0 2:0.0 
1.0 1:0.0 2:0.0 
1.0 1:0.0 2:0.0 
1.0 1:0.0 2:0.0 
1.0 1:0.0 2:0.0 
1.0 1:0.0 2:0.0 
1.0 1:0.0 2:0.0 
1.0 1:0.0 2:0.0 
1.0 1:0.0 2:0.0 
1.0 1:0.0 2:0.0 
1.0 1:0.0 2:0.0 
1.0 1:0.0 2:0.0 
1.0 1:0.0 2:0.0 
1.0 1:0.0 2:0.0 
1.0 1:0.0 2:0.0 
1.0 1:0.0 2:0.0 
1.0 1:0.0 2:0.0 
1.0 1:0.0 2:0.0 
1.0 1:0.0 2:0.0 
1.0 1:0.0 2:0.0 
1.0 1:0.0 2:0.0 
1.0 1:0.0 2:0.0 
1.0 1:0.0 2:0.0 
1.0 1:0.0 2:0.0 
1.0 1:0.0 2:0.0 
1.0 1:0.0 2:0.0 
1.0 1:0.0 2:0.0 
1.0 1:0.0 2:0.0 
1.0 1:0.0 2:0.0 
1.0 1:0.0 2:0.0 
1.0 1:0.0 2:0.0 
1.0 1:0.0 2:0.0 
1.0 1:0.0 2:0.0 
1.0 1:0.0 2:0.0 
1.0 1:0.0 2:0.0 
1.0 1:0.0 2:0.0 
1.0 1:0.0 2:0.0 
1.0 1:0.0 2:0.0 
1.0 1:0.0 2:0.0 
1.0 1:0.0 2:0.0 
1.0 1:0.0 2:0.0 
1.0 1:0.0 2:0.0 
1.0 1:0.0 2:0.0 
1.0 1:0.0 2:0.0 
1.0 1:0.0 2:0.0 
1.0 1:0.0 2:0.0 
1.0 1:0.0 2:0.0 
1.0 1:0.0 2:0.0 
1.0 1:0.0 2:0.0 
1.0 1:0.0 2:0.0 
1.0 1:0.0 2:0.0 
1.0 1:0.0 2:0.0 
1.0 1:0.0 2:0.0 
1.0 1:0.0 2:0.0 
1.0 1:0.0 2:0.0 
1.0 1:0.0 2:0.0 
1.0 1:0.0 2:0.0 
1.0 1:0.0 2:0.0 
1.0 1:0.0 2:0.0 
1.0 1:0.0 2:0.0 
1.0 1:0.0 2:0.0 
1.0 1:0.0 2:0.0 
1.0 1:0.0 2:0.0 
1.0 1:0.0 2:0.0 
1.0 1:0.0 2:0.0 
1.0 1:0.0 2:0.0 
1.0 1:0.0 2:0.0 
1.0 1:0.0 2:0.0 
1.0 1:0.0 2:0.0 
1.0 1:0.0 2:0.0 
1.0 1:0.0 2:0.0 
1.0 1:0.0 2:0.0 
1.0 1:0.0 2:0.0 
1.0 1:0.0 2:0.0 
1.0 1:0.0 2:0.0 
1.0 1:0.0 2:0.0 
1.0 1:0.0 2:0.0 
1.0 1:0.0 2:0.0 
1.0 1:0.0 2:0.0 
1.0 1:0.0 2:0.0 
1.0 1:0.0 2:0.0 
1.0 1:0.0 2:0.0 
1.0 1:0.0 2:0.0 
1.0 1:0.0 2:0.0 
1.0 1:0.0 2:0.0 
1.0 1:0.0 2:0.0 
1.0 1:0.0 2:0.0 
1.0 1:0.0 2:0.0 
1.0 1:0.0 2:0.0 
1.0 1:0.0 2:0.0 
1.0 1:0.0 2:0.0 
1.0 1:0.0 2:0.0 
1.0 1:0.0 2:0.0 
1.0 1:0.0 2:0.0 
1.0 1:0.0 2:0.0 
1.0 1:0.0 2:0.0 
1.0 1:0.0 2:0.0 
1.0 1:0.0 2:0.0 
1.0 1:0.0 2:0.0 
1.0 1:0.0 2:0.0 
1.0 1:0.0 2:0.0 
1.0 1:0.0 2:0.0 
1.0 1:0.0 2:0.0 
1.0 1:0.0 2:0.0 
1.0 1:0.0 2:0.0 
1.0 1:0.0 2:0.0 
1.0 1:0.0 2:0.0 
1.0 1:0.0 2:0.0 
1.0 1:0.0 2:0.0 
1.0 1:0.0 2:0.0 
1.0 1:0.0 2:0.0 
1.0 1:0.0 2:0.0 
1.0 1:0.0 2:0.0 
1.0 1:0.0 2:0.0 
1.0 1:0.0 2:0.0 
1.0 1:0.0 2:0.0 
1.0 1:0.0 2:0.0 
1.0 1:0.0 2:0.0 
1.0 1:0.0 2:0.0 
1.0 1:0.0 2:0.0 
1.0 1:0.0 2:0.0 
1.0 1:0.0 2:0.0 
1.0 1:0.0 2:0.0 
1.0 1:0.0 2:0.0 
1.0 1:0.0 2:0.0 
1.0 1:0.0 2:0.0 
1.0 1:0.0 2:0.0 
1.0 1:0.0 2:0.0 
1.0 1:0.0 2:0.0 
1.0 1:0.0 2:0.0 
1.0 1:0.0 2:0.0 
1.0 1:0.0 2:0.0 
1.0 1:0.0 2:0.0 
1.0 1:0.0 2:0.0 
1.0 1:0.0 2:0.0 
1.0 1:0.0 2:0.0 
1.0 1:0.0 2:0.0 
1.0 1:0.0 2:0.0 
1.0 1:0.0 2:0.0 
1.0 1:0.0 2:0.0 
1.0 1:0.0 2:0.0 
1.0 1:0.0 2:0.0 
1.0 1:0.0 2:0.0 
1.0 1:0.0 2:0.0 
1.0 1:0.0 2:0.0 
1.0 1:0.0 2:0.0 
1.0 1:0.0 2:0.0 
1.0 1:0.0 2:0.0 
1.0 1:0.0 2:0.0 
1.0 1:0.0 2:0.0 
1.0 1:0.0 2:0.0 
1.0 1:0.0 2:0.0 
1.0 1:0.0 2:0.0 
1.0 1:0.0 2:0.0 
1.0 1:0.0 2:0.0 
1.0 1:0.0 2:0.0 
1.0 1:0.0 2:0.0 
1.0 1:0.0 2:0.0 
1.0 1:0.0 2:0.0 
1.0 1:0.0 2:0.0 
1.0 1:0.0 2:0.0 
1.0 1:0.0 2:0.0 
1.0 1:0.0 2:0.0 
1.0 1:0.0 2:0.0 
1.0 1:0.0 2:0.0 
1.0 1:0.0 2:0.0 
1.0 1:0.0 2:0.0 
1.0 1:0.0 2:0.0 
1.0 1:0.0 2:0.0 
1.0 1:0.0 2:0.0 
1.0 1:0.0 2:0.0 
1.0 1:0.0 2:0.0 
1.0 1:0.0 2:0.0 
1.0 1:0.0 2:0.0 
1.0 1:0.0 2:0.0 
1.0 1:0.0 2:0.0 
1.0 1:0.0 2:0.0 
1.0 1:0.0 2:0.0 
1.0 1:0.0 2:0.0 
1.0 1:0.0 2:0.0 
1.0 1:0.0 2:0.0 
1.0 1:0.0 2:0.0 
1.0 1:0.0 2:0.0 
1.0 1:0.0 2:0.0 
1.0 1:0.0 2:0.0 
1.0 1:0.0 2:0.0 
1.0 1:0.0 2:0.0 
1.0 1:0.0 2:0.0 
1.0 1:0.0 2:0.0 
1.0 1:0.0 2:0.0 
1.0 1:0.0 2:0.0 
1.0 1:0.0 2:0.0 
1.0 1:0.0 2:0.0 
1.0 1:0.0 2:0.0 
1.0 1:0.0 2:0.0 
1.0 1:0.0 2:0.0 
1.0 1:0.0 2:0.0 
1.0 1:0.0 2:0.0 
1.0 1:0.0 2:0.0 
1.0 1:0.0 2:0.0 
1.0 1:0.0 2:0.0 
1.0 1:0.0 2:0.0 
1.0 1:0.0 2:0.0 
1.0 1:0.0 2:0.0 
1.0 1:0.0 2:0.0 
1.0 1:0.0 2:0.0 
1.0 1:0.0 2:0.0 
1.0 1:0.0 2:0.0 
1.0 1:0.0 2:0.0 
1.0 1:0.0 2:0.0 
1.0 1:0.0 2:0.0 
1.0 1:0.0 2:0.0 
1.0 1:0.0 2:0.0 
1.0 1:0.0 2:0.0 
1.0 1:0.0 2:0.0 
1.0 1:0.0 2:0.0 
1.0 1:0.0 2:0.0 
1.0 1:0.0 2:0.0 
1.0 1:0.0 2:0.0 
1.0 1:0.0 2:0.0 
1.0 1:0.0 2:0.0 
1.0 1:0.0 2:0.0 
1.0 1:0.0 2:0.0 
1.0 1:0.0 2:0.0 
1.0 1:0.0 2:0.0 
1.0 1:0.0 2:0.0 
1.0 1:0.0 2:0.0 
1.0 1:0.0 2:0.0 
1.0 1:0.0 2:0.0 
1.0 1:0.0 2:0.0 
1.0 1:0.0 2:0.0 
1.0 1:0.0 2:0.0 
1.0 1:0.0 2:0.0 
1.0 1:0.0 2:0.0 
1.0 1:0.0 2:0.0 
1.0 1:0.0 2:0.0 
1.0 1:0.0 2:0.0 
1.0 1:0.0 2:0.0 
1.0 1:0.0 2:0.0 
1.0 1:0.0 2:0.0 
1.0 1:0.0 2:0.0 
1.0 1:0.0 2:0.0 
1.0 1:0.0 2:0.0 
1.0 1:0.0 2:0.0 
1.0 1:0.0 2:0.0 
1.0 1:0.0 2:0.0 
1.0 1:0.0 2:0.0 
1.0 1:0.0 2:0.0 
1.0 1:0.0 2:0.0 
1.0 1:0.0 2:0.0 
1.0 1:0.0 2:0.0 
1.0 1:0.0 2:0.0 
1.0 1:0.0 2:0.0 
1.0 1:0.0 2:0.0 
1.0 1:0.0 2:0.0 
1.0 1:0.0 2:0.0 
1.0 1:0.0 2:0.0 
1.0 1:0.0 2:0.0 
1.0 1:0.0 2:0.0 
1.0 1:0.0 2:0.0 
1.0 1:0.0 2:0.0 
1.0 1:0.0 2:0.0 
1.0 1:0.0 2:0.0 
1.0 1:0.0 2:0.0 
1.0 1:0.0 2:0.0 
1.0 1:0.0 2:0.0 
1.0 1:0.0 2:0.0 
1.0 1:0.0 2:0.0 
1.0 1:0.0 2:0.0 
1.0 1:0.0 2:0.0 
1.0 1:0.0 2:0.0 
1.0 1:0.0 2:0.0 
1.0 1:0.0 2:0.0 
1.0 1:0.0 2:0.0 
1.0 1:0.0 2:0.0 
1.0 1:0.0 2:0.0 
1.0 1:0.0 2:0.0 
1.0 1:0.0 2:0.0 
1.0 1:0.0 2:0.0 
1.0 1:0.0 2:0.0 
1.0 1:0.0 2:0.0 
1.0 1:0.0 2:0.0 
1.0 1:0.0 2:0.0 
1.0 1:0.0 2:0.0 
1.0 1:0.0 2:0.0 
1.0 1:0.0 2:0.0 
1.0 1:0.0 2:0.0 
1.0 1:0.0 2:0.0 
1.0 1:0.0 2:0.0 
1.0 1:0.0 2:0.0 
1.0 1:0.0 2:0.0 
1.0 1:0.0 2:0.0 
1.0 1:0.0 2:0.0 
1.0 1:0.0 2:0.0 
1.0 1:0.0 2:0.0 
1.0 1:0.0 2:0.0 
1.0 1:0.0 2:0.0 
1.0 1:0.0 2:0.0 
1.0 1:0.0 2:0.0 
1.0 1:0.0 2:0.0 
1.0 1:0.0 2:0.0 
1.0 1:0.0 2:0.0 
1.0 1:0.0 2:0.0 
1.0 1:0.0 2:0.0 
1.0 1:0.0 2:0.0 
1.0 1:0.0 2:0.0 
1.0 1:0.0 2:0.0 
1.0 1:0.0 2:0.0 
1.0 1:0.0 2:0.0 
1.0 1:0.0 2:0.0 
1.0 1:0.0 2:0.0 
1.0 1:0.0 2:0.0 
1.0 1:0.0 2:0.0 
1.0 1:0.0 2:0.0 
1.0 1:0.0 2:0.0 
1.0 1:0.0 2:0.0 
1.0 1:0.0 2:0.0 
1.0 1:0.0 2:0.0 
1.0 1:0.0 2:0.0 
1.0 1:0.0 2:0.0 
1.0 1:0.0 2:0.0 
1.0 1:0.0 2:0.0 
1.0 1:0.0 2:0.0 
1.0 1:0.0 2:0.0 
1.0 1:0.0 2:0.0 
1.0 1:0.0 2:0.0 
1.0 1:0.0 2:0.0 
1.0 1:0.0 2:0.0 
1.0 1:0.0 2:0.0 
1.0 1:0.0 2:0.0 
1.0 1:0.0 2:0.0 
1.0 1:0.0 2:0.0 
1.0 1:0.0 2:0.0 
1.0 1:0.047565149415449405 2:1.0 
1.0 1:0.0 2:0.0 
1.0 1:0.0 2:0.0 
1.0 1:0.0 2:0.0 
1.0 1:0.0 2:0.0 
1.0 1:0.0 2:0.0 
1.0 1:0.0 2:0.0 
1.0 1:0.0 2:0.0 
1.0 1:0.0 2:0.0 
1.0 1:0.0 2:0.0 
1.0 1:0.0 2:0.0 
1.0 1:0.0 2:0.0 
1.0 1:0.0 2:0.0 
1.0 1:0.0 2:0.0 
1.0 1:0.0 2:0.0 
1.0 1:0.0 2:0.0 
1.0 1:0.0 2:0.0 
1.0 1:0.0 2:0.0 
1.0 1:0.0 2:0.0 
1.0 1:0.0 2:0.0 
1.0 1:0.0 2:0.0 
1.0 1:0.0 2:0.0 
1.0 1:0.0 2:0.0 
1.0 1:0.0 2:0.0 
1.0 1:0.0 2:0.0 
1.0 1:0.0 2:0.0 
1.0 1:0.0 2:0.0 
1.0 1:0.0 2:0.0 
1.0 1:0.0 2:0.0 
1.0 1:0.0 2:0.0 
1.0 1:0.0 2:0.0 
1.0 1:0.0 2:0.0 
1.0 1:0.0 2:0.0 
1.0 1:0.0 2:0.0 
1.0 1:0.0 2:0.0 
1.0 1:0.0 2:0.0 
1.0 1:0.0 2:0.0 
1.0 1:0.0 2:0.0 
1.0 1:0.0 2:0.0 
1.0 1:0.0 2:0.0 
1.0 1:0.0 2:0.0 
1.0 1:0.0 2:0.0 
1.0 1:0.0 2:0.0 
1.0 1:0.0 2:0.0 
1.0 1:0.0 2:0.0 
1.0 1:0.0 2:0.0 
1.0 1:0.0 2:0.0 
1.0 1:0.0 2:0.0 
1.0 1:0.0 2:0.0 
1.0 1:0.0 2:0.0 
1.0 1:0.0 2:0.0 
1.0 1:0.0 2:0.0 
1.0 1:0.0 2:0.0 
1.0 1:0.0 2:0.0 
1.0 1:0.0 2:0.0 
1.0 1:0.0 2:0.0 
1.0 1:0.0 2:0.0 
1.0 1:0.0 2:0.0 
1.0 1:0.0 2:0.0 
1.0 1:0.0 2:0.0 
1.0 1:0.0 2:0.0 
1.0 1:0.0 2:0.0 
1.0 1:0.0 2:0.0 
1.0 1:0.0 2:0.0 
1.0 1:0.0 2:0.0 
1.0 1:0.0 2:0.0 
1.0 1:0.0 2:0.0 
1.0 1:0.0 2:0.0 
1.0 1:0.0 2:0.0 
1.0 1:0.0 2:0.0 
1.0 1:0.0 2:0.0 
1.0 1:0.0 2:0.0 
1.0 1:0.0 2:0.0 
1.0 1:0.0 2:0.0 
1.0 1:0.0 2:0.0 
1.0 1:0.0 2:0.0 
1.0 1:0.0 2:0.0 
1.0 1:0.0 2:0.0 
1.0 1:0.0 2:0.0 
1.0 1:0.0 2:0.0 
1.0 1:0.0 2:0.0 
1.0 1:0.0 2:0.0 
1.0 1:0.0 2:0.0 
1.0 1:0.0 2:0.0 
1.0 1:0.0 2:0.0 
1.0 1:0.0 2:0.0 
1.0 1:0.0 2:0.0 
1.0 1:0.0 2:0.0 
1.0 1:0.0 2:0.0 
1.0 1:0.0 2:0.0 
1.0 1:0.0 2:0.0 
1.0 1:0.0 2:0.0 
1.0 1:0.0 2:0.0 
1.0 1:0.0 2:0.0 
1.0 1:0.0 2:0.0 
1.0 1:0.0 2:0.0 
1.0 1:0.0 2:0.0 
1.0 1:0.0 2:0.0 
1.0 1:0.0 2:0.0 
1.0 1:0.0 2:0.0 
1.0 1:0.0 2:0.0 
1.0 1:0.0 2:0.0 
1.0 1:0.0 2:0.0 
1.0 1:0.0 2:0.0 
1.0 1:0.0 2:0.0 
1.0 1:0.0 2:0.0 
1.0 1:0.0 2:0.0 
1.0 1:0.0 2:0.0 
1.0 1:0.0 2:0.0 
1.0 1:0.0 2:0.0 
1.0 1:0.0 2:0.0 
1.0 1:0.0 2:0.0 
1.0 1:0.0 2:0.0 
1.0 1:0.0 2:0.0 
1.0 1:0.0 2:0.0 
1.0 1:0.0 2:0.0 
1.0 1:0.0 2:0.0 
1.0 1:0.0 2:0.0 
1.0 1:0.0 2:0.0 
1.0 1:0.0 2:0.0 
1.0 1:0.0 2:0.0 
1.0 1:0.0 2:0.0 
1.0 1:0.0 2:0.0 
1.0 1:0.0 2:0.0 
1.0 1:0.0 2:0.0 
1.0 1:0.0 2:0.0 
1.0 1:0.0 2:0.0 
1.0 1:0.0 2:0.0 
1.0 1:0.0 2:0.0 
1.0 1:0.0 2:0.0 
1.0 1:0.0 2:0.0 
1.0 1:0.0 2:0.0 
1.0 1:0.0 2:0.0 
1.0 1:0.0 2:0.0 
1.0 1:0.0 2:0.0 
1.0 1:0.0 2:0.0 
1.0 1:0.0 2:0.0 
1.0 1:0.0 2:0.0 
1.0 1:0.0 2:0.0 
1.0 1:0.0 2:0.0 
1.0 1:0.0 2:0.0 
1.0 1:0.0 2:0.0 
1.0 1:0.0 2:0.0 
1.0 1:0.0 2:0.0 
1.0 1:0.0 2:0.0 
1.0 1:0.0 2:0.0 
1.0 1:0.0 2:0.0 
1.0 1:0.0 2:0.0 
1.0 1:0.0 2:0.0 
1.0 1:0.0 2:0.0 
1.0 1:0.0 2:0.0 
1.0 1:0.0 2:0.0 
1.0 1:0.0 2:0.0 
1.0 1:0.0 2:0.0 
1.0 1:0.0 2:0.0 
1.0 1:0.0 2:0.0 
1.0 1:0.0 2:0.0 
1.0 1:0.0 2:0.0 
1.0 1:0.0 2:0.0 
1.0 1:0.0 2:0.0 
1.0 1:0.0 2:0.0 
1.0 1:0.0 2:0.0 
1.0 1:0.0 2:0.0 
1.0 1:0.0 2:0.0 
1.0 1:0.0 2:0.0 
1.0 1:0.0 2:0.0 
1.0 1:0.0 2:0.0 
1.0 1:0.0 2:0.0 
1.0 1:0.0 2:0.0 
1.0 1:0.0 2:0.0 
1.0 1:0.0 2:0.0 
1.0 1:0.0 2:0.0 
1.0 1:0.0 2:0.0 
1.0 1:0.0 2:0.0 
1.0 1:0.0 2:0.0 
1.0 1:0.0 2:0.0 
1.0 1:0.0 2:0.0 
1.0 1:0.0 2:0.0 
1.0 1:0.0 2:0.0 
1.0 1:0.0 2:0.0 
1.0 1:0.0 2:0.0 
1.0 1:0.0 2:0.0 
1.0 1:0.0 2:0.0 
1.0 1:0.0 2:0.0 
1.0 1:0.0 2:0.0 
1.0 1:0.0 2:0.0 
1.0 1:0.0 2:0.0 
1.0 1:0.0 2:0.0 
1.0 1:0.0 2:0.0 
1.0 1:0.0 2:0.0 
1.0 1:0.0 2:0.0 
1.0 1:0.0 2:0.0 
1.0 1:0.0 2:0.0 
1.0 1:0.0 2:0.0 
1.0 1:0.0 2:0.0 
1.0 1:0.0 2:0.0 
1.0 1:0.0 2:0.0 
1.0 1:0.0 2:0.0 
1.0 1:0.0 2:0.0 
1.0 1:0.0 2:0.0 
1.0 1:0.0 2:0.0 
1.0 1:0.0 2:0.0 
1.0 1:0.0 2:0.0 
1.0 1:0.0 2:0.0 
1.0 1:0.0 2:0.0 
1.0 1:0.0 2:0.0 
1.0 1:0.0 2:0.0 
1.0 1:0.0 2:0.0 
1.0 1:0.0 2:0.0 
1.0 1:0.0 2:0.0 
1.0 1:0.0 2:0.0 
1.0 1:0.0 2:0.0 
1.0 1:0.0 2:0.0 
1.0 1:0.0 2:0.0 
1.0 1:0.0 2:0.0 
1.0 1:0.0 2:0.0 
1.0 1:0.0 2:0.0 
1.0 1:0.0 2:0.0 
1.0 1:0.0 2:0.0 
1.0 1:0.0 2:0.0 
1.0 1:0.0 2:0.0 
1.0 1:0.0 2:0.0 
1.0 1:0.0 2:0.0 
1.0 1:0.0 2:0.0 
1.0 1:0.0 2:0.0 
1.0 1:0.0 2:0.0 
1.0 1:0.0 2:0.0 
1.0 1:0.0 2:0.0 
1.0 1:0.0 2:0.0 
1.0 1:0.0 2:0.0 
1.0 1:0.0 2:0.0 
1.0 1:0.0 2:0.0 
1.0 1:0.0 2:0.0 
1.0 1:0.0 2:0.0 
1.0 1:0.0 2:0.0 
1.0 1:0.0 2:0.0 
1.0 1:0.0 2:0.0 
1.0 1:0.0 2:0.0 
1.0 1:0.0 2:0.0 
1.0 1:0.0 2:0.0 
1.0 1:0.0 2:0.0 
1.0 1:0.0 2:0.0 
1.0 1:0.0 2:0.0 
1.0 1:0.0 2:0.0 
1.0 1:0.0 2:0.0 
1.0 1:0.0 2:0.0 
1.0 1:0.0 2:0.0 
1.0 1:0.0 2:0.0 
1.0 1:0.0 2:0.0 
1.0 1:0.0 2:0.0 
1.0 1:0.0 2:0.0 
1.0 1:0.0 2:0.0 
1.0 1:0.0 2:0.0 
1.0 1:0.0 2:0.0 
1.0 1:0.0 2:0.0 
1.0 1:0.0 2:0.0 
1.0 1:0.0 2:0.0 
1.0 1:0.0 2:0.0 
1.0 1:0.0 2:0.0 
1.0 1:0.0 2:0.0 
1.0 1:0.0 2:0.0 
1.0 1:0.0 2:0.0 
1.0 1:0.0 2:0.0 
1.0 1:0.0 2:0.0 
1.0 1:0.0 2:0.0 
1.0 1:0.0 2:0.0 
1.0 1:0.0 2:0.0 
1.0 1:0.0 2:0.0 
1.0 1:0.0 2:0.0 
1.0 1:0.0 2:0.0 
1.0 1:0.0 2:0.0 
1.0 1:0.0 2:0.0 
1.0 1:0.0 2:0.0 
1.0 1:0.0 2:0.0 
1.0 1:0.0 2:0.0 
1.0 1:0.0 2:0.0 
1.0 1:0.0 2:0.0 
1.0 1:0.0 2:0.0 
1.0 1:0.0 2:0.0 
1.0 1:0.0 2:0.0 
1.0 1:0.0 2:0.0 
1.0 1:0.0 2:0.0 
1.0 1:0.0 2:0.0 
1.0 1:0.0 2:0.0 
1.0 1:0.0 2:0.0 
1.0 1:0.0 2:0.0 
1.0 1:0.0 2:0.0 
1.0 1:0.0 2:0.0 
1.0 1:0.0 2:0.0 
1.0 1:0.0 2:0.0 
1.0 1:0.0 2:0.0 
1.0 1:0.0 2:0.0 
1.0 1:0.0 2:0.0 
1.0 1:0.0 2:0.0 
1.0 1:0.0 2:0.0 
1.0 1:0.0 2:0.0 
1.0 1:0.0 2:0.0 
1.0 1:0.0 2:0.0 
1.0 1:0.0 2:0.0 
1.0 1:0.0 2:0.0 
1.0 1:0.0 2:0.0 
1.0 1:0.0 2:0.0 
1.0 1:0.0 2:0.0 
1.0 1:0.0 2:0.0 
1.0 1:0.0 2:0.0 
1.0 1:0.0 2:0.0 
1.0 1:0.0 2:0.0 
1.0 1:0.0 2:0.0 
1.0 1:0.0 2:0.0 
1.0 1:0.0 2:0.0 
1.0 1:0.0 2:0.0 
1.0 1:0.0 2:0.0 
1.0 1:0.0 2:0.0 
1.0 1:0.0 2:0.0 
1.0 1:0.0 2:0.0 
1.0 1:0.0 2:0.0 
1.0 1:0.0 2:0.0 
1.0 1:0.0 2:0.0 
1.0 1:0.0 2:0.0 
1.0 1:0.0 2:0.0 
1.0 1:0.0 2:0.0 
1.0 1:0.0 2:0.0 
1.0 1:0.0 2:0.0 
1.0 1:0.0 2:0.0 
1.0 1:0.0 2:0.0 
1.0 1:0.0 2:0.0 
1.0 1:0.0 2:0.0 
1.0 1:0.0 2:0.0 
1.0 1:0.0 2:0.0 
1.0 1:0.0 2:0.0 
1.0 1:0.0 2:0.0 
1.0 1:0.0 2:0.0 
1.0 1:0.0 2:0.0 
1.0 1:0.0 2:0.0 
1.0 1:0.0 2:0.0 
1.0 1:0.0 2:0.0 
1.0 1:0.0 2:0.0 
1.0 1:0.0 2:0.0 
1.0 1:0.0 2:0.0 
1.0 1:0.0 2:0.0 
1.0 1:0.0 2:0.0 
1.0 1:0.0 2:0.0 
1.0 1:0.0 2:0.0 
1.0 1:0.0 2:0.0 
1.0 1:0.0 2:0.0 
1.0 1:0.0 2:0.0 
1.0 1:0.0 2:0.0 
1.0 1:0.0 2:0.0 
1.0 1:0.0 2:0.0 
1.0 1:0.0 2:0.0 
1.0 1:0.0 2:0.0 
1.0 1:0.0 2:0.0 
1.0 1:0.0 2:0.0 
1.0 1:0.0 2:0.0 
1.0 1:0.0 2:0.0 
1.0 1:0.0 2:0.0 
1.0 1:0.0 2:0.0 
1.0 1:0.0 2:0.0 
1.0 1:0.0 2:0.0 
1.0 1:0.0 2:0.0 
1.0 1:0.0 2:0.0 
1.0 1:0.0 2:0.0 
1.0 1:0.0 2:0.0 
1.0 1:0.0 2:0.0 
1.0 1:0.0 2:0.0 
1.0 1:0.0 2:0.0 
1.0 1:0.0 2:0.0 
1.0 1:0.0 2:0.0 
1.0 1:0.0 2:0.0 
1.0 1:0.0 2:0.0 
1.0 1:0.0 2:0.0 
1.0 1:0.15452141083987617 2:4.0 
1.0 1:0.0 2:0.0 
1.0 1:0.0 2:0.0 
1.0 1:0.0 2:0.0 
1.0 1:0.0 2:0.0 
1.0 1:0.0 2:0.0 
1.0 1:0.0 2:0.0 
1.0 1:0.0 2:0.0 
1.0 1:0.0 2:0.0 
1.0 1:0.0 2:0.0 
1.0 1:0.0 2:0.0 
1.0 1:0.0 2:0.0 
1.0 1:0.0 2:0.0 
1.0 1:0.0 2:0.0 
1.0 1:0.0 2:0.0 
1.0 1:0.0 2:0.0 
1.0 1:0.0 2:0.0 
1.0 1:0.0 2:0.0 
1.0 1:0.0 2:0.0 
1.0 1:0.0 2:0.0 
1.0 1:0.0 2:0.0 
1.0 1:0.0 2:0.0 
1.0 1:0.0 2:0.0 
1.0 1:0.0 2:0.0 
1.0 1:0.0 2:0.0 
1.0 1:0.0 2:0.0 
1.0 1:0.0 2:0.0 
1.0 1:0.0 2:0.0 
1.0 1:0.0 2:0.0 
1.0 1:0.0 2:0.0 
1.0 1:0.0 2:0.0 
1.0 1:0.0 2:0.0 
1.0 1:0.0 2:0.0 
1.0 1:0.0 2:0.0 
1.0 1:0.0 2:0.0 
1.0 1:0.0 2:0.0 
1.0 1:0.0 2:0.0 
1.0 1:0.0 2:0.0 
1.0 1:0.0 2:0.0 
1.0 1:0.0 2:0.0 
1.0 1:0.0 2:0.0 
1.0 1:0.0 2:0.0 
1.0 1:0.0 2:0.0 
1.0 1:0.0 2:0.0 
1.0 1:0.0 2:0.0 
1.0 1:0.0 2:0.0 
1.0 1:0.0 2:0.0 
1.0 1:0.0 2:0.0 
1.0 1:0.0 2:0.0 
1.0 1:0.0 2:0.0 
1.0 1:0.0 2:0.0 
1.0 1:0.0 2:0.0 
1.0 1:0.0 2:0.0 
1.0 1:0.0 2:0.0 
1.0 1:0.0 2:0.0 
1.0 1:0.0 2:0.0 
1.0 1:0.0 2:0.0 
1.0 1:0.0 2:0.0 
1.0 1:0.0 2:0.0 
1.0 1:0.0 2:0.0 
1.0 1:0.0 2:0.0 
1.0 1:0.0 2:0.0 
1.0 1:0.0 2:0.0 
1.0 1:0.0 2:0.0 
1.0 1:0.0 2:0.0 
1.0 1:0.0 2:0.0 
1.0 1:0.0 2:0.0 
1.0 1:0.0 2:0.0 
1.0 1:0.0 2:0.0 
1.0 1:0.0 2:0.0 
1.0 1:0.0 2:0.0 
1.0 1:0.0 2:0.0 
1.0 1:0.0 2:0.0 
1.0 1:0.0 2:0.0 
1.0 1:0.0 2:0.0 
1.0 1:0.0 2:0.0 
1.0 1:0.0 2:0.0 
1.0 1:0.0 2:0.0 
1.0 1:0.0 2:0.0 
1.0 1:0.0 2:0.0 
1.0 1:0.0 2:0.0 
1.0 1:0.0 2:0.0 
1.0 1:0.0 2:0.0 
1.0 1:0.0 2:0.0 
1.0 1:0.0 2:0.0 
1.0 1:0.0 2:0.0 
1.0 1:0.0 2:0.0 
1.0 1:0.0 2:0.0 
1.0 1:0.0 2:0.0 
1.0 1:0.0 2:0.0 
1.0 1:0.0 2:0.0 
1.0 1:0.0 2:0.0 
1.0 1:0.0 2:0.0 
1.0 1:0.0 2:0.0 
1.0 1:0.0 2:0.0 
1.0 1:0.0 2:0.0 
1.0 1:0.0 2:0.0 
1.0 1:0.0 2:0.0 
1.0 1:0.0 2:0.0 
1.0 1:0.0 2:0.0 
1.0 1:0.0 2:0.0 
1.0 1:0.0 2:0.0 
1.0 1:0.0 2:0.0 
1.0 1:0.0 2:0.0 
1.0 1:0.0 2:0.0 
1.0 1:0.0 2:0.0 
1.0 1:0.0 2:0.0 
1.0 1:0.0 2:0.0 
1.0 1:0.0 2:0.0 
1.0 1:0.16171816660158175 2:4.0 
1.0 1:0.0 2:0.0 
1.0 1:0.0 2:0.0 
1.0 1:0.0 2:0.0 
1.0 1:0.0 2:0.0 
1.0 1:0.0 2:0.0 
1.0 1:0.0 2:0.0 
1.0 1:0.0 2:0.0 
1.0 1:0.0 2:0.0 
1.0 1:0.0 2:0.0 
1.0 1:0.0 2:0.0 
1.0 1:0.0 2:0.0 
1.0 1:0.0 2:0.0 
1.0 1:0.0 2:0.0 
1.0 1:0.0 2:0.0 
1.0 1:0.0 2:0.0 
1.0 1:0.0 2:0.0 
1.0 1:0.0 2:0.0 
1.0 1:0.0 2:0.0 
1.0 1:0.0 2:0.0 
1.0 1:0.0 2:0.0 
1.0 1:0.0 2:0.0 
1.0 1:0.0 2:0.0 
1.0 1:0.0 2:0.0 
1.0 1:0.0 2:0.0 
1.0 1:0.0 2:0.0 
1.0 1:0.0 2:0.0 
1.0 1:0.0 2:0.0 
1.0 1:0.0 2:0.0 
1.0 1:0.0 2:0.0 
1.0 1:0.0 2:0.0 
1.0 1:0.0 2:0.0 
1.0 1:0.0 2:0.0 
1.0 1:0.0 2:0.0 
1.0 1:0.0 2:0.0 
1.0 1:0.0 2:0.0 
1.0 1:0.0 2:0.0 
1.0 1:0.0 2:0.0 
1.0 1:0.0 2:0.0 
1.0 1:0.0 2:0.0 
1.0 1:0.0 2:0.0 
1.0 1:0.0 2:0.0 
1.0 1:0.0 2:0.0 
1.0 1:0.0 2:0.0 
1.0 1:0.0 2:0.0 
1.0 1:0.0 2:0.0 
1.0 1:0.0 2:0.0 
1.0 1:0.0 2:0.0 
1.0 1:0.0 2:0.0 
1.0 1:0.0 2:0.0 
1.0 1:0.0 2:0.0 
1.0 1:0.0 2:0.0 
1.0 1:0.0 2:0.0 
1.0 1:0.0 2:0.0 
1.0 1:0.0 2:0.0 
1.0 1:0.0 2:0.0 
1.0 1:0.0 2:0.0 
1.0 1:0.0 2:0.0 
1.0 1:0.0 2:0.0 
1.0 1:0.0 2:0.0 
1.0 1:0.0 2:0.0 
1.0 1:0.0 2:0.0 
1.0 1:0.0 2:0.0 
1.0 1:0.0 2:0.0 
1.0 1:0.0 2:0.0 
1.0 1:0.0 2:0.0 
1.0 1:0.0 2:0.0 
1.0 1:0.0 2:0.0 
1.0 1:0.0 2:0.0 
1.0 1:0.0 2:0.0 
1.0 1:0.0 2:0.0 
1.0 1:0.0 2:0.0 
1.0 1:0.0 2:0.0 
1.0 1:0.0 2:0.0 
1.0 1:0.0 2:0.0 
1.0 1:0.0 2:0.0 
1.0 1:0.0 2:0.0 
1.0 1:0.0 2:0.0 
1.0 1:0.0 2:0.0 
1.0 1:0.0 2:0.0 
1.0 1:0.0 2:0.0 
1.0 1:0.0 2:0.0 
1.0 1:0.0 2:0.0 
1.0 1:0.0 2:0.0 
1.0 1:0.0 2:0.0 
1.0 1:0.0 2:0.0 
1.0 1:0.0 2:0.0 
1.0 1:0.0 2:0.0 
1.0 1:0.0 2:0.0 
1.0 1:0.0 2:0.0 
1.0 1:0.0 2:0.0 
1.0 1:0.0 2:0.0 
1.0 1:0.0 2:0.0 
1.0 1:0.0 2:0.0 
1.0 1:0.0 2:0.0 
1.0 1:0.0 2:0.0 
1.0 1:0.0 2:0.0 
1.0 1:0.0 2:0.0 
1.0 1:0.0 2:0.0 
1.0 1:0.0 2:0.0 
1.0 1:0.0 2:0.0 
1.0 1:0.0 2:0.0 
1.0 1:0.0 2:0.0 
1.0 1:0.0 2:0.0 
1.0 1:0.0 2:0.0 
1.0 1:0.0 2:0.0 
1.0 1:0.0 2:0.0 
1.0 1:0.0 2:0.0 
1.0 1:0.0 2:0.0 
1.0 1:0.0 2:0.0 
1.0 1:0.0 2:0.0 
1.0 1:0.0 2:0.0 
1.0 1:0.0 2:0.0 
1.0 1:0.0 2:0.0 
1.0 1:0.0 2:0.0 
1.0 1:0.0 2:0.0 
1.0 1:0.0 2:0.0 
1.0 1:0.0 2:0.0 
1.0 1:0.0 2:0.0 
1.0 1:0.0 2:0.0 
1.0 1:0.0 2:0.0 
1.0 1:0.0 2:0.0 
1.0 1:0.0 2:0.0 
1.0 1:0.0 2:0.0 
1.0 1:0.0 2:0.0 
1.0 1:0.0 2:0.0 
1.0 1:0.0 2:0.0 
1.0 1:0.0 2:0.0 
1.0 1:0.0 2:0.0 
1.0 1:0.0 2:0.0 
1.0 1:0.0 2:0.0 
1.0 1:0.0 2:0.0 
1.0 1:0.0 2:0.0 
1.0 1:0.0 2:0.0 
1.0 1:0.0 2:0.0 
1.0 1:0.0 2:0.0 
1.0 1:0.0 2:0.0 
1.0 1:0.0 2:0.0 
1.0 1:0.0 2:0.0 
1.0 1:0.0 2:0.0 
1.0 1:0.0 2:0.0 
1.0 1:0.0 2:0.0 
1.0 1:0.0 2:0.0 
1.0 1:0.0 2:0.0 
1.0 1:0.0 2:0.0 
1.0 1:0.0 2:0.0 
1.0 1:0.0 2:0.0 
1.0 1:0.0 2:0.0 
1.0 1:0.0 2:0.0 
1.0 1:0.0 2:0.0 
1.0 1:0.0 2:0.0 
1.0 1:0.0 2:0.0 
1.0 1:0.0 2:0.0 
1.0 1:0.0 2:0.0 
1.0 1:0.0 2:0.0 
1.0 1:0.0 2:0.0 
1.0 1:0.0 2:0.0 
1.0 1:0.0 2:0.0 
1.0 1:0.0 2:0.0 
1.0 1:0.0 2:0.0 
1.0 1:0.0 2:0.0 
1.0 1:0.0 2:0.0 
1.0 1:0.0 2:0.0 
1.0 1:0.0 2:0.0 
1.0 1:0.0 2:0.0 
1.0 1:0.0 2:0.0 
1.0 1:0.0 2:0.0 
1.0 1:0.0 2:0.0 
1.0 1:0.0 2:0.0 
1.0 1:0.0 2:0.0 
1.0 1:0.0 2:0.0 
1.0 1:0.0 2:0.0 
1.0 1:0.0 2:0.0 
1.0 1:0.0 2:0.0 
1.0 1:0.0 2:0.0 
1.0 1:0.0 2:0.0 
1.0 1:0.0 2:0.0 
1.0 1:0.0 2:0.0 
1.0 1:0.0 2:0.0 
1.0 1:0.0 2:0.0 
1.0 1:0.0 2:0.0 
1.0 1:0.0 2:0.0 
1.0 1:0.0 2:0.0 
1.0 1:0.0 2:0.0 
1.0 1:0.0 2:0.0 
1.0 1:0.0 2:0.0 
1.0 1:0.0 2:0.0 
1.0 1:0.0 2:0.0 
1.0 1:0.0 2:0.0 
1.0 1:0.0 2:0.0 
1.0 1:0.0 2:0.0 
1.0 1:0.0 2:0.0 
1.0 1:0.0 2:0.0 
1.0 1:0.0 2:0.0 
1.0 1:0.0 2:0.0 
1.0 1:0.0 2:0.0 
1.0 1:0.0 2:0.0 
1.0 1:0.0 2:0.0 
1.0 1:0.0 2:0.0 
1.0 1:0.0 2:0.0 
1.0 1:0.0 2:0.0 
1.0 1:0.0 2:0.0 
1.0 1:0.0 2:0.0 
1.0 1:0.0 2:0.0 
1.0 1:0.0 2:0.0 
1.0 1:0.0 2:0.0 
1.0 1:0.0 2:0.0 
1.0 1:0.0 2:0.0 
1.0 1:0.0 2:0.0 
1.0 1:0.0 2:0.0 
1.0 1:0.0 2:0.0 
1.0 1:0.0 2:0.0 
1.0 1:0.0 2:0.0 
1.0 1:0.0 2:0.0 
1.0 1:0.0 2:0.0 
1.0 1:0.0 2:0.0 
1.0 1:0.0 2:0.0 
1.0 1:0.0 2:0.0 
1.0 1:0.0 2:0.0 
1.0 1:0.0 2:0.0 
1.0 1:0.0 2:0.0 
1.0 1:0.0 2:0.0 
1.0 1:0.0 2:0.0 
1.0 1:0.0 2:0.0 
1.0 1:0.0 2:0.0 
1.0 1:0.026082026547865053 2:1.0 
1.0 1:0.0 2:0.0 
1.0 1:0.0 2:0.0 
1.0 1:0.0 2:0.0 
1.0 1:0.0 2:0.0 
1.0 1:0.0 2:0.0 
1.0 1:0.0 2:0.0 
1.0 1:0.0 2:0.0 
1.0 1:0.0 2:0.0 
1.0 1:0.0 2:0.0 
1.0 1:0.0 2:0.0 
1.0 1:0.0 2:0.0 
1.0 1:0.0 2:0.0 
1.0 1:0.0 2:0.0 
1.0 1:0.0 2:0.0 
1.0 1:0.0 2:0.0 
1.0 1:0.0 2:0.0 
1.0 1:0.0 2:0.0 
1.0 1:0.0 2:0.0 
1.0 1:0.0 2:0.0 
1.0 1:0.0 2:0.0 
1.0 1:0.0 2:0.0 
1.0 1:0.0 2:0.0 
1.0 1:0.0 2:0.0 
1.0 1:0.0 2:0.0 
1.0 1:0.0 2:0.0 
1.0 1:0.0 2:0.0 
1.0 1:0.0 2:0.0 
1.0 1:0.0 2:0.0 
1.0 1:0.0 2:0.0 
1.0 1:0.0 2:0.0 
1.0 1:0.0 2:0.0 
1.0 1:0.0 2:0.0 
1.0 1:0.0 2:0.0 
1.0 1:0.0 2:0.0 
1.0 1:0.0 2:0.0 
1.0 1:0.0 2:0.0 
1.0 1:0.0 2:0.0 
1.0 1:0.0 2:0.0 
1.0 1:0.0 2:0.0 
1.0 1:0.0 2:0.0 
1.0 1:0.0 2:0.0 
1.0 1:0.0 2:0.0 
1.0 1:0.0 2:0.0 
1.0 1:0.0 2:0.0 
1.0 1:0.0 2:0.0 
1.0 1:0.0 2:0.0 
1.0 1:0.0 2:0.0 
1.0 1:0.0 2:0.0 
1.0 1:0.0 2:0.0 
1.0 1:0.0 2:0.0 
1.0 1:0.0 2:0.0 
1.0 1:0.0 2:0.0 
1.0 1:0.0 2:0.0 
1.0 1:0.0 2:0.0 
1.0 1:0.0 2:0.0 
1.0 1:0.0 2:0.0 
1.0 1:0.0 2:0.0 
1.0 1:0.0 2:0.0 
1.0 1:0.0 2:0.0 
1.0 1:0.0 2:0.0 
1.0 1:0.0 2:0.0 
1.0 1:0.0 2:0.0 
1.0 1:0.0 2:0.0 
1.0 1:0.0 2:0.0 
1.0 1:0.0 2:0.0 
1.0 1:0.0 2:0.0 
1.0 1:0.0 2:0.0 
1.0 1:0.0 2:0.0 
1.0 1:0.0 2:0.0 
1.0 1:0.0 2:0.0 
1.0 1:0.0 2:0.0 
1.0 1:0.0 2:0.0 
1.0 1:0.0 2:0.0 
1.0 1:0.0 2:0.0 
1.0 1:0.0 2:0.0 
1.0 1:0.0 2:0.0 
1.0 1:0.0 2:0.0 
1.0 1:0.0 2:0.0 
1.0 1:0.0 2:0.0 
1.0 1:0.0 2:0.0 
1.0 1:0.0 2:0.0 
1.0 1:0.0 2:0.0 
1.0 1:0.0 2:0.0 
1.0 1:0.0 2:0.0 
1.0 1:0.0 2:0.0 
1.0 1:0.0 2:0.0 
1.0 1:0.0 2:0.0 
1.0 1:0.0 2:0.0 
1.0 1:0.0 2:0.0 
1.0 1:0.0 2:0.0 
1.0 1:0.0 2:0.0 
1.0 1:0.0 2:0.0 
1.0 1:0.0 2:0.0 
1.0 1:0.0 2:0.0 
1.0 1:0.0 2:0.0 
1.0 1:0.0 2:0.0 
1.0 1:0.0 2:0.0 
1.0 1:0.0 2:0.0 
1.0 1:0.0 2:0.0 
1.0 1:0.0 2:0.0 
1.0 1:0.0 2:0.0 
1.0 1:0.0 2:0.0 
1.0 1:0.0 2:0.0 
1.0 1:0.0 2:0.0 
1.0 1:0.0 2:0.0 
1.0 1:0.0 2:0.0 
1.0 1:0.0 2:0.0 
1.0 1:0.0 2:0.0 
1.0 1:0.0 2:0.0 
1.0 1:0.0 2:0.0 
1.0 1:0.0 2:0.0 
1.0 1:0.0 2:0.0 
1.0 1:0.0 2:0.0 
1.0 1:0.0 2:0.0 
1.0 1:0.0 2:0.0 
1.0 1:0.0 2:0.0 
1.0 1:0.0 2:0.0 
1.0 1:0.0 2:0.0 
1.0 1:0.0 2:0.0 
1.0 1:0.0 2:0.0 
1.0 1:0.0 2:0.0 
1.0 1:0.0 2:0.0 
1.0 1:0.0 2:0.0 
1.0 1:0.0 2:0.0 
1.0 1:0.0 2:0.0 
1.0 1:0.0 2:0.0 
1.0 1:0.0 2:0.0 
1.0 1:0.0 2:0.0 
1.0 1:0.0 2:0.0 
1.0 1:0.0 2:0.0 
1.0 1:0.0 2:0.0 
1.0 1:0.0 2:0.0 
1.0 1:0.0 2:0.0 
1.0 1:0.0 2:0.0 
1.0 1:0.0 2:0.0 
1.0 1:0.0 2:0.0 
1.0 1:0.0 2:0.0 
1.0 1:0.0 2:0.0 
1.0 1:0.1558195311289861 2:4.0 
1.0 1:0.0 2:0.0 
1.0 1:0.0 2:0.0 
1.0 1:0.0 2:0.0 
1.0 1:0.0 2:0.0 
1.0 1:0.0 2:0.0 
1.0 1:0.0 2:0.0 
1.0 1:0.0 2:0.0 
1.0 1:0.0 2:0.0 
1.0 1:0.0 2:0.0 
1.0 1:0.0 2:0.0 
1.0 1:0.0 2:0.0 
1.0 1:0.0 2:0.0 
1.0 1:0.0 2:0.0 
1.0 1:0.0 2:0.0 
1.0 1:0.0 2:0.0 
1.0 1:0.0 2:0.0 
1.0 1:0.0 2:0.0 
1.0 1:0.0 2:0.0 
1.0 1:0.0 2:0.0 
1.0 1:0.0 2:0.0 
1.0 1:0.0 2:0.0 
1.0 1:0.0 2:0.0 
1.0 1:0.0 2:0.0 
1.0 1:0.0 2:0.0 
1.0 1:0.0 2:0.0 
1.0 1:0.0 2:0.0 
1.0 1:0.0 2:0.0 
1.0 1:0.0 2:0.0 
1.0 1:0.0 2:0.0 
1.0 1:0.0 2:0.0 
1.0 1:0.0 2:0.0 
1.0 1:0.0 2:0.0 
1.0 1:0.0 2:0.0 
1.0 1:0.0 2:0.0 
1.0 1:0.0 2:0.0 
1.0 1:0.0 2:0.0 
1.0 1:0.0 2:0.0 
1.0 1:0.0 2:0.0 
1.0 1:0.0 2:0.0 
1.0 1:0.0 2:0.0 
1.0 1:0.0 2:0.0 
1.0 1:0.0 2:0.0 
1.0 1:0.0 2:0.0 
1.0 1:0.0 2:0.0 
1.0 1:0.0 2:0.0 
1.0 1:0.0 2:0.0 
1.0 1:0.0 2:0.0 
1.0 1:0.0 2:0.0 
1.0 1:0.0 2:0.0 
1.0 1:0.0 2:0.0 
1.0 1:0.0 2:0.0 
1.0 1:0.0 2:0.0 
1.0 1:0.0 2:0.0 
1.0 1:0.0 2:0.0 
1.0 1:0.0 2:0.0 
1.0 1:0.0 2:0.0 
1.0 1:0.0 2:0.0 
1.0 1:0.0 2:0.0 
1.0 1:0.0 2:0.0 
1.0 1:0.0 2:0.0 
1.0 1:0.0 2:0.0 
1.0 1:0.0 2:0.0 
1.0 1:0.0 2:0.0 
1.0 1:0.0 2:0.0 
1.0 1:0.0 2:0.0 
1.0 1:0.0 2:0.0 
1.0 1:0.0 2:0.0 
1.0 1:0.0 2:0.0 
1.0 1:0.0 2:0.0 
1.0 1:0.0 2:0.0 
1.0 1:0.0 2:0.0 
1.0 1:0.0 2:0.0 
1.0 1:0.05337605126836238 2:1.0 
1.0 1:0.0 2:0.0 
1.0 1:0.0 2:0.0 
1.0 1:0.0 2:0.0 
1.0 1:0.0 2:0.0 
1.0 1:0.0 2:0.0 
1.0 1:0.0 2:0.0 
1.0 1:0.0 2:0.0 
1.0 1:0.0 2:0.0 
1.0 1:0.0 2:0.0 
1.0 1:0.0 2:0.0 
1.0 1:0.0 2:0.0 
1.0 1:0.0 2:0.0 
1.0 1:0.0 2:0.0 
1.0 1:0.0 2:0.0 
1.0 1:0.0 2:0.0 
1.0 1:0.0 2:0.0 
1.0 1:0.0 2:0.0 
1.0 1:0.0278375543427902 2:3.0 
1.0 1:0.0 2:0.0 
1.0 1:0.0 2:0.0 
1.0 1:0.0 2:0.0 
1.0 1:0.0 2:0.0 
1.0 1:0.0 2:0.0 
1.0 1:0.0 2:0.0 
1.0 1:0.0 2:0.0 
1.0 1:0.0 2:0.0 
1.0 1:0.0 2:0.0 
1.0 1:0.0 2:0.0 
1.0 1:0.0 2:0.0 
1.0 1:0.0 2:0.0 
1.0 1:0.0 2:0.0 
1.0 1:0.0 2:0.0 
1.0 1:0.0 2:0.0 
1.0 1:0.0 2:0.0 
1.0 1:0.0 2:0.0 
1.0 1:0.0 2:0.0 
1.0 1:0.0 2:0.0 
1.0 1:0.0 2:0.0 
1.0 1:0.0 2:0.0 
1.0 1:0.0 2:0.0 
1.0 1:0.0 2:0.0 
1.0 1:0.0 2:0.0 
1.0 1:0.0 2:0.0 
1.0 1:0.0 2:0.0 
1.0 1:0.0 2:0.0 
1.0 1:0.0 2:0.0 
1.0 1:0.0 2:0.0 
1.0 1:0.0 2:0.0 
1.0 1:0.0 2:0.0 
1.0 1:0.0 2:0.0 
1.0 1:0.0 2:0.0 
1.0 1:0.0 2:0.0 
1.0 1:0.0 2:0.0 
1.0 1:0.0 2:0.0 
1.0 1:0.0 2:0.0 
1.0 1:0.0 2:0.0 
1.0 1:0.0 2:0.0 
1.0 1:0.0 2:0.0 
1.0 1:0.0 2:0.0 
1.0 1:0.0 2:0.0 
1.0 1:0.0 2:0.0 
1.0 1:0.0 2:0.0 
1.0 1:0.0 2:0.0 
1.0 1:0.0 2:0.0 
1.0 1:0.0 2:0.0 
1.0 1:0.0 2:0.0 
1.0 1:0.0 2:0.0 
1.0 1:0.0 2:0.0 
1.0 1:0.0 2:0.0 
1.0 1:0.0 2:0.0 
1.0 1:0.0 2:0.0 
1.0 1:0.0 2:0.0 
1.0 1:0.0 2:0.0 
1.0 1:0.0 2:0.0 
1.0 1:0.0 2:0.0 
1.0 1:0.0 2:0.0 
1.0 1:0.0 2:0.0 
1.0 1:0.0 2:0.0 
1.0 1:0.0 2:0.0 
1.0 1:0.0 2:0.0 
1.0 1:0.0 2:0.0 
1.0 1:0.0 2:0.0 
1.0 1:0.0 2:0.0 
1.0 1:0.0 2:0.0 
1.0 1:0.0 2:0.0 
1.0 1:0.0 2:0.0 
1.0 1:0.0 2:0.0 
1.0 1:0.0 2:0.0 
1.0 1:0.0 2:0.0 
1.0 1:0.0 2:0.0 
1.0 1:0.0 2:0.0 
1.0 1:0.0 2:0.0 
1.0 1:0.0 2:0.0 
1.0 1:0.0 2:0.0 
1.0 1:0.0 2:0.0 
1.0 1:0.0 2:0.0 
1.0 1:0.0 2:0.0 
1.0 1:0.0 2:0.0 
1.0 1:0.0 2:0.0 
1.0 1:0.0 2:0.0 
1.0 1:0.0 2:0.0 
1.0 1:0.0 2:0.0 
1.0 1:0.0 2:0.0 
1.0 1:0.0 2:0.0 
1.0 1:0.0 2:0.0 
1.0 1:0.0 2:0.0 
1.0 1:0.0 2:0.0 
1.0 1:0.0 2:0.0 
1.0 1:0.0 2:0.0 
1.0 1:0.0 2:0.0 
1.0 1:0.0 2:0.0 
1.0 1:0.0 2:0.0 
1.0 1:0.0 2:0.0 
1.0 1:0.0 2:0.0 
1.0 1:0.0 2:0.0 
1.0 1:0.0 2:0.0 
1.0 1:0.0 2:0.0 
1.0 1:0.0 2:0.0 
1.0 1:0.0 2:0.0 
1.0 1:0.0 2:0.0 
1.0 1:0.0 2:0.0 
1.0 1:0.0 2:0.0 
1.0 1:0.0 2:0.0 
1.0 1:0.0 2:0.0 
1.0 1:0.0 2:0.0 
1.0 1:0.0 2:0.0 
1.0 1:0.0 2:0.0 
1.0 1:0.0 2:0.0 
1.0 1:0.0 2:0.0 
1.0 1:0.0 2:0.0 
1.0 1:0.0 2:0.0 
1.0 1:0.0 2:0.0 
1.0 1:0.0 2:0.0 
1.0 1:0.0 2:0.0 
1.0 1:0.0 2:0.0 
1.0 1:0.0 2:0.0 
1.0 1:0.0 2:0.0 
1.0 1:0.0 2:0.0 
1.0 1:0.0 2:0.0 
1.0 1:0.0 2:0.0 
1.0 1:0.0 2:0.0 
1.0 1:0.0 2:0.0 
1.0 1:0.0 2:0.0 
1.0 1:0.0 2:0.0 
1.0 1:0.0 2:0.0 
1.0 1:0.0 2:0.0 
1.0 1:0.0 2:0.0 
1.0 1:0.0 2:0.0 
1.0 1:0.0 2:0.0 
1.0 1:0.0 2:0.0 
1.0 1:0.0 2:0.0 
1.0 1:0.0 2:0.0 
1.0 1:0.0 2:0.0 
1.0 1:0.0 2:0.0 
1.0 1:0.0 2:0.0 
1.0 1:0.0 2:0.0 
1.0 1:0.0 2:0.0 
1.0 1:0.0 2:0.0 
1.0 1:0.0 2:0.0 
1.0 1:0.0 2:0.0 
1.0 1:0.0 2:0.0 
1.0 1:0.0 2:0.0 
1.0 1:0.0 2:0.0 
1.0 1:0.0 2:0.0 
1.0 1:0.0 2:0.0 
1.0 1:0.0 2:0.0 
1.0 1:0.0 2:0.0 
1.0 1:0.0 2:0.0 
1.0 1:0.0 2:0.0 
1.0 1:0.0 2:0.0 
1.0 1:0.0 2:0.0 
1.0 1:0.0 2:0.0 
1.0 1:0.0 2:0.0 
1.0 1:0.0 2:0.0 
1.0 1:0.0 2:0.0 
1.0 1:0.0 2:0.0 
1.0 1:0.0 2:0.0 
1.0 1:0.0 2:0.0 
1.0 1:0.0 2:0.0 
1.0 1:0.0 2:0.0 
1.0 1:0.0 2:0.0 
1.0 1:0.0 2:0.0 
1.0 1:0.0 2:0.0 
1.0 1:0.0 2:0.0 
1.0 1:0.0 2:0.0 
1.0 1:0.0 2:0.0 
1.0 1:0.0 2:0.0 
1.0 1:0.0 2:0.0 
1.0 1:0.0 2:0.0 
1.0 1:0.0 2:0.0 
1.0 1:0.0 2:0.0 
1.0 1:0.0 2:0.0 
1.0 1:0.0 2:0.0 
1.0 1:0.0 2:0.0 
1.0 1:0.0 2:0.0 
1.0 1:0.0 2:0.0 
1.0 1:0.0 2:0.0 
1.0 1:0.0 2:0.0 
1.0 1:0.0 2:0.0 
1.0 1:0.0 2:0.0 
1.0 1:0.0 2:0.0 
1.0 1:0.0 2:0.0 
1.0 1:0.0 2:0.0 
1.0 1:0.0 2:0.0 
1.0 1:0.0 2:0.0 
1.0 1:0.0 2:0.0 
1.0 1:0.0 2:0.0 
1.0 1:0.0 2:0.0 
1.0 1:0.0 2:0.0 
1.0 1:0.0 2:0.0 
1.0 1:0.0 2:0.0 
1.0 1:0.0 2:0.0 
1.0 1:0.0 2:0.0 
1.0 1:0.0 2:0.0 
1.0 1:0.0 2:0.0 
1.0 1:0.0 2:0.0 
1.0 1:0.0 2:0.0 
1.0 1:0.0 2:0.0 
1.0 1:0.0 2:0.0 
1.0 1:0.0 2:0.0 
1.0 1:0.0 2:0.0 
1.0 1:0.0 2:0.0 
1.0 1:0.0 2:0.0 
1.0 1:0.0 2:0.0 
1.0 1:0.0 2:0.0 
1.0 1:0.0 2:0.0 
1.0 1:0.0 2:0.0 
1.0 1:0.0 2:0.0 
1.0 1:0.0 2:0.0 
1.0 1:0.0 2:0.0 
1.0 1:0.0 2:0.0 
1.0 1:0.0 2:0.0 
1.0 1:0.0 2:0.0 
1.0 1:0.0 2:0.0 
1.0 1:0.0 2:0.0 
1.0 1:0.0 2:0.0 
1.0 1:0.0 2:0.0 
1.0 1:0.0 2:0.0 
1.0 1:0.0 2:0.0 
1.0 1:0.0 2:0.0 
1.0 1:0.0 2:0.0 
1.0 1:0.0 2:0.0 
1.0 1:0.0 2:0.0 
1.0 1:0.0 2:0.0 
1.0 1:0.0 2:0.0 
1.0 1:0.0 2:0.0 
1.0 1:0.0 2:0.0 
1.0 1:0.0 2:0.0 
1.0 1:0.0 2:0.0 
1.0 1:0.0 2:0.0 
1.0 1:0.0 2:0.0 
1.0 1:0.0 2:0.0 
1.0 1:0.0 2:0.0 
1.0 1:0.0 2:0.0 
1.0 1:0.0 2:0.0 
1.0 1:0.0 2:0.0 
1.0 1:0.0 2:0.0 
1.0 1:0.0 2:0.0 
1.0 1:0.0 2:0.0 
1.0 1:0.0 2:0.0 
1.0 1:0.0 2:0.0 
1.0 1:0.0 2:0.0 
1.0 1:0.0 2:0.0 
1.0 1:0.0 2:0.0 
1.0 1:0.0 2:0.0 
1.0 1:0.0 2:0.0 
1.0 1:0.0 2:0.0 
1.0 1:0.0 2:0.0 
1.0 1:0.0 2:0.0 
1.0 1:0.0 2:0.0 
1.0 1:0.0 2:0.0 
1.0 1:0.0 2:0.0 
1.0 1:0.0 2:0.0 
1.0 1:0.0 2:0.0 
1.0 1:0.0 2:0.0 
1.0 1:0.0 2:0.0 
1.0 1:0.0 2:0.0 
1.0 1:0.0 2:0.0 
1.0 1:0.0 2:0.0 
1.0 1:0.0 2:0.0 
1.0 1:0.0 2:0.0 
1.0 1:0.0 2:0.0 
1.0 1:0.0 2:0.0 
1.0 1:0.0 2:0.0 
1.0 1:0.0 2:0.0 
1.0 1:0.0 2:0.0 
1.0 1:0.0 2:0.0 
1.0 1:0.0 2:0.0 
1.0 1:0.0 2:0.0 
1.0 1:0.0 2:0.0 
1.0 1:0.0 2:0.0 
1.0 1:0.0 2:0.0 
1.0 1:0.0 2:0.0 
1.0 1:0.0 2:0.0 
1.0 1:0.0 2:0.0 
1.0 1:0.0 2:0.0 
1.0 1:0.0 2:0.0 
1.0 1:0.0 2:0.0 
1.0 1:0.0 2:0.0 
1.0 1:0.0 2:0.0 
1.0 1:0.0 2:0.0 
1.0 1:0.0 2:0.0 
1.0 1:0.0 2:0.0 
1.0 1:0.0 2:0.0 
1.0 1:0.0 2:0.0 
1.0 1:0.0 2:0.0 
1.0 1:0.0 2:0.0 
1.0 1:0.0 2:0.0 
1.0 1:0.0 2:0.0 
1.0 1:0.0 2:0.0 
1.0 1:0.0 2:0.0 
1.0 1:0.0 2:0.0 
1.0 1:0.0 2:0.0 
1.0 1:0.0 2:0.0 
1.0 1:0.0 2:0.0 
1.0 1:0.0 2:0.0 
1.0 1:0.0 2:0.0 
1.0 1:0.0 2:0.0 
1.0 1:0.0 2:0.0 
1.0 1:0.0 2:0.0 
1.0 1:0.0 2:0.0 
1.0 1:0.0 2:0.0 
1.0 1:0.0 2:0.0 
1.0 1:0.0 2:0.0 
1.0 1:0.0 2:0.0 
1.0 1:0.0 2:0.0 
1.0 1:0.0 2:0.0 
1.0 1:0.0 2:0.0 
1.0 1:0.0 2:0.0 
1.0 1:0.0 2:0.0 
1.0 1:0.0 2:0.0 
1.0 1:0.0 2:0.0 
1.0 1:0.0 2:0.0 
1.0 1:0.0 2:0.0 
1.0 1:0.0 2:0.0 
1.0 1:0.0 2:0.0 
1.0 1:0.0 2:0.0 
1.0 1:0.0 2:0.0 
1.0 1:0.0 2:0.0 
1.0 1:0.0 2:0.0 
1.0 1:0.0 2:0.0 
1.0 1:0.0 2:0.0 
1.0 1:0.0 2:0.0 
1.0 1:0.0 2:0.0 
1.0 1:0.0 2:0.0 
1.0 1:0.0 2:0.0 
1.0 1:0.0 2:0.0 
1.0 1:0.0 2:0.0 
1.0 1:0.0 2:0.0 
1.0 1:0.0 2:0.0 
1.0 1:0.0 2:0.0 
1.0 1:0.0 2:0.0 
1.0 1:0.0 2:0.0 
1.0 1:0.0 2:0.0 
1.0 1:0.0 2:0.0 
1.0 1:0.0 2:0.0 
1.0 1:0.0 2:0.0 
1.0 1:0.0 2:0.0 
1.0 1:0.0 2:0.0 
1.0 1:0.0 2:0.0 
1.0 1:0.0 2:0.0 
1.0 1:0.0 2:0.0 
1.0 1:0.0 2:0.0 
1.0 1:0.0 2:0.0 
1.0 1:0.0 2:0.0 
1.0 1:0.0 2:0.0 
1.0 1:0.0 2:0.0 
1.0 1:0.0 2:0.0 
1.0 1:0.0 2:0.0 
1.0 1:0.0 2:0.0 
1.0 1:0.0 2:0.0 
1.0 1:0.0 2:0.0 
1.0 1:0.0 2:0.0 
1.0 1:0.0 2:0.0 
1.0 1:0.0 2:0.0 
1.0 1:0.0 2:0.0 
1.0 1:0.0 2:0.0 
1.0 1:0.0 2:0.0 
1.0 1:0.0 2:0.0 
1.0 1:0.0 2:0.0 
1.0 1:0.0 2:0.0 
1.0 1:0.0 2:0.0 
1.0 1:0.0 2:0.0 
1.0 1:0.0 2:0.0 
1.0 1:0.0 2:0.0 
1.0 1:0.0 2:0.0 
1.0 1:0.0 2:0.0 
1.0 1:0.0 2:0.0 
1.0 1:0.0 2:0.0 
1.0 1:0.0 2:0.0 
1.0 1:0.0 2:0.0 
1.0 1:0.0 2:0.0 
1.0 1:0.0 2:0.0 
1.0 1:0.0 2:0.0 
1.0 1:0.0 2:0.0 
1.0 1:0.0 2:0.0 
1.0 1:0.0 2:0.0 
1.0 1:0.0 2:0.0 
1.0 1:0.0 2:0.0 
1.0 1:0.0 2:0.0 
1.0 1:0.0 2:0.0 
1.0 1:0.0 2:0.0 
1.0 1:0.0 2:0.0 
1.0 1:0.0 2:0.0 
1.0 1:0.0 2:0.0 
1.0 1:0.0 2:0.0 
1.0 1:0.0 2:0.0 
1.0 1:0.0 2:0.0 
1.0 1:0.0 2:0.0 
1.0 1:0.0 2:0.0 
1.0 1:0.0 2:0.0 
1.0 1:0.0 2:0.0 
1.0 1:0.0 2:0.0 
1.0 1:0.0 2:0.0 
1.0 1:0.0 2:0.0 
1.0 1:0.0 2:0.0 
1.0 1:0.0 2:0.0 
1.0 1:0.0 2:0.0 
1.0 1:0.0 2:0.0 
1.0 1:0.0 2:0.0 
1.0 1:0.0 2:0.0 
1.0 1:0.0 2:0.0 
1.0 1:0.0 2:0.0 
1.0 1:0.0 2:0.0 
1.0 1:0.0 2:0.0 
1.0 1:0.0 2:0.0 
1.0 1:0.0 2:0.0 
1.0 1:0.0 2:0.0 
1.0 1:0.0 2:0.0 
1.0 1:0.0 2:0.0 
1.0 1:0.0 2:0.0 
1.0 1:0.0 2:0.0 
1.0 1:0.0 2:0.0 
1.0 1:0.0 2:0.0 
1.0 1:0.0 2:0.0 
1.0 1:0.0 2:0.0 
1.0 1:0.0 2:0.0 
1.0 1:0.0 2:0.0 
1.0 1:0.0 2:0.0 
1.0 1:0.0 2:0.0 
1.0 1:0.0 2:0.0 
1.0 1:0.0 2:0.0 
1.0 1:0.0 2:0.0 
1.0 1:0.0 2:0.0 
1.0 1:0.0 2:0.0 
1.0 1:0.0 2:0.0 
1.0 1:0.0 2:0.0 
1.0 1:0.0 2:0.0 
1.0 1:0.0 2:0.0 
1.0 1:0.0 2:0.0 
1.0 1:0.0 2:0.0 
1.0 1:0.05227083734893167 2:1.0 
1.0 1:0.0 2:0.0 
1.0 1:0.0 2:0.0 
1.0 1:0.0 2:0.0 
1.0 1:0.0 2:0.0 
1.0 1:0.0 2:0.0 
1.0 1:0.0 2:0.0 
1.0 1:0.0 2:0.0 
1.0 1:0.0 2:0.0 
1.0 1:0.0 2:0.0 
1.0 1:0.0 2:0.0 
1.0 1:0.0 2:0.0 
1.0 1:0.0 2:0.0 
1.0 1:0.0 2:0.0 
1.0 1:0.0 2:0.0 
1.0 1:0.0 2:0.0 
1.0 1:0.0 2:0.0 
1.0 1:0.0 2:0.0 
1.0 1:0.0 2:0.0 
1.0 1:0.0 2:0.0 
1.0 1:0.0 2:0.0 
1.0 1:0.0 2:0.0 
1.0 1:0.0 2:0.0 
1.0 1:0.0 2:0.0 
1.0 1:0.0 2:0.0 
1.0 1:0.0 2:0.0 
1.0 1:0.0 2:0.0 
1.0 1:0.0 2:0.0 
1.0 1:0.0 2:0.0 
1.0 1:0.0 2:0.0 
1.0 1:0.0 2:0.0 
1.0 1:0.0 2:0.0 
1.0 1:0.0 2:0.0 
1.0 1:0.0 2:0.0 
1.0 1:0.0 2:0.0 
1.0 1:0.0 2:0.0 
1.0 1:0.0 2:0.0 
1.0 1:0.0 2:0.0 
1.0 1:0.0 2:0.0 
1.0 1:0.0 2:0.0 
1.0 1:0.0 2:0.0 
1.0 1:0.0 2:0.0 
1.0 1:0.0 2:0.0 
1.0 1:0.0 2:0.0 
1.0 1:0.0 2:0.0 
1.0 1:0.0 2:0.0 
1.0 1:0.0 2:0.0 
1.0 1:0.0 2:0.0 
1.0 1:0.0 2:0.0 
1.0 1:0.0 2:0.0 
1.0 1:0.0 2:0.0 
1.0 1:0.0 2:0.0 
1.0 1:0.0 2:0.0 
1.0 1:0.0 2:0.0 
1.0 1:0.0 2:0.0 
1.0 1:0.0 2:0.0 
1.0 1:0.0 2:0.0 
1.0 1:0.0 2:0.0 
1.0 1:0.0 2:0.0 
1.0 1:0.0 2:0.0 
1.0 1:0.0 2:0.0 
1.0 1:0.0 2:0.0 
1.0 1:0.0 2:0.0 
1.0 1:0.0 2:0.0 
1.0 1:0.0 2:0.0 
1.0 1:0.0 2:0.0 
1.0 1:0.0 2:0.0 
1.0 1:0.0 2:0.0 
1.0 1:0.0 2:0.0 
1.0 1:0.0 2:0.0 
1.0 1:0.0 2:0.0 
1.0 1:0.0 2:0.0 
1.0 1:0.0 2:0.0 
1.0 1:0.0 2:0.0 
1.0 1:0.0 2:0.0 
1.0 1:0.0 2:0.0 
1.0 1:0.0 2:0.0 
1.0 1:0.0 2:0.0 
1.0 1:0.0 2:0.0 
1.0 1:0.0 2:0.0 
1.0 1:0.0 2:0.0 
1.0 1:0.0 2:0.0 
1.0 1:0.0 2:0.0 
1.0 1:0.0 2:0.0 
1.0 1:0.0 2:0.0 
1.0 1:0.0 2:0.0 
1.0 1:0.0 2:0.0 
1.0 1:0.0 2:0.0 
1.0 1:0.0 2:0.0 
1.0 1:0.0 2:0.0 
1.0 1:0.0 2:0.0 
1.0 1:0.0 2:0.0 
1.0 1:0.0 2:0.0 
1.0 1:0.0 2:0.0 
1.0 1:0.0 2:0.0 
1.0 1:0.0 2:0.0 
1.0 1:0.0 2:0.0 
1.0 1:0.0 2:0.0 
1.0 1:0.0 2:0.0 
1.0 1:0.0 2:0.0 
1.0 1:0.0 2:0.0 
1.0 1:0.0 2:0.0 
1.0 1:0.0 2:0.0 
1.0 1:0.0 2:0.0 
1.0 1:0.0 2:0.0 
1.0 1:0.0 2:0.0 
1.0 1:0.0 2:0.0 
1.0 1:0.0 2:0.0 
1.0 1:0.0 2:0.0 
1.0 1:0.0 2:0.0 
1.0 1:0.0 2:0.0 
1.0 1:0.0 2:0.0 
1.0 1:0.0 2:0.0 
1.0 1:0.0 2:0.0 
1.0 1:0.0 2:0.0 
1.0 1:0.0 2:0.0 
1.0 1:0.0 2:0.0 
1.0 1:0.0 2:0.0 
1.0 1:0.0 2:0.0 
1.0 1:0.0 2:0.0 
1.0 1:0.0 2:0.0 
1.0 1:0.0 2:0.0 
1.0 1:0.0 2:0.0 
1.0 1:0.0 2:0.0 
1.0 1:0.0 2:0.0 
1.0 1:0.0 2:0.0 
1.0 1:0.0 2:0.0 
1.0 1:0.0 2:0.0 
1.0 1:0.0 2:0.0 
1.0 1:0.0 2:0.0 
1.0 1:0.0 2:0.0 
1.0 1:0.0 2:0.0 
1.0 1:0.0 2:0.0 
1.0 1:0.0 2:0.0 
1.0 1:0.0 2:0.0 
1.0 1:0.0 2:0.0 
1.0 1:0.0 2:0.0 
1.0 1:0.0 2:0.0 
1.0 1:0.0 2:0.0 
1.0 1:0.0 2:0.0 
1.0 1:0.0 2:0.0 
1.0 1:0.0 2:0.0 
1.0 1:0.0 2:0.0 
1.0 1:0.0 2:0.0 
1.0 1:0.0 2:0.0 
1.0 1:0.0 2:0.0 
1.0 1:0.0 2:0.0 
1.0 1:0.0 2:0.0 
1.0 1:0.0 2:0.0 
1.0 1:0.0 2:0.0 
1.0 1:0.0 2:0.0 
1.0 1:0.0 2:0.0 
1.0 1:0.0 2:0.0 
1.0 1:0.0 2:0.0 
1.0 1:0.0 2:0.0 
1.0 1:0.0 2:0.0 
1.0 1:0.0 2:0.0 
1.0 1:0.0 2:0.0 
1.0 1:0.0 2:0.0 
1.0 1:0.0 2:0.0 
1.0 1:0.0 2:0.0 
1.0 1:0.0 2:0.0 
1.0 1:0.0 2:0.0 
1.0 1:0.0 2:0.0 
1.0 1:0.0 2:0.0 
1.0 1:0.0 2:0.0 
1.0 1:0.0 2:0.0 
1.0 1:0.0 2:0.0 
1.0 1:0.0 2:0.0 
1.0 1:0.0 2:0.0 
1.0 1:0.0 2:0.0 
1.0 1:0.0 2:0.0 
1.0 1:0.0 2:0.0 
1.0 1:0.0 2:0.0 
1.0 1:0.0 2:0.0 
1.0 1:0.0 2:0.0 
1.0 1:0.0 2:0.0 
1.0 1:0.0 2:0.0 
1.0 1:0.0 2:0.0 
1.0 1:0.0 2:0.0 
1.0 1:0.0 2:0.0 
1.0 1:0.0 2:0.0 
1.0 1:0.0 2:0.0 
1.0 1:0.0 2:0.0 
1.0 1:0.0 2:0.0 
1.0 1:0.0 2:0.0 
1.0 1:0.0 2:0.0 
1.0 1:0.0 2:0.0 
1.0 1:0.0 2:0.0 
1.0 1:0.0 2:0.0 
1.0 1:0.0 2:0.0 
1.0 1:0.0 2:0.0 
1.0 1:0.0 2:0.0 
1.0 1:0.0 2:0.0 
1.0 1:0.0 2:0.0 
1.0 1:0.0 2:0.0 
1.0 1:0.0 2:0.0 
1.0 1:0.0 2:0.0 
1.0 1:0.0 2:0.0 
1.0 1:0.0 2:0.0 
1.0 1:0.0 2:0.0 
1.0 1:0.0 2:0.0 
1.0 1:0.0 2:0.0 
1.0 1:0.0 2:0.0 
1.0 1:0.0 2:0.0 
1.0 1:0.0 2:0.0 
1.0 1:0.0 2:0.0 
1.0 1:0.0 2:0.0 
1.0 1:0.0 2:0.0 
1.0 1:0.0 2:0.0 
1.0 1:0.0 2:0.0 
1.0 1:0.0 2:0.0 
1.0 1:0.0 2:0.0 
1.0 1:0.0 2:0.0 
1.0 1:0.0 2:0.0 
1.0 1:0.0 2:0.0 
1.0 1:0.0 2:0.0 
1.0 1:0.0 2:0.0 
1.0 1:0.0 2:0.0 
1.0 1:0.0 2:0.0 
1.0 1:0.0 2:0.0 
1.0 1:0.0 2:0.0 
1.0 1:0.0 2:0.0 
1.0 1:0.0 2:0.0 
1.0 1:0.0 2:0.0 
1.0 1:0.0 2:0.0 
1.0 1:0.0 2:0.0 
1.0 1:0.0 2:0.0 
1.0 1:0.0 2:0.0 
1.0 1:0.0 2:0.0 
1.0 1:0.0 2:0.0 
1.0 1:0.0 2:0.0 
1.0 1:0.0 2:0.0 
1.0 1:0.0 2:0.0 
1.0 1:0.0 2:0.0 
1.0 1:0.0 2:0.0 
1.0 1:0.0 2:0.0 
1.0 1:0.0 2:0.0 
1.0 1:0.0 2:0.0 
1.0 1:0.0 2:0.0 
1.0 1:0.0 2:0.0 
1.0 1:0.0 2:0.0 
1.0 1:0.0 2:0.0 
1.0 1:0.0 2:0.0 
1.0 1:0.0 2:0.0 
1.0 1:0.0 2:0.0 
1.0 1:0.0 2:0.0 
1.0 1:0.0 2:0.0 
1.0 1:0.0 2:0.0 
1.0 1:0.0 2:0.0 
1.0 1:0.0 2:0.0 
1.0 1:0.0 2:0.0 
1.0 1:0.0 2:0.0 
1.0 1:0.0 2:0.0 
1.0 1:0.0 2:0.0 
1.0 1:0.0 2:0.0 
1.0 1:0.0 2:0.0 
1.0 1:0.0 2:0.0 
1.0 1:0.0 2:0.0 
1.0 1:0.0 2:0.0 
1.0 1:0.0 2:0.0 
1.0 1:0.0 2:0.0 
1.0 1:0.0 2:0.0 
1.0 1:0.0 2:0.0 
1.0 1:0.0 2:0.0 
1.0 1:0.0 2:0.0 
1.0 1:0.0 2:0.0 
1.0 1:0.0 2:0.0 
1.0 1:0.0 2:0.0 
1.0 1:0.0 2:0.0 
1.0 1:0.0 2:0.0 
1.0 1:0.0 2:0.0 
1.0 1:0.0 2:0.0 
1.0 1:0.0 2:0.0 
1.0 1:0.0 2:0.0 
1.0 1:0.0 2:0.0 
1.0 1:0.0 2:0.0 
1.0 1:0.0 2:0.0 
1.0 1:0.0 2:0.0 
1.0 1:0.0 2:0.0 
1.0 1:0.0 2:0.0 
1.0 1:0.0 2:0.0 
1.0 1:0.0 2:0.0 
1.0 1:0.0 2:0.0 
1.0 1:0.0 2:0.0 
1.0 1:0.0 2:0.0 
1.0 1:0.0 2:0.0 
1.0 1:0.0 2:0.0 
1.0 1:0.0 2:0.0 
1.0 1:0.0 2:0.0 
1.0 1:0.0 2:0.0 
1.0 1:0.0 2:0.0 
1.0 1:0.0 2:0.0 
1.0 1:0.0 2:0.0 
1.0 1:0.0 2:0.0 
1.0 1:0.0 2:0.0 
1.0 1:0.0 2:0.0 
1.0 1:0.0 2:0.0 
1.0 1:0.0 2:0.0 
1.0 1:0.0 2:0.0 
1.0 1:0.0 2:0.0 
1.0 1:0.0 2:0.0 
1.0 1:0.0 2:0.0 
1.0 1:0.0 2:0.0 
1.0 1:0.0 2:0.0 
1.0 1:0.0 2:0.0 
1.0 1:0.0 2:0.0 
1.0 1:0.0 2:0.0 
1.0 1:0.0 2:0.0 
1.0 1:0.0 2:0.0 
1.0 1:0.0 2:0.0 
1.0 1:0.0 2:0.0 
1.0 1:0.0 2:0.0 
1.0 1:0.0 2:0.0 
1.0 1:0.0 2:0.0 
1.0 1:0.0 2:0.0 
1.0 1:0.0 2:0.0 
1.0 1:0.0 2:0.0 
1.0 1:0.0 2:0.0 
1.0 1:0.0 2:0.0 
1.0 1:0.0 2:0.0 
1.0 1:0.0 2:0.0 
1.0 1:0.0 2:0.0 
1.0 1:0.0 2:0.0 
1.0 1:0.0 2:0.0 
1.0 1:0.0 2:0.0 
1.0 1:0.0 2:0.0 
1.0 1:0.0 2:0.0 
1.0 1:0.0 2:0.0 
1.0 1:0.0 2:0.0 
1.0 1:0.0 2:0.0 
1.0 1:0.0 2:0.0 
1.0 1:0.0 2:0.0 
1.0 1:0.0 2:0.0 
1.0 1:0.0 2:0.0 
1.0 1:0.0 2:0.0 
1.0 1:0.0 2:0.0 
1.0 1:0.0 2:0.0 
1.0 1:0.0 2:0.0 
1.0 1:0.0 2:0.0 
1.0 1:0.0 2:0.0 
1.0 1:0.0 2:0.0 
1.0 1:0.0 2:0.0 
1.0 1:0.0 2:0.0 
1.0 1:0.0 2:0.0 
1.0 1:0.0 2:0.0 
1.0 1:0.0 2:0.0 
1.0 1:0.0 2:0.0 
1.0 1:0.0 2:0.0 
1.0 1:0.0 2:0.0 
1.0 1:0.0 2:0.0 
1.0 1:0.0 2:0.0 
1.0 1:0.0 2:0.0 
1.0 1:0.0 2:0.0 
1.0 1:0.0 2:0.0 
1.0 1:0.0 2:0.0 
1.0 1:0.0 2:0.0 
1.0 1:0.0 2:0.0 
1.0 1:0.0 2:0.0 
1.0 1:0.0 2:0.0 
1.0 1:0.0 2:0.0 
1.0 1:0.0 2:0.0 
1.0 1:0.0 2:0.0 
1.0 1:0.0 2:0.0 
1.0 1:0.0 2:0.0 
1.0 1:0.0 2:0.0 
1.0 1:0.0 2:0.0 
1.0 1:0.0 2:0.0 
1.0 1:0.0 2:0.0 
1.0 1:0.0 2:0.0 
1.0 1:0.0 2:0.0 
1.0 1:0.0 2:0.0 
1.0 1:0.0 2:0.0 
1.0 1:0.0 2:0.0 
1.0 1:0.0 2:0.0 
1.0 1:0.0 2:0.0 
1.0 1:0.0 2:0.0 
1.0 1:0.0 2:0.0 
1.0 1:0.0 2:0.0 
1.0 1:0.0 2:0.0 
1.0 1:0.0 2:0.0 
1.0 1:0.0 2:0.0 
1.0 1:0.0 2:0.0 
1.0 1:0.0 2:0.0 
1.0 1:0.0 2:0.0 
1.0 1:0.0 2:0.0 
1.0 1:0.0 2:0.0 
1.0 1:0.0 2:0.0 
1.0 1:0.0 2:0.0 
1.0 1:0.0 2:0.0 
1.0 1:0.0 2:0.0 
1.0 1:0.0 2:0.0 
1.0 1:0.0 2:0.0 
1.0 1:0.0 2:0.0 
1.0 1:0.0 2:0.0 
1.0 1:0.0 2:0.0 
1.0 1:0.0 2:0.0 
1.0 1:0.0 2:0.0 
1.0 1:0.0 2:0.0 
1.0 1:0.0 2:0.0 
1.0 1:0.0 2:0.0 
1.0 1:0.0 2:0.0 
1.0 1:0.0 2:0.0 
1.0 1:0.0 2:0.0 
1.0 1:0.0 2:0.0 
1.0 1:0.0 2:0.0 
1.0 1:0.0 2:0.0 
1.0 1:0.0 2:0.0 
1.0 1:0.0 2:0.0 
1.0 1:0.0 2:0.0 
1.0 1:0.0 2:0.0 
1.0 1:0.0 2:0.0 
1.0 1:0.0 2:0.0 
1.0 1:0.0 2:0.0 
1.0 1:0.0 2:0.0 
1.0 1:0.0 2:0.0 
1.0 1:0.0 2:0.0 
1.0 1:0.0 2:0.0 
1.0 1:0.0 2:0.0 
1.0 1:0.0 2:0.0 
1.0 1:0.0 2:0.0 
1.0 1:0.0 2:0.0 
1.0 1:0.0 2:0.0 
1.0 1:0.0 2:0.0 
1.0 1:0.0 2:0.0 
1.0 1:0.0 2:0.0 
1.0 1:0.0 2:0.0 
1.0 1:0.0 2:0.0 
1.0 1:0.0 2:0.0 
1.0 1:0.0 2:0.0 
1.0 1:0.0 2:0.0 
1.0 1:0.0 2:0.0 
1.0 1:0.0 2:0.0 
1.0 1:0.0 2:0.0 
1.0 1:0.0 2:0.0 
1.0 1:0.0 2:0.0 
1.0 1:0.0 2:0.0 
1.0 1:0.0 2:0.0 
1.0 1:0.0 2:0.0 
1.0 1:0.0 2:0.0 
1.0 1:0.0 2:0.0 
1.0 1:0.0 2:0.0 
1.0 1:0.0 2:0.0 
1.0 1:0.0 2:0.0 
1.0 1:0.0 2:0.0 
1.0 1:0.0 2:0.0 
1.0 1:0.0 2:0.0 
1.0 1:0.0 2:0.0 
1.0 1:0.0 2:0.0 
1.0 1:0.0 2:0.0 
1.0 1:0.0 2:0.0 
1.0 1:0.0 2:0.0 
1.0 1:0.0 2:0.0 
1.0 1:0.0 2:0.0 
1.0 1:0.0 2:0.0 
1.0 1:0.0 2:0.0 
1.0 1:0.0 2:0.0 
1.0 1:0.0 2:0.0 
1.0 1:0.0 2:0.0 
1.0 1:0.0 2:0.0 
1.0 1:0.0 2:0.0 
1.0 1:0.0 2:0.0 
1.0 1:0.0 2:0.0 
1.0 1:0.0 2:0.0 
1.0 1:0.0 2:0.0 
1.0 1:0.0 2:0.0 
1.0 1:0.0 2:0.0 
1.0 1:0.0 2:0.0 
1.0 1:0.0 2:0.0 
1.0 1:0.0 2:0.0 
1.0 1:0.0 2:0.0 
1.0 1:0.0 2:0.0 
1.0 1:0.0 2:0.0 
1.0 1:0.0 2:0.0 
1.0 1:0.0 2:0.0 
1.0 1:0.0 2:0.0 
1.0 1:0.0 2:0.0 
1.0 1:0.0 2:0.0 
1.0 1:0.0 2:0.0 
1.0 1:0.0 2:0.0 
1.0 1:0.0 2:0.0 
1.0 1:0.0 2:0.0 
1.0 1:0.0 2:0.0 
1.0 1:0.0 2:0.0 
1.0 1:0.0 2:0.0 
1.0 1:0.0 2:0.0 
1.0 1:0.0 2:0.0 
1.0 1:0.0 2:0.0 
1.0 1:0.0 2:0.0 
1.0 1:0.0 2:0.0 
1.0 1:0.0 2:0.0 
1.0 1:0.0 2:0.0 
1.0 1:0.0 2:0.0 
1.0 1:0.0 2:0.0 
1.0 1:0.0 2:0.0 
1.0 1:0.0 2:0.0 
1.0 1:0.0 2:0.0 
1.0 1:0.0 2:0.0 
1.0 1:0.0 2:0.0 
1.0 1:0.0 2:0.0 
1.0 1:0.0 2:0.0 
1.0 1:0.0 2:0.0 
1.0 1:0.0 2:0.0 
1.0 1:0.0 2:0.0 
1.0 1:0.0 2:0.0 
1.0 1:0.0 2:0.0 
1.0 1:0.0 2:0.0 
1.0 1:0.0 2:0.0 
1.0 1:0.19812294119786045 2:4.0 
1.0 1:0.0 2:0.0 
1.0 1:0.0 2:0.0 
1.0 1:0.0 2:0.0 
1.0 1:0.0 2:0.0 
1.0 1:0.0 2:0.0 
1.0 1:0.0 2:0.0 
1.0 1:0.0 2:0.0 
1.0 1:0.0 2:0.0 
1.0 1:0.0 2:0.0 
1.0 1:0.0 2:0.0 
1.0 1:0.0 2:0.0 
1.0 1:0.0 2:0.0 
1.0 1:0.0 2:0.0 
1.0 1:0.0 2:0.0 
1.0 1:0.0 2:0.0 
1.0 1:0.0 2:0.0 
1.0 1:0.0 2:0.0 
1.0 1:0.0 2:0.0 
1.0 1:0.0 2:0.0 
1.0 1:0.0 2:0.0 
1.0 1:0.0 2:0.0 
1.0 1:0.0 2:0.0 
1.0 1:0.0 2:0.0 
1.0 1:0.0 2:0.0 
1.0 1:0.0 2:0.0 
1.0 1:0.0 2:0.0 
1.0 1:0.0 2:0.0 
1.0 1:0.0 2:0.0 
1.0 1:0.0 2:0.0 
1.0 1:0.0 2:0.0 
1.0 1:0.0 2:0.0 
1.0 1:0.0 2:0.0 
1.0 1:0.0 2:0.0 
1.0 1:0.0 2:0.0 
1.0 1:0.0 2:0.0 
1.0 1:0.0 2:0.0 
1.0 1:0.0 2:0.0 
1.0 1:0.0 2:0.0 
1.0 1:0.0 2:0.0 
1.0 1:0.0 2:0.0 
1.0 1:0.0 2:0.0 
1.0 1:0.0 2:0.0 
1.0 1:0.0 2:0.0 
1.0 1:0.0 2:0.0 
1.0 1:0.0 2:0.0 
1.0 1:0.0 2:0.0 
1.0 1:0.0 2:0.0 
1.0 1:0.0 2:0.0 
1.0 1:0.0 2:0.0 
1.0 1:0.0 2:0.0 
1.0 1:0.0 2:0.0 
1.0 1:0.0 2:0.0 
1.0 1:0.0 2:0.0 
1.0 1:0.0 2:0.0 
1.0 1:0.0 2:0.0 
1.0 1:0.0 2:0.0 
1.0 1:0.0 2:0.0 
1.0 1:0.0 2:0.0 
1.0 1:0.0 2:0.0 
1.0 1:0.0 2:0.0 
1.0 1:0.0 2:0.0 
1.0 1:0.0 2:0.0 
1.0 1:0.0 2:0.0 
1.0 1:0.0 2:0.0 
1.0 1:0.0 2:0.0 
1.0 1:0.0 2:0.0 
1.0 1:0.0 2:0.0 
1.0 1:0.0 2:0.0 
1.0 1:0.0 2:0.0 
1.0 1:0.0 2:0.0 
1.0 1:0.0 2:0.0 
1.0 1:0.0 2:0.0 
1.0 1:0.0 2:0.0 
1.0 1:0.0 2:0.0 
1.0 1:0.0 2:0.0 
1.0 1:0.0 2:0.0 
1.0 1:0.0 2:0.0 
1.0 1:0.0 2:0.0 
1.0 1:0.0 2:0.0 
1.0 1:0.0 2:0.0 
1.0 1:0.0 2:0.0 
1.0 1:0.0 2:0.0 
1.0 1:0.0 2:0.0 
1.0 1:0.0 2:0.0 
1.0 1:0.0 2:0.0 
1.0 1:0.0 2:0.0 
1.0 1:0.0 2:0.0 
1.0 1:0.0 2:0.0 
1.0 1:0.0 2:0.0 
1.0 1:0.0 2:0.0 
1.0 1:0.0 2:0.0 
1.0 1:0.0 2:0.0 
1.0 1:0.0 2:0.0 
1.0 1:0.0 2:0.0 
1.0 1:0.0 2:0.0 
1.0 1:0.0 2:0.0 
1.0 1:0.0 2:0.0 
1.0 1:0.0 2:0.0 
1.0 1:0.0 2:0.0 
1.0 1:0.0 2:0.0 
1.0 1:0.0 2:0.0 
1.0 1:0.0 2:0.0 
1.0 1:0.0 2:0.0 
1.0 1:0.0 2:0.0 
1.0 1:0.0 2:0.0 
1.0 1:0.0 2:0.0 
1.0 1:0.0 2:0.0 
1.0 1:0.0 2:0.0 
1.0 1:0.0 2:0.0 
1.0 1:0.0 2:0.0 
1.0 1:0.0 2:0.0 
1.0 1:0.0 2:0.0 
1.0 1:0.0 2:0.0 
1.0 1:0.0 2:0.0 
1.0 1:0.0 2:0.0 
1.0 1:0.0 2:0.0 
1.0 1:0.0 2:0.0 
1.0 1:0.0 2:0.0 
1.0 1:0.0 2:0.0 
1.0 1:0.0 2:0.0 
1.0 1:0.0 2:0.0 
1.0 1:0.0 2:0.0 
1.0 1:0.0 2:0.0 
1.0 1:0.0 2:0.0 
1.0 1:0.0 2:0.0 
1.0 1:0.0 2:0.0 
1.0 1:0.0 2:0.0 
1.0 1:0.0 2:0.0 
1.0 1:0.0 2:0.0 
1.0 1:0.0 2:0.0 
1.0 1:0.0 2:0.0 
1.0 1:0.0 2:0.0 
1.0 1:0.0 2:0.0 
1.0 1:0.0 2:0.0 
1.0 1:0.0 2:0.0 
1.0 1:0.0 2:0.0 
1.0 1:0.0 2:0.0 
1.0 1:0.0 2:0.0 
1.0 1:0.0 2:0.0 
1.0 1:0.0 2:0.0 
1.0 1:0.0 2:0.0 
1.0 1:0.0 2:0.0 
1.0 1:0.0 2:0.0 
1.0 1:0.0 2:0.0 
1.0 1:0.0 2:0.0 
1.0 1:0.0 2:0.0 
1.0 1:0.0 2:0.0 
1.0 1:0.0 2:0.0 
1.0 1:0.0 2:0.0 
1.0 1:0.0 2:0.0 
1.0 1:0.0 2:0.0 
1.0 1:0.0 2:0.0 
1.0 1:0.0 2:0.0 
1.0 1:0.0 2:0.0 
1.0 1:0.0 2:0.0 
1.0 1:0.0 2:0.0 
1.0 1:0.0 2:0.0 
1.0 1:0.0 2:0.0 
1.0 1:0.0 2:0.0 
1.0 1:0.0 2:0.0 
1.0 1:0.0 2:0.0 
1.0 1:0.0 2:0.0 
1.0 1:0.0 2:0.0 
1.0 1:0.0 2:0.0 
1.0 1:0.0 2:0.0 
1.0 1:0.0 2:0.0 
1.0 1:0.0 2:0.0 
1.0 1:0.0 2:0.0 
1.0 1:0.0 2:0.0 
1.0 1:0.0 2:0.0 
1.0 1:0.0 2:0.0 
1.0 1:0.0 2:0.0 
1.0 1:0.0 2:0.0 
1.0 1:0.0 2:0.0 
1.0 1:0.0 2:0.0 
1.0 1:0.0 2:0.0 
1.0 1:0.0 2:0.0 
1.0 1:0.0 2:0.0 
1.0 1:0.0 2:0.0 
1.0 1:0.0 2:0.0 
1.0 1:0.0 2:0.0 
1.0 1:0.0 2:0.0 
1.0 1:0.0 2:0.0 
1.0 1:0.0 2:0.0 
1.0 1:0.0 2:0.0 
1.0 1:0.0 2:0.0 
1.0 1:0.0 2:0.0 
1.0 1:0.0 2:0.0 
1.0 1:0.0 2:0.0 
1.0 1:0.0 2:0.0 
1.0 1:0.0 2:0.0 
1.0 1:0.0 2:0.0 
1.0 1:0.0 2:0.0 
1.0 1:0.0 2:0.0 
1.0 1:0.0 2:0.0 
1.0 1:0.0 2:0.0 
1.0 1:0.0 2:0.0 
1.0 1:0.0 2:0.0 
1.0 1:0.0 2:0.0 
1.0 1:0.0 2:0.0 
1.0 1:0.0 2:0.0 
1.0 1:0.0 2:0.0 
1.0 1:0.0 2:0.0 
1.0 1:0.0 2:0.0 
1.0 1:0.0 2:0.0 
1.0 1:0.0 2:0.0 
1.0 1:0.0 2:0.0 
1.0 1:0.0 2:0.0 
1.0 1:0.0 2:0.0 
1.0 1:0.0 2:0.0 
1.0 1:0.0 2:0.0 
1.0 1:0.0 2:0.0 
1.0 1:0.0 2:0.0 
1.0 1:0.0 2:0.0 
1.0 1:0.0 2:0.0 
1.0 1:0.0 2:0.0 
1.0 1:0.0 2:0.0 
1.0 1:0.0 2:0.0 
1.0 1:0.0 2:0.0 
1.0 1:0.0 2:0.0 
1.0 1:0.0 2:0.0 
1.0 1:0.0 2:0.0 
1.0 1:0.0 2:0.0 
1.0 1:0.0 2:0.0 
1.0 1:0.0 2:0.0 
1.0 1:0.0 2:0.0 
1.0 1:0.0 2:0.0 
1.0 1:0.0 2:0.0 
1.0 1:0.0 2:0.0 
1.0 1:0.0 2:0.0 
1.0 1:0.0 2:0.0 
1.0 1:0.0 2:0.0 
1.0 1:0.0 2:0.0 
1.0 1:0.0 2:0.0 
1.0 1:0.0 2:0.0 
1.0 1:0.0 2:0.0 
1.0 1:0.0 2:0.0 
1.0 1:0.0 2:0.0 
1.0 1:0.0 2:0.0 
1.0 1:0.0 2:0.0 
1.0 1:0.0 2:0.0 
1.0 1:0.0 2:0.0 
1.0 1:0.0 2:0.0 
1.0 1:0.0 2:0.0 
1.0 1:0.0 2:0.0 
1.0 1:0.0 2:0.0 
1.0 1:0.0 2:0.0 
1.0 1:0.0 2:0.0 
1.0 1:0.0 2:0.0 
1.0 1:0.0 2:0.0 
1.0 1:0.0 2:0.0 
1.0 1:0.0 2:0.0 
1.0 1:0.0 2:0.0 
1.0 1:0.0 2:0.0 
1.0 1:0.0 2:0.0 
1.0 1:0.0 2:0.0 
1.0 1:0.0 2:0.0 
1.0 1:0.0 2:0.0 
1.0 1:0.0 2:0.0 
1.0 1:0.0 2:0.0 
1.0 1:0.0 2:0.0 
1.0 1:0.0 2:0.0 
1.0 1:0.0 2:0.0 
1.0 1:0.0 2:0.0 
1.0 1:0.0 2:0.0 
1.0 1:0.0 2:0.0 
1.0 1:0.0 2:0.0 
1.0 1:0.0 2:0.0 
1.0 1:0.0 2:0.0 
1.0 1:0.0 2:0.0 
1.0 1:0.0 2:0.0 
1.0 1:0.0 2:0.0 
1.0 1:0.0 2:0.0 
1.0 1:0.0 2:0.0 
1.0 1:0.0 2:0.0 
1.0 1:0.0 2:0.0 
1.0 1:0.0 2:0.0 
1.0 1:0.0 2:0.0 
1.0 1:0.0 2:0.0 
1.0 1:0.0 2:0.0 
1.0 1:0.0 2:0.0 
1.0 1:0.0 2:0.0 
1.0 1:0.0 2:0.0 
1.0 1:0.0 2:0.0 
1.0 1:0.0 2:0.0 
1.0 1:0.0 2:0.0 
1.0 1:0.0 2:0.0 
1.0 1:0.0 2:0.0 
1.0 1:0.0 2:0.0 
1.0 1:0.0 2:0.0 
1.0 1:0.061662641597820735 2:1.0 
1.0 1:0.0 2:0.0 
1.0 1:0.0 2:0.0 
1.0 1:0.0 2:0.0 
1.0 1:0.0 2:0.0 
1.0 1:0.0 2:0.0 
1.0 1:0.0 2:0.0 
1.0 1:0.0 2:0.0 
1.0 1:0.0 2:0.0 
1.0 1:0.0 2:0.0 
1.0 1:0.0 2:0.0 
1.0 1:0.0 2:0.0 
1.0 1:0.0 2:0.0 
1.0 1:0.0 2:0.0 
1.0 1:0.0 2:0.0 
1.0 1:0.0 2:0.0 
1.0 1:0.0 2:0.0 
1.0 1:0.0 2:0.0 
1.0 1:0.0 2:0.0 
1.0 1:0.0 2:0.0 
1.0 1:0.0 2:0.0 
1.0 1:0.0 2:0.0 
1.0 1:0.0 2:0.0 
1.0 1:0.0 2:0.0 
1.0 1:0.0 2:0.0 
1.0 1:0.0 2:0.0 
1.0 1:0.0 2:0.0 
1.0 1:0.0 2:0.0 
1.0 1:0.0 2:0.0 
1.0 1:0.0 2:0.0 
1.0 1:0.0 2:0.0 
1.0 1:0.0 2:0.0 
1.0 1:0.0 2:0.0 
1.0 1:0.0 2:0.0 
1.0 1:0.0 2:0.0 
1.0 1:0.0 2:0.0 
1.0 1:0.0 2:0.0 
1.0 1:0.0 2:0.0 
1.0 1:0.0 2:0.0 
1.0 1:0.0 2:0.0 
1.0 1:0.0 2:0.0 
1.0 1:0.0 2:0.0 
1.0 1:0.0 2:0.0 
1.0 1:0.0 2:0.0 
1.0 1:0.0 2:0.0 
1.0 1:0.0 2:0.0 
1.0 1:0.0 2:0.0 
1.0 1:0.0 2:0.0 
1.0 1:0.0 2:0.0 
1.0 1:0.0 2:0.0 
1.0 1:0.0 2:0.0 
1.0 1:0.0 2:0.0 
1.0 1:0.0 2:0.0 
1.0 1:0.0 2:0.0 
1.0 1:0.0 2:0.0 
1.0 1:0.0 2:0.0 
1.0 1:0.0 2:0.0 
1.0 1:0.0 2:0.0 
1.0 1:0.0 2:0.0 
1.0 1:0.0 2:0.0 
1.0 1:0.0 2:0.0 
1.0 1:0.0 2:0.0 
1.0 1:0.0 2:0.0 
1.0 1:0.0 2:0.0 
1.0 1:0.0 2:0.0 
1.0 1:0.0 2:0.0 
1.0 1:0.0 2:0.0 
1.0 1:0.0 2:0.0 
1.0 1:0.0 2:0.0 
1.0 1:0.0 2:0.0 
1.0 1:0.0 2:0.0 
1.0 1:0.0 2:0.0 
1.0 1:0.0 2:0.0 
1.0 1:0.0 2:0.0 
1.0 1:0.0 2:0.0 
1.0 1:0.0 2:0.0 
1.0 1:0.0 2:0.0 
1.0 1:0.0 2:0.0 
1.0 1:0.0 2:0.0 
1.0 1:0.0 2:0.0 
1.0 1:0.0 2:0.0 
1.0 1:0.0 2:0.0 
1.0 1:0.0 2:0.0 
1.0 1:0.0 2:0.0 
1.0 1:0.0 2:0.0 
1.0 1:0.0 2:0.0 
1.0 1:0.0 2:0.0 
1.0 1:0.0 2:0.0 
1.0 1:0.0 2:0.0 
1.0 1:0.0 2:0.0 
1.0 1:0.0 2:0.0 
1.0 1:0.0 2:0.0 
1.0 1:0.0 2:0.0 
1.0 1:0.0 2:0.0 
1.0 1:0.0 2:0.0 
1.0 1:0.0 2:0.0 
1.0 1:0.0 2:0.0 
1.0 1:0.0 2:0.0 
1.0 1:0.0 2:0.0 
1.0 1:0.0 2:0.0 
1.0 1:0.0 2:0.0 
1.0 1:0.0 2:0.0 
1.0 1:0.0 2:0.0 
1.0 1:0.0 2:0.0 
1.0 1:0.0 2:0.0 
1.0 1:0.0 2:0.0 
1.0 1:0.0 2:0.0 
1.0 1:0.0 2:0.0 
1.0 1:0.0 2:0.0 
1.0 1:0.0 2:0.0 
1.0 1:0.0 2:0.0 
1.0 1:0.0 2:0.0 
1.0 1:0.0 2:0.0 
1.0 1:0.0 2:0.0 
1.0 1:0.0 2:0.0 
1.0 1:0.0 2:0.0 
1.0 1:0.0 2:0.0 
1.0 1:0.0 2:0.0 
1.0 1:0.0 2:0.0 
1.0 1:0.0 2:0.0 
1.0 1:0.0 2:0.0 
1.0 1:0.0 2:0.0 
1.0 1:0.0 2:0.0 
1.0 1:0.0 2:0.0 
1.0 1:0.0 2:0.0 
1.0 1:0.0 2:0.0 
1.0 1:0.0 2:0.0 
1.0 1:0.0 2:0.0 
1.0 1:0.0 2:0.0 
1.0 1:0.0 2:0.0 
1.0 1:0.0 2:0.0 
1.0 1:0.0 2:0.0 
1.0 1:0.0 2:0.0 
1.0 1:0.0 2:0.0 
1.0 1:0.0 2:0.0 
1.0 1:0.0 2:0.0 
1.0 1:0.0 2:0.0 
1.0 1:0.0 2:0.0 
1.0 1:0.0 2:0.0 
1.0 1:0.0 2:0.0 
1.0 1:0.0 2:0.0 
1.0 1:0.0 2:0.0 
1.0 1:0.0 2:0.0 
1.0 1:0.0 2:0.0 
1.0 1:0.0 2:0.0 
1.0 1:0.0 2:0.0 
1.0 1:0.0 2:0.0 
1.0 1:0.0 2:0.0 
1.0 1:0.0 2:0.0 
1.0 1:0.0 2:0.0 
1.0 1:0.0 2:0.0 
1.0 1:0.0 2:0.0 
1.0 1:0.0 2:0.0 
1.0 1:0.0 2:0.0 
1.0 1:0.0 2:0.0 
1.0 1:0.0 2:0.0 
1.0 1:0.0 2:0.0 
1.0 1:0.0 2:0.0 
1.0 1:0.0 2:0.0 
1.0 1:0.0 2:0.0 
1.0 1:0.0 2:0.0 
1.0 1:0.0 2:0.0 
1.0 1:0.0 2:0.0 
1.0 1:0.0 2:0.0 
1.0 1:0.0 2:0.0 
1.0 1:0.0 2:0.0 
1.0 1:0.0 2:0.0 
1.0 1:0.0 2:0.0 
1.0 1:0.0 2:0.0 
1.0 1:0.0 2:0.0 
1.0 1:0.0 2:0.0 
1.0 1:0.0 2:0.0 
1.0 1:0.0 2:0.0 
1.0 1:0.0 2:0.0 
1.0 1:0.0 2:0.0 
1.0 1:0.0 2:0.0 
1.0 1:0.0 2:0.0 
1.0 1:0.0 2:0.0 
1.0 1:0.0 2:0.0 
1.0 1:0.0 2:0.0 
1.0 1:0.0 2:0.0 
1.0 1:0.0 2:0.0 
1.0 1:0.0 2:0.0 
1.0 1:0.0 2:0.0 
1.0 1:0.0 2:0.0 
1.0 1:0.0 2:0.0 
1.0 1:0.0 2:0.0 
1.0 1:0.0 2:0.0 
1.0 1:0.0 2:0.0 
1.0 1:0.0 2:0.0 
1.0 1:0.0 2:0.0 
1.0 1:0.0 2:0.0 
1.0 1:0.0 2:0.0 
1.0 1:0.0 2:0.0 
1.0 1:0.0 2:0.0 
1.0 1:0.0 2:0.0 
1.0 1:0.0 2:0.0 
1.0 1:0.0 2:0.0 
1.0 1:0.0 2:0.0 
1.0 1:0.0 2:0.0 
1.0 1:0.0 2:0.0 
1.0 1:0.0 2:0.0 
1.0 1:0.0 2:0.0 
1.0 1:0.0 2:0.0 
1.0 1:0.0 2:0.0 
1.0 1:0.0 2:0.0 
1.0 1:0.0 2:0.0 
1.0 1:0.0 2:0.0 
1.0 1:0.0 2:0.0 
1.0 1:0.0 2:0.0 
1.0 1:0.0 2:0.0 
1.0 1:0.0 2:0.0 
1.0 1:0.0 2:0.0 
1.0 1:0.0 2:0.0 
1.0 1:0.0 2:0.0 
1.0 1:0.0 2:0.0 
1.0 1:0.0 2:0.0 
1.0 1:0.0 2:0.0 
1.0 1:0.0 2:0.0 
1.0 1:0.0 2:0.0 
1.0 1:0.0 2:0.0 
1.0 1:0.0 2:0.0 
1.0 1:0.0 2:0.0 
1.0 1:0.0 2:0.0 
1.0 1:0.0 2:0.0 
1.0 1:0.0 2:0.0 
1.0 1:0.0 2:0.0 
1.0 1:0.0 2:0.0 
1.0 1:0.0 2:0.0 
1.0 1:0.0 2:0.0 
1.0 1:0.0 2:0.0 
1.0 1:0.0 2:0.0 
1.0 1:0.0 2:0.0 
1.0 1:0.0 2:0.0 
1.0 1:0.0 2:0.0 
1.0 1:0.0 2:0.0 
1.0 1:0.0 2:0.0 
1.0 1:0.0 2:0.0 
1.0 1:0.0 2:0.0 
1.0 1:0.0 2:0.0 
1.0 1:0.0 2:0.0 
1.0 1:0.0 2:0.0 
1.0 1:0.0 2:0.0 
1.0 1:0.0 2:0.0 
1.0 1:0.0 2:0.0 
1.0 1:0.0 2:0.0 
1.0 1:0.0 2:0.0 
1.0 1:0.0 2:0.0 
1.0 1:0.0 2:0.0 
1.0 1:0.0 2:0.0 
1.0 1:0.0 2:0.0 
1.0 1:0.0 2:0.0 
1.0 1:0.0 2:0.0 
1.0 1:0.0 2:0.0 
1.0 1:0.0 2:0.0 
1.0 1:0.0 2:0.0 
1.0 1:0.0 2:0.0 
1.0 1:0.0 2:0.0 
1.0 1:0.0 2:0.0 
1.0 1:0.0 2:0.0 
1.0 1:0.0 2:0.0 
1.0 1:0.0 2:0.0 
1.0 1:0.0 2:0.0 
1.0 1:0.0 2:0.0 
1.0 1:0.0 2:0.0 
1.0 1:0.0 2:0.0 
1.0 1:0.0 2:0.0 
1.0 1:0.0 2:0.0 
1.0 1:0.0 2:0.0 
1.0 1:0.0 2:0.0 
1.0 1:0.0 2:0.0 
1.0 1:0.0 2:0.0 
1.0 1:0.0 2:0.0 
1.0 1:0.0 2:0.0 
1.0 1:0.0 2:0.0 
1.0 1:0.0 2:0.0 
1.0 1:0.0 2:0.0 
1.0 1:0.0 2:0.0 
1.0 1:0.0 2:0.0 
1.0 1:0.0 2:0.0 
1.0 1:0.0 2:0.0 
1.0 1:0.0 2:0.0 
1.0 1:0.0 2:0.0 
1.0 1:0.0 2:0.0 
1.0 1:0.0 2:0.0 
1.0 1:0.0 2:0.0 
1.0 1:0.0 2:0.0 
1.0 1:0.0 2:0.0 
1.0 1:0.0 2:0.0 
1.0 1:0.0 2:0.0 
1.0 1:0.0 2:0.0 
1.0 1:0.0 2:0.0 
1.0 1:0.0 2:0.0 
1.0 1:0.0 2:0.0 
1.0 1:0.0 2:0.0 
1.0 1:0.0 2:0.0 
1.0 1:0.0 2:0.0 
1.0 1:0.0 2:0.0 
1.0 1:0.0 2:0.0 
1.0 1:0.0 2:0.0 
1.0 1:0.0 2:0.0 
1.0 1:0.0 2:0.0 
1.0 1:0.0 2:0.0 
1.0 1:0.0 2:0.0 
1.0 1:0.0 2:0.0 
1.0 1:0.0 2:0.0 
1.0 1:0.0 2:0.0 
1.0 1:0.0 2:0.0 
1.0 1:0.0 2:0.0 
1.0 1:0.0 2:0.0 
1.0 1:0.0 2:0.0 
1.0 1:0.0 2:0.0 
1.0 1:0.0 2:0.0 
1.0 1:0.0 2:0.0 
1.0 1:0.0 2:0.0 
1.0 1:0.0 2:0.0 
1.0 1:0.0 2:0.0 
1.0 1:0.0 2:0.0 
1.0 1:0.0 2:0.0 
1.0 1:0.0 2:0.0 
1.0 1:0.0 2:0.0 
1.0 1:0.0 2:0.0 
1.0 1:0.0 2:0.0 
1.0 1:0.0 2:0.0 
1.0 1:0.0 2:0.0 
1.0 1:0.0 2:0.0 
1.0 1:0.0 2:0.0 
1.0 1:0.0 2:0.0 
1.0 1:0.0 2:0.0 
1.0 1:0.0 2:0.0 
1.0 1:0.0 2:0.0 
1.0 1:0.0 2:0.0 
1.0 1:0.0 2:0.0 
1.0 1:0.0 2:0.0 
1.0 1:0.0 2:0.0 
1.0 1:0.0 2:0.0 
1.0 1:0.0 2:0.0 
1.0 1:0.0 2:0.0 
1.0 1:0.0 2:0.0 
1.0 1:0.0 2:0.0 
1.0 1:0.0 2:0.0 
1.0 1:0.0 2:0.0 
1.0 1:0.0 2:0.0 
1.0 1:0.0 2:0.0 
1.0 1:0.0 2:0.0 
1.0 1:0.0 2:0.0 
1.0 1:0.0 2:0.0 
1.0 1:0.0 2:0.0 
1.0 1:0.0 2:0.0 
1.0 1:0.0 2:0.0 
1.0 1:0.0 2:0.0 
1.0 1:0.0 2:0.0 
1.0 1:0.0 2:0.0 
1.0 1:0.0 2:0.0 
1.0 1:0.0 2:0.0 
1.0 1:0.0 2:0.0 
1.0 1:0.0 2:0.0 
1.0 1:0.0 2:0.0 
1.0 1:0.0 2:0.0 
1.0 1:0.0 2:0.0 
1.0 1:0.0 2:0.0 
1.0 1:0.0 2:0.0 
1.0 1:0.0 2:0.0 
1.0 1:0.0 2:0.0 
1.0 1:0.0 2:0.0 
1.0 1:0.0 2:0.0 
1.0 1:0.0 2:0.0 
1.0 1:0.0 2:0.0 
1.0 1:0.0 2:0.0 
1.0 1:0.0 2:0.0 
1.0 1:0.0 2:0.0 
1.0 1:0.0 2:0.0 
1.0 1:0.0 2:0.0 
1.0 1:0.0 2:0.0 
1.0 1:0.0 2:0.0 
1.0 1:0.0 2:0.0 
1.0 1:0.0 2:0.0 
1.0 1:0.0 2:0.0 
1.0 1:0.0 2:0.0 
1.0 1:0.0 2:0.0 
1.0 1:0.0 2:0.0 
1.0 1:0.0 2:0.0 
1.0 1:0.0 2:0.0 
1.0 1:0.0 2:0.0 
1.0 1:0.0 2:0.0 
1.0 1:0.0 2:0.0 
1.0 1:0.0 2:0.0 
1.0 1:0.0 2:0.0 
1.0 1:0.0 2:0.0 
1.0 1:0.0 2:0.0 
1.0 1:0.0 2:0.0 
1.0 1:0.0 2:0.0 
1.0 1:0.0 2:0.0 
1.0 1:0.0 2:0.0 
1.0 1:0.0 2:0.0 
1.0 1:0.0 2:0.0 
1.0 1:0.0 2:0.0 
1.0 1:0.0 2:0.0 
1.0 1:0.0 2:0.0 
1.0 1:0.0 2:0.0 
1.0 1:0.0 2:0.0 
1.0 1:0.0 2:0.0 
1.0 1:0.0 2:0.0 
1.0 1:0.0 2:0.0 
1.0 1:0.0 2:0.0 
1.0 1:0.0 2:0.0 
1.0 1:0.0 2:0.0 
1.0 1:0.0 2:0.0 
1.0 1:0.0 2:0.0 
1.0 1:0.0 2:0.0 
1.0 1:0.0 2:0.0 
1.0 1:0.0 2:0.0 
1.0 1:0.0 2:0.0 
1.0 1:0.0 2:0.0 
1.0 1:0.0 2:0.0 
1.0 1:0.0 2:0.0 
1.0 1:0.0 2:0.0 
1.0 1:0.0 2:0.0 
1.0 1:0.0 2:0.0 
1.0 1:0.0 2:0.0 
1.0 1:0.0 2:0.0 
1.0 1:0.0 2:0.0 
1.0 1:0.0 2:0.0 
1.0 1:0.0 2:0.0 
1.0 1:0.0 2:0.0 
1.0 1:0.0 2:0.0 
1.0 1:0.0 2:0.0 
1.0 1:0.0 2:0.0 
1.0 1:0.0 2:0.0 
1.0 1:0.0 2:0.0 
1.0 1:0.0 2:0.0 
1.0 1:0.0 2:0.0 
1.0 1:0.0 2:0.0 
1.0 1:0.0 2:0.0 
1.0 1:0.0 2:0.0 
1.0 1:0.0 2:0.0 
1.0 1:0.0 2:0.0 
1.0 1:0.0 2:0.0 
1.0 1:0.0 2:0.0 
1.0 1:0.0 2:0.0 
1.0 1:0.0 2:0.0 
1.0 1:0.0 2:0.0 
1.0 1:0.0 2:0.0 
1.0 1:0.0 2:0.0 
1.0 1:0.0 2:0.0 
1.0 1:0.0 2:0.0 
1.0 1:0.0 2:0.0 
1.0 1:0.0 2:0.0 
1.0 1:0.0 2:0.0 
1.0 1:0.0 2:0.0 
1.0 1:0.0 2:0.0 
1.0 1:0.0 2:0.0 
1.0 1:0.0 2:0.0 
1.0 1:0.0 2:0.0 
1.0 1:0.0 2:0.0 
1.0 1:0.0 2:0.0 
1.0 1:0.0 2:0.0 
1.0 1:0.0 2:0.0 
1.0 1:0.0 2:0.0 
1.0 1:0.0 2:0.0 
1.0 1:0.0 2:0.0 
1.0 1:0.0 2:0.0 
1.0 1:0.0 2:0.0 
1.0 1:0.0 2:0.0 
1.0 1:0.0 2:0.0 
1.0 1:0.0 2:0.0 
1.0 1:0.0 2:0.0 
1.0 1:0.0 2:0.0 
1.0 1:0.0 2:0.0 
1.0 1:0.0 2:0.0 
1.0 1:0.0 2:0.0 
1.0 1:0.0 2:0.0 
1.0 1:0.0 2:0.0 
1.0 1:0.0 2:0.0 
1.0 1:0.0 2:0.0 
1.0 1:0.0 2:0.0 
1.0 1:0.0 2:0.0 
1.0 1:0.0 2:0.0 
1.0 1:0.0 2:0.0 
1.0 1:0.0 2:0.0 
1.0 1:0.0 2:0.0 
1.0 1:0.0 2:0.0 
1.0 1:0.0 2:0.0 
1.0 1:0.0 2:0.0 
1.0 1:0.0 2:0.0 
1.0 1:0.0 2:0.0 
1.0 1:0.0 2:0.0 
1.0 1:0.0 2:0.0 
1.0 1:0.0 2:0.0 
1.0 1:0.0 2:0.0 
1.0 1:0.0 2:0.0 
1.0 1:0.0 2:0.0 
1.0 1:0.0 2:0.0 
1.0 1:0.0 2:0.0 
1.0 1:0.0 2:0.0 
1.0 1:0.0 2:0.0 
1.0 1:0.0 2:0.0 
1.0 1:0.0 2:0.0 
1.0 1:0.0 2:0.0 
1.0 1:0.0 2:0.0 
1.0 1:0.0 2:0.0 
1.0 1:0.0 2:0.0 
1.0 1:0.0 2:0.0 
1.0 1:0.0 2:0.0 
1.0 1:0.0 2:0.0 
1.0 1:0.0 2:0.0 
1.0 1:0.0 2:0.0 
1.0 1:0.0 2:0.0 
1.0 1:0.0 2:0.0 
1.0 1:0.0 2:0.0 
1.0 1:0.0 2:0.0 
1.0 1:0.0 2:0.0 
1.0 1:0.0 2:0.0 
1.0 1:0.0 2:0.0 
1.0 1:0.0 2:0.0 
1.0 1:0.0 2:0.0 
1.0 1:0.0 2:0.0 
1.0 1:0.0 2:0.0 
1.0 1:0.0 2:0.0 
1.0 1:0.0 2:0.0 
1.0 1:0.0 2:0.0 
1.0 1:0.0 2:0.0 
1.0 1:0.0 2:0.0 
1.0 1:0.0 2:0.0 
1.0 1:0.0 2:0.0 
1.0 1:0.0 2:0.0 
1.0 1:0.0 2:0.0 
1.0 1:0.0 2:0.0 
1.0 1:0.0 2:0.0 
1.0 1:0.0 2:0.0 
1.0 1:0.0 2:0.0 
1.0 1:0.0 2:0.0 
1.0 1:0.0 2:0.0 
1.0 1:0.0 2:0.0 
1.0 1:0.0 2:0.0 
1.0 1:0.0 2:0.0 
1.0 1:0.0 2:0.0 
1.0 1:0.0 2:0.0 
1.0 1:0.0 2:0.0 
1.0 1:0.0 2:0.0 
1.0 1:0.0 2:0.0 
1.0 1:0.0 2:0.0 
1.0 1:0.0 2:0.0 
1.0 1:0.0 2:0.0 
1.0 1:0.0 2:0.0 
1.0 1:0.0 2:0.0 
1.0 1:0.0 2:0.0 
1.0 1:0.0 2:0.0 
1.0 1:0.0 2:0.0 
1.0 1:0.0 2:0.0 
1.0 1:0.0 2:0.0 
1.0 1:0.0 2:0.0 
1.0 1:0.0 2:0.0 
1.0 1:0.0 2:0.0 
1.0 1:0.0 2:0.0 
1.0 1:0.0 2:0.0 
1.0 1:0.0 2:0.0 
1.0 1:0.0 2:0.0 
1.0 1:0.0 2:0.0 
1.0 1:0.0 2:0.0 
1.0 1:0.0 2:0.0 
1.0 1:0.0 2:0.0 
1.0 1:0.0 2:0.0 
1.0 1:0.0 2:0.0 
1.0 1:0.0 2:0.0 
1.0 1:0.0 2:0.0 
1.0 1:0.0 2:0.0 
1.0 1:0.0 2:0.0 
1.0 1:0.0 2:0.0 
1.0 1:0.0 2:0.0 
1.0 1:0.0 2:0.0 
1.0 1:0.0 2:0.0 
1.0 1:0.0 2:0.0 
1.0 1:0.0 2:0.0 
1.0 1:0.0 2:0.0 
1.0 1:0.0 2:0.0 
1.0 1:0.0 2:0.0 
1.0 1:0.0 2:0.0 
1.0 1:0.0 2:0.0 
1.0 1:0.0 2:0.0 
1.0 1:0.0 2:0.0 
1.0 1:0.0 2:0.0 
1.0 1:0.0 2:0.0 
