svm_type c_svc
kernel_type rbf
gamma 0.25
nr_class 2
total_sv 15
rho 0.34546274397073967
label 1 -1
probA -3.4972555907552643
probB -0.4563454921644733
nr_sv 4 11
SV
1.0 1:0.0 2:1.0 3:0.4234495146037867 4:15.0 
1.0 1:0.0 2:1.0000000000000002 3:0.17214532471704128 4:9.0 
0.7149101240836004 1:0.0 2:1.0000000000000002 3:0.07268875754271968 4:13.0 
0.697307708331983 1:0.0 2:1.0 3:0.19932145082650912 4:11.0 
-0.43919204824520736 1:14.0 2:0.25387913423096475 3:0.1015615377584917 4:7.0 
-0.3167729205942649 1:12.0 2:0.10016708449412667 3:0.046333432630846036 4:9.0 
-0.24781498521325157 1:10.0 2:0.09173411178551379 3:0.16453672529221414 4:11.0 
-0.5429827303736094 1:14.0 2:0.25387913423096475 3:0.17609517534152228 4:12.0 
-0.19940823926609488 1:13.0 2:0.13497638119975428 3:0.02582445546619279 4:7.0 
-0.025925110205383944 1:13.0 2:0.12361284651454937 3:0.10982329517062171 4:11.0 
-0.49521465879275806 1:12.0 2:0.10016708449412667 3:0.4378675138653186 4:15.0 
-0.20229868984364197 1:9.0 2:0.10567049305145204 3:0.20994117418446698 4:10.0 
-0.47608769640230275 1:10.0 2:0.09173411178551379 3:0.34945776210600143 4:14.0 
-0.20019087323532797 1:13.0 2:0.12361284651454937 3:0.13421984345401783 4:10.0 
-0.2663298802437409 1:9.0 2:0.10567049305145204 3:0.043541822030146844 4:10.0 
