svm_type c_svc
kernel_type rbf
gamma 0.25
nr_class 2
total_sv 4
rho 0.6591019900276507
label 1 -1
probA 4.204615518431063
probB 3.5123538408354302
nr_sv 1 3
SV
1.0 1:0.0 2:1.0 3:0.19932145082650912 4:11.0 
-0.33535636122344836 1:10.0 2:0.09173411178551379 3:0.34945776210600143 4:14.0 
-0.3348457556831941 1:13.0 2:0.12361284651454937 3:0.13421984345401783 4:10.0 
-0.32979788309335767 1:9.0 2:0.10567049305145204 3:0.043541822030146844 4:10.0 
