svm_type c_svc
kernel_type rbf
gamma 0.25
nr_class 2
total_sv 4
rho 0.665127126066276
label 1 -1
probA 4.168105533285275
probB 3.4751353687872784
nr_sv 1 3
SV
1.0 1:0.0 2:1.0000000000000002 3:0.07268875754271968 4:13.0 
-0.3344875919959631 1:12.0 2:0.10016708449412667 3:0.4378675138653186 4:15.0 
-0.3323104629491861 1:13.0 2:0.13497638119975428 3:0.17797609873674827 4:8.0 
-0.3332019450548507 1:9.0 2:0.10567049305145204 3:0.20994117418446698 4:10.0 
