svm_type c_svc
kernel_type rbf
gamma 0.5
nr_class 2
total_sv 1191
rho -0.12259788498290014
label 1 -1
probA -4.136746393957798
probB 0.8804463201340521
nr_sv 649 542
SV
1.0 1:0.24660968695685898 2:11.0 
1.0 1:0.19881750555664923 2:32.0 
1.0 1:0.2644467635240269 2:3.0 
1.0 1:0.15101500760709954 2:5.0 
1.0 1:0.0644227914208309 2:3.0 
1.0 1:0.16684279230457194 2:24.0 
1.0 1:0.06154574548966636 2:1.0 
1.0 1:0.24954235660745017 2:5.0 
1.0 1:0.27168755054560384 2:52.0 
1.0 1:0.09812778536500866 2:6.0 
1.0 1:0.250220163067745 2:11.0 
1.0 1:0.3844537689435693 2:66.0 
1.0 1:0.0 2:0.0 
1.0 1:0.26364887508105 2:42.0 
1.0 1:0.0 2:0.0 
1.0 1:0.27398853892328073 2:71.0 
1.0 1:0.12890873930138536 2:24.0 
1.0 1:0.2591307395389587 2:23.0 
1.0 1:0.2862674795375733 2:71.0 
1.0 1:0.25146082250824975 2:38.0 
1.0 1:0.2579238037983036 2:20.0 
1.0 1:0.2610609133634027 2:80.0 
1.0 1:0.27212400309857027 2:34.0 
1.0 1:0.4560737814793552 2:14.0 
1.0 1:0.20074106269860925 2:70.0 
1.0 1:0.23296249913806844 2:13.0 
0.8778884087161118 1:0.2544177583191577 2:115.0 
1.0 1:0.2905649556005914 2:26.0 
1.0 1:0.21074993392022648 2:29.0 
1.0 1:0.3661253383758703 2:32.0 
1.0 1:0.06933752452815363 2:2.0 
1.0 1:0.26901772598907703 2:24.0 
1.0 1:0.0 2:0.0 
1.0 1:0.09083768323888668 2:3.0 
1.0 1:0.17620193273403853 2:40.0 
1.0 1:0.09729732630620916 2:1.0 
1.0 1:0.17571198121690243 2:39.0 
1.0 1:0.17918710044277342 2:19.0 
1.0 1:0.0 2:0.0 
1.0 1:0.14480712769588663 2:14.0 
1.0 1:0.03411945625947578 2:8.0 
1.0 1:0.015499685165842568 2:1.0 
1.0 1:0.2512699419684951 2:6.0 
1.0 1:0.26247630985700043 2:44.0 
1.0 1:0.25322445051574977 2:13.0 
1.0 1:0.28980095173388337 2:35.0 
1.0 1:0.15241289730010193 2:4.0 
1.0 1:0.11561146751289911 2:8.0 
1.0 1:0.41771493363818885 2:32.0 
1.0 1:0.20142618714909527 2:13.0 
1.0 1:0.15331034998544327 2:23.0 
1.0 1:0.19613673449070534 2:5.0 
1.0 1:0.196505744781154 2:72.0 
1.0 1:0.21945093393781417 2:22.0 
1.0 1:0.06930520620576447 2:5.0 
1.0 1:0.0989565616659599 2:3.0 
1.0 1:0.2303932535288566 2:32.0 
1.0 1:0.06171954827142899 2:14.0 
1.0 1:0.19902283334918383 2:9.0 
1.0 1:0.21416136922934387 2:51.0 
1.0 1:0.10072787050317251 2:1.0 
1.0 1:0.0 2:0.0 
1.0 1:0.14402095496370335 2:43.0 
1.0 1:0.12811395556557303 2:15.0 
1.0 1:0.216661812307366 2:4.0 
1.0 1:0.12803141422757522 2:4.0 
1.0 1:0.015767396124594983 2:3.0 
1.0 1:0.2413443787484609 2:15.0 
1.0 1:0.13363062095621217 2:2.0 
1.0 1:0.2507242875848462 2:22.0 
1.0 1:0.23108538429920722 2:32.0 
1.0 1:0.11972912094634425 2:16.0 
0.010828688655452631 0:0.252655 1:11.318679 
0.16407851478485588 0:0.244786 1:9.815242 
0.03871887573752335 0:0.250164 1:11.0 
0.026031598570992975 0:0.240778 1:11.110243 
0.008379690369745554 0:0.245613 1:11.148096 
0.2966937057665287 0:0.203398 1:33.527641 
0.2755057507955542 0:0.248795 1:4.357615 
0.002956214130389351 0:0.265329 1:46.309345 
0.2106900932178965 0:0.270771 1:49.08309 
0.09415150690671314 0:0.26998 1:43.652667 
0.002519101375416406 0:0.268459 1:49.901161 
0.01409011861747137 0:0.269201 1:49.725944 
0.2554961087253237 0:0.268953 1:44.5511 
0.03443167683806152 0:0.265416 1:47.495074 
0.2752834169472439 0:0.269995 1:42.38986 
0.09326849810255233 0:0.255522 1:46.997741 
0.01278420912705066 0:0.271669 1:48.668103 
0.07065182848021465 0:0.26342 1:47.099766 
0.3137376244443803 0:0.150637 1:51.25821 
0.26331839556909353 0:0.270174 1:45.867483 
0.30832934143688684 0:0.27149 1:50.126736 
0.0187757297875042 0:0.26992 1:43.44119 
0.12203204808527725 0:0.201854 1:11.610432 
0.303820212633908 0:0.244662 1:10.184045 
0.15573539252734991 0:0.251434 1:11.288599 
0.04038406112158607 0:0.371427 1:68.804664 
0.7639553512682586 0:0.293199 1:62.260129 
0.20819211917375272 0:0.381745 1:70.035747 
0.45946270071894874 0:0.273934 1:55.415523 
0.1976880201712672 0:0.295259 1:64.070048 
0.5175861455440803 0:0.339867 1:53.919977 
0.7584580240952131 0:0.344176 1:58.281127 
0.20433415159785087 0:0.381655 1:68.508642 
0.28153648216450083 0:0.369834 1:56.479765 
0.320732961121373 0:0.370719 1:64.89217 
0.16328272019957316 0:0.374226 1:67.115011 
0.17371822421080155 0:0.379596 1:56.774095 
0.22832479973929362 0:0.241162 1:67.976828 
1.0 
1.0 
1.0 
1.0 
1.0 
1.0 
1.0 
1.0 
1.0 
1.0 
1.0 
1.0 
1.0 
1.0 0:0.013871 1:0.105741 
1.0 
1.0 
1.0 
1.0 
1.0 
1.0 
1.0 
1.0 0:0.003487 1:0.015161 
1.0 
1.0 
1.0 
1.0 
1.0 
1.0 
1.0 
1.0 
1.0 
1.0 
1.0 
0.053125748466036314 0:0.257768 1:39.625205 
1.0 
1.0 
1.0 
1.0 
1.0 
1.0 
1.0 
1.0 
1.0 
1.0 
1.0 
1.0 
1.0 
1.0 
1.0 
1.0 
1.0 
1.0 
1.0 
1.0 
1.0 
1.0 
1.0 
1.0 
1.0 
1.0 
1.0 
1.0 
1.0 
1.0 
1.0 
1.0 
1.0 
1.0 
1.0 
1.0 
1.0 
1.0 
0.34398894049912937 0:0.269143 1:79.881247 
0.04379440832613925 0:0.263674 1:78.884772 
0.07734354153184561 0:0.376539 1:67.516931 
0.03423246196339858 0:0.135947 1:23.067354 
0.24164790503944572 0:0.131208 1:24.0 
0.0655994267237328 0:0.27798 1:74.670076 
0.07371418624221916 0:0.369148 1:68.942647 
0.007932190174858989 0:0.273102 1:75.09974 
0.035311221815194915 0:0.260723 1:40.871446 
0.08250602188960889 0:0.263349 1:41.349916 
0.09264887181242312 0:0.283142 1:36.917533 
9.454082803745349E-4 0:0.256496 1:20.216067 
0.003315901966473081 0:0.180443 1:19.563603 
0.1631699299254662 0:0.258357 1:20.731098 
0.014765345668423354 0:0.257972 1:20.492419 
0.00933459554986019 0:0.286424 1:76.491955 
0.18447651152116443 0:0.278331 1:73.213808 
0.09800924658399612 0:0.206202 1:74.00271 
0.034540498847002 0:0.262914 1:67.130799 
0.03993440948701617 0:0.280117 1:74.394829 
0.11455182255570705 0:0.204938 1:77.901947 
0.28346759015139017 0:0.206192 1:72.538795 
0.31704380091008943 0:0.27006 1:75.845258 
0.01767789651251752 0:0.271247 1:77.166819 
0.015532402550464397 0:0.199789 1:33.877134 
0.0034693100041318977 0:0.197834 1:70.838421 
0.06399512793564652 0:0.198329 1:70.531659 
0.237376816661959 0:0.214931 1:69.61376 
0.14655148234021256 0:0.24381 1:66.491318 
0.7583430937038993 0:0.223946 1:100.443509 
0.5948518705023135 0:0.237161 1:103.339824 
0.18387167859879522 0:0.273227 1:77.882336 
0.09823528115924449 0:0.27756 1:92.907281 
0.019387930235692467 0:0.269688 1:95.529484 
0.16343135334241385 0:0.283558 1:97.261775 
0.4319586891659645 0:0.262573 1:94.301438 
8.429625642347925E-4 0:0.272257 1:90.303842 
0.7624858305832675 0:0.260092 1:85.614326 
0.5088293898140636 0:0.240018 1:108.774042 
0.36182803599108804 0:0.273701 1:110.951679 
0.25114480268245754 0:0.20004 1:74.891302 
0.1759565010238146 0:0.270833 1:95.596887 
0.7543966045265613 0:0.26046 1:82.146356 
0.7291128924732494 0:0.244561 1:107.075523 
0.20812865201669534 0:0.217618 1:96.892981 
0.37449278460162844 0:0.255493 1:112.001491 
0.37673257309703034 0:0.2035 1:92.987734 
0.13678904857897536 0:0.257146 1:95.169575 
0.10616133637462871 0:0.233223 1:98.895026 
0.009684790784696348 0:0.257593 1:91.84286 
0.43666525987217675 0:0.220862 1:89.143987 
0.05612961754359937 0:0.205261 1:87.725401 
0.36186311489088235 0:0.174116 1:25.9385 
0.0169690501176289 0:0.246291 1:28.461167 
0.07488941110404686 0:0.289781 1:25.573858 
0.3073909387074045 0:0.267361 1:27.876153 
0.2218808216361147 0:0.28444 1:23.154974 
0.1302483297380714 0:0.271163 1:28.91523 
0.030962717106292476 0:0.277428 1:24.876168 
0.03763389604760798 0:0.168222 1:25.143201 
0.26998010980035575 0:0.288314 1:24.666647 
0.008408968071030854 0:0.210913 1:31.350512 
0.28423974741545466 0:0.362757 1:30.738865 
0.02863669550467612 0:0.209942 1:30.449381 
0.3351062844835974 0:0.289609 1:27.019725 
0.03770819155025852 0:0.312498 1:29.693579 
0.23177869374564683 0:0.207575 1:29.96434 
0.18033453437185268 0:0.198961 1:32.0 
0.1687162460260729 0:0.26576 1:22.075376 
1.0 
1.0 
1.0 
1.0 
1.0 
1.0 
1.0 
1.0 
1.0 
1.0 
1.0 
1.0 
1.0 
1.0 
1.0 
1.0 
1.0 
1.0 
1.0 
1.0 
1.0 
1.0 
1.0 
1.0 
1.0 0:0.00715 1:0.118329 
1.0 
1.0 
1.0 
1.0 
1.0 
1.0 
1.0 
1.0 
0.01049644361603777 0:0.153178 1:41.921611 
0.24669516694079727 0:0.145146 1:41.239055 
0.1835838930772299 0:0.229966 1:37.173186 
0.21892700736034332 0:0.18473 1:36.395083 
0.1978614482704127 0:0.145493 1:39.984814 
0.13579680800288318 0:0.287094 1:38.558352 
0.09650809234071867 0:0.19527 1:35.703004 
0.17839605155075516 0:0.177725 1:35.044446 
0.36982328475253934 0:0.254136 1:19.019611 
0.2239622624850248 0:0.190292 1:19.899206 
0.4008716578923607 0:0.135813 1:17.890444 
0.09593009725361915 0:0.17215 1:20.911248 
0.05771568485623296 0:0.156518 1:21.415241 
0.03310123067672555 0:0.163955 1:21.130163 
0.1697933066668934 0:0.155886 1:21.951404 
0.16951310023823504 0:0.138575 1:16.907134 
0.17894020352962786 0:0.129986 1:16.744831 
1.0 
1.0 
1.0 
1.0 
1.0 
1.0 
1.0 
1.0 
1.0 
1.0 
1.0 
1.0 
1.0 
1.0 
1.0 
1.0 
1.0 
1.0 
1.0 
1.0 
1.0 0:0.01379 1:0.124198 
1.0 
1.0 
1.0 0:0.005232 1:0.078132 
1.0 
1.0 
1.0 
1.0 
1.0 
1.0 
1.0 
1.0 
1.0 
1.0 
0.12422565027411772 0:0.03572 1:6.988745 
0.10732913171075185 0:0.035062 1:7.242964 
0.12217685109966624 0:0.046635 1:6.07028 
0.26138749117355353 0:0.042043 1:5.089321 
0.08503703110852073 0:0.244131 1:6.680449 
1.0 0:0.006368 1:0.146574 
1.0 0:3.65E-4 1:0.119647 
1.0 0:0.004815 1:0.021111 
1.0 0:0.003475 1:0.21772 
1.0 0:0.01239 1:0.003658 
1.0 0:0.014692 1:0.153303 
0.05922266478375614 0:0.152204 1:43.822619 
0.011775948121985534 0:0.260289 1:40.370624 
0.11250404074040368 0:0.258785 1:40.043592 
0.006903565070907017 0:0.263137 1:42.075079 
0.052180877853160015 0:0.256308 1:41.000657 
0.1254577515903639 0:0.424385 1:13.247317 
0.2726885137780953 0:0.08222 1:13.054496 
0.19913265844417613 0:0.362601 1:34.544247 
0.22491000260032018 0:0.289458 1:37.872873 
0.0963249909446307 0:0.355279 1:34.879591 
0.020530040884919054 0:0.286261 1:36.508168 
0.02913316013044101 0:0.035012 1:8.0 
0.2080381564772285 0:0.247093 1:7.534435 
0.1165240890951201 0:0.398034 1:32.569208 
0.13683352781671465 0:0.369008 1:33.313269 
0.11065330476170218 0:0.13903 1:23.002104 
0.020385033847237898 0:0.154822 1:22.003286 
0.31341106615887315 0:0.197375 1:78.713829 
0.22220918015834484 0:0.206349 1:76.888915 
0.3230084164104134 0:0.360183 1:71.642125 
0.12537738221604605 0:0.197843 1:70.909466 
0.008768604288305329 0:0.208833 1:79.790166 
0.038617671268234385 0:0.061794 1:14.0 
0.35759104001555997 0:0.041959 1:8.794338 
0.1155792408036697 0:0.242168 1:8.402045 
0.22426157975943123 0:0.156448 1:45.175261 
0.23196361484091124 0:0.15363 1:46.700109 
0.009488716671657784 0:0.174076 1:50.733545 
0.30092028625088557 0:0.145181 1:47.96832 
0.1055016198533929 0:0.199778 1:49.297512 
1.0 
1.0 
1.0 
1.0 
1.0 
1.0 
1.0 
1.0 
1.0 
1.0 
1.0 
1.0 
1.0 
1.0 
1.0 
1.0 
1.0 
1.0 0:0.0048 1:0.112162 
1.0 
1.0 
1.0 
1.0 
1.0 
1.0 
1.0 
1.0 
1.0 
1.0 
1.0 
1.0 
1.0 
1.0 
1.0 
1.0 
1.0 
0.2326426450297259 0:0.153469 1:43.497722 
0.13116716566731995 0:0.146128 1:39.090906 
0.011203363089353303 0:0.147912 1:41.496744 
0.1572850045503413 0:0.152335 1:38.597918 
0.0014628017786137999 0:0.155686 1:42.071476 
0.11923914168656934 0:0.150444 1:42.493574 
0.05852246171452681 0:0.065092 1:14.840319 
0.265018155628806 0:0.064475 1:14.931595 
0.08431662502217047 0:0.247735 1:4.417792 
0.31280707299515637 0:0.016619 1:2.762876 
0.016301656263450984 0:0.4508 1:14.128845 
0.014047129033863558 0:0.267814 1:22.459337 
0.050916818258314976 0:0.252588 1:20.900951 
0.3630569356996533 0:0.455405 1:15.823492 
0.22573174891701472 0:0.271517 1:51.99984 
0.3431324598072269 0:0.332777 1:66.018232 
1.0 
1.0 
0.05207797965592067 0:0.256571 1:20.073892 
0.24657924438029769 0:0.452873 1:14.0 
0.3454286553932884 0:0.250926 1:110.012029 
0.17654456640757057 0:0.210901 1:29.127873 
1.0 
1.0 
0.1928980531515846 0:0.416079 1:32.0 
1.0 
0.04338129241681199 0:0.015958 1:3.0 
0.01890216435469864 0:0.203222 1:10.67295 
0.005773304230017381 0:0.240643 1:11.180327 
0.5539325305320247 0:0.053719 1:0.217431 
0.11065116043364787 0:0.265116 1:48.465603 
0.24561178694748453 0:0.247536 1:12.061043 
0.3140787755769394 0:0.237432 1:52.714121 
0.24507755550797752 0:0.293402 1:63.893579 
1.0 
1.0 
1.0 
1.0 
1.0 
1.0 
1.0 
1.0 
1.0 
1.0 
1.0 
1.0 
1.0 
1.0 0:0.011361 1:0.111339 
1.0 
1.0 
1.0 
1.0 
1.0 
1.0 
1.0 
1.0 0:7.42E-4 1:1.77E-4 
1.0 
1.0 
1.0 
1.0 
1.0 
1.0 
1.0 
1.0 
1.0 
1.0 
1.0 
1.0 
1.0 
1.0 
1.0 
1.0 
1.0 
1.0 
1.0 
1.0 
1.0 
1.0 
1.0 
1.0 
1.0 
1.0 
1.0 
1.0 
1.0 
1.0 
1.0 
1.0 
1.0 
1.0 
1.0 
1.0 
1.0 
1.0 
1.0 
1.0 
1.0 
1.0 
1.0 
1.0 
1.0 
1.0 
1.0 
1.0 
1.0 
0.056692526622041765 0:0.258618 1:40.059603 
0.13381059508063714 0:0.277348 1:76.822485 
0.010232333034109494 0:0.274063 1:73.518688 
0.1781467618146845 0:0.232869 1:73.759468 
0.02134197003299972 0:0.207167 1:75.941469 
0.004087667377561936 0:0.197943 1:70.829308 
0.20638945562122715 0:0.267577 1:96.134588 
0.4635190147391226 0:0.283139 1:98.541434 
0.43088166155173396 0:0.257706 1:91.661197 
0.4592221010090317 0:0.230116 1:87.349993 
0.01969376417486293 0:0.201389 1:74.9148 
0.01763797999607408 0:0.269327 1:95.524417 
0.3064656383052786 0:0.245729 1:80.600918 
0.5604669749115279 0:0.267858 1:104.547265 
0.4395271246395854 0:0.266494 1:90.417518 
0.7375833192455166 0:0.254941 1:113.488012 
0.10097325040967806 0:0.240142 1:97.353525 
0.16304207183891248 0:0.216042 1:88.281657 
0.08961511094497364 0:0.240888 1:28.689516 
0.09054720915792377 0:0.213616 1:31.282833 
1.0 
1.0 
1.0 
1.0 
1.0 
1.0 
1.0 
1.0 
1.0 
1.0 
1.0 
1.0 
1.0 
1.0 
1.0 
1.0 
1.0 
1.0 
1.0 
1.0 
1.0 
1.0 
1.0 
1.0 
1.0 0:0.004959 1:0.115673 
1.0 
1.0 
1.0 
1.0 
1.0 
1.0 
1.0 
1.0 
0.30135861500166483 0:0.26444 1:3.0 
1.0 
1.0 
1.0 
1.0 
1.0 
1.0 
1.0 
1.0 
1.0 
1.0 
1.0 
1.0 
1.0 
1.0 
1.0 
1.0 
1.0 
1.0 
1.0 
1.0 
1.0 0:0.010255 1:0.115397 
1.0 
1.0 
1.0 0:0.01195 1:0.090378 
1.0 
1.0 
1.0 
1.0 
1.0 
1.0 
1.0 
1.0 
1.0 
1.0 
1.0 0:0.01276 1:0.132152 
1.0 0:0.013579 1:0.123284 
1.0 0:0.003843 1:0.018633 
1.0 0:0.005661 1:0.001243 
1.0 0:0.013314 1:0.136353 
0.21570423707984024 0:0.251269 1:5.970493 
0.11153816712554435 0:0.287591 1:35.859769 
0.07659390245384118 0:0.198039 1:70.930985 
0.0746359018989255 0:0.192481 1:50.499965 
0.004515578408263194 0:0.260164 1:46.063802 
1.0 
1.0 
1.0 
1.0 
1.0 
1.0 
1.0 
1.0 
1.0 
1.0 
1.0 
1.0 
1.0 
1.0 
1.0 
1.0 
1.0 
1.0 0:0.005075 1:0.089288 
1.0 
1.0 
1.0 
1.0 
1.0 
1.0 
1.0 
1.0 
1.0 
1.0 
1.0 
1.0 
1.0 
1.0 
1.0 
1.0 
1.0 
-1.0 1:0.32884399406117615 2:15.0 
-0.4743358977712123 1:0.4380975056973136 2:17.0 
-1.0 1:0.34582887198960355 2:11.0 
-0.944448151851687 1:0.39977060564589906 2:9.0 
-0.6224107121508238 1:0.029109957008505914 2:14.0 
-1.0 1:0.028169246584560503 2:14.0 
-1.0 1:0.37113936154363036 2:26.0 
-1.0 1:0.05615843956023077 2:23.0 
-0.2754232143912661 1:0.06593724864392604 2:28.0 
-0.7216031955077578 1:0.04929830212102915 2:19.0 
-0.6561188140991681 1:0.03736905913181255 2:29.0 
-0.476674265074178 1:0.020837479136744188 2:7.0 
-0.4314491080009975 1:0.01990057553776399 2:10.0 
-0.6961022145639416 1:0.04584950551818614 2:20.0 
-0.04568802232605057 1:0.02932282447932382 2:21.0 
-0.04141266053338102 1:0.032504712528025684 2:17.0 
-1.0 1:0.39246994901571536 2:13.0 
-1.0 1:0.0 2:0.0 
-1.0 1:0.0 2:0.0 
-1.0 1:0.0 2:0.0 
-1.0 1:0.0 2:0.0 
-1.0 1:0.16708490237236184 2:1.0 
-1.0 1:0.1643989873053573 2:1.0 
-1.0 1:0.0 2:0.0 
-1.0 1:0.0 2:0.0 
-1.0 1:0.0 2:0.0 
-1.0 1:0.0 2:0.0 
-1.0 1:0.0 2:0.0 
-1.0 1:0.0 2:0.0 
-1.0 1:0.0 2:0.0 
-1.0 1:0.0 2:0.0 
-1.0 1:0.0 2:0.0 
-1.0 1:0.011608941640719002 2:5.0 
-0.9543309558575718 1:0.09174701093908971 2:39.0 
-0.3400694170215206 1:0.10328676779096671 2:30.0 
-1.0 1:0.0 2:0.0 
-1.0 1:0.0 2:0.0 
-1.0 1:0.0 2:0.0 
-1.0 1:0.0 2:0.0 
-1.0 1:0.0 2:0.0 
-1.0 1:0.0 2:0.0 
-1.0 1:0.0 2:0.0 
-1.0 1:0.0 2:0.0 
-1.0 1:0.0 2:0.0 
-1.0 1:0.0 2:0.0 
-1.0 1:0.0 2:0.0 
-1.0 1:0.0 2:0.0 
-1.0 1:0.0 2:0.0 
-1.0 1:0.0 2:0.0 
-1.0 1:0.0 2:0.0 
-1.0 1:0.0 2:0.0 
-1.0 1:0.0 2:0.0 
-1.0 1:0.0 2:0.0 
-0.9577375104948734 1:0.2679926624428062 2:5.0 
-0.4726877447780027 1:0.36552646892133134 2:49.0 
-0.4563006509714725 1:0.35923150527149467 2:56.0 
-1.0 1:0.16940348523959617 2:1.0 
-0.4628674797469451 1:0.1274314162178755 2:59.0 
-1.0 1:0.2342381209796709 2:66.0 
-0.06442344252608734 1:0.32824244100449146 2:48.0 
-0.8592115662345298 1:0.3410305840582109 2:29.0 
-0.47292484913630445 1:0.1089034730208796 2:38.0 
-0.4590843007390851 1:0.3829175189603476 2:21.0 
-1.0 1:0.0 2:0.0 
-1.0 1:0.0 2:0.0 
-1.0 1:0.0 2:0.0 
-1.0 1:0.0 2:0.0 
-1.0 1:0.0 2:0.0 
-1.0 1:0.23151963206929307 2:1.0 
-1.0 1:0.1924500897298753 2:1.0 
-1.0 1:0.0 2:0.0 
-1.0 1:0.0 2:0.0 
-1.0 1:0.0 2:0.0 
-1.0 1:0.0 2:0.0 
-1.0 1:0.0 2:0.0 
-1.0 1:0.0 2:0.0 
-1.0 1:0.0 2:0.0 
-1.0 1:0.0 2:0.0 
-1.0 1:0.0 2:0.0 
-1.0 1:0.0 2:0.0 
-1.0 1:0.0 2:0.0 
-1.0 1:0.0 2:0.0 
-1.0 1:0.36307400476392343 2:42.0 
-0.4462258588394245 1:0.2922485896511342 2:58.0 
-0.452148026113065 1:0.3323170820127554 2:46.0 
-0.2227142724109163 1:0.33449037034937784 2:35.0 
-0.5321795368309374 1:0.3805602953348258 2:31.0 
-0.03450688497557177 1:0.2734574260823972 2:61.0 
-0.6013918567902597 1:0.29224407752969034 2:40.0 
-1.0 1:0.0 2:0.0 
-1.0 1:0.0 2:0.0 
-1.0 1:0.21737366192923088 2:1.0 
-1.0 1:0.0 2:0.0 
-1.0 1:0.0 2:0.0 
-1.0 1:0.1661026492566873 2:1.0 
-1.0 1:0.0 2:0.0 
-1.0 1:0.0 2:0.0 
-0.8009213175799385 1:0.2995289632205007 2:14.0 
-1.0 1:0.0 2:0.0 
-1.0 1:0.0 2:0.0 
-1.0 1:0.0 2:0.0 
-1.0 1:0.0 2:0.0 
-1.0 1:0.0 2:0.0 
-1.0 1:0.0 2:0.0 
-1.0 1:0.0 2:0.0 
-1.0 1:0.0 2:0.0 
-1.0 1:0.0 2:0.0 
-1.0 1:0.0 2:0.0 
-1.0 1:0.0 2:0.0 
-1.0 1:0.0 2:0.0 
-0.5851381535977851 1:0.2724326171830238 2:32.0 
-1.0 1:0.3162283285024015 2:52.0 
-0.9691468158441984 1:0.3119412045902899 2:38.0 
-0.3634733379495594 1:0.3289134147783489 2:37.0 
-0.2806444072074001 1:0.3260664117564478 2:27.0 
-0.021494401425546848 1:0.30204102622085327 2:53.0 
-0.5152641311336044 1:0.2868817234184114 2:39.0 
-0.07564048376716988 1:0.07610403178414948 2:23.0 
-0.5564159253196175 1:0.19301361329123037 2:73.0 
-1.0 1:0.16061548045085242 2:70.0 
-0.19837236684740897 1:0.23616399396779844 2:78.0 
-0.40740956381295745 1:0.2542630438126398 2:74.0 
-0.31263798641917834 1:0.11073542368078797 2:47.0 
-1.0 1:0.3324678941656027 2:24.0 
-0.5884433044392667 1:0.3249503450001405 2:15.0 
-0.1460268894792197 1:0.30066820448214626 2:7.0 
-0.7856076016581431 1:0.3587368201837444 2:19.0 
-0.15273248922078864 1:0.3148057400616225 2:28.0 
-0.7698228360310853 1:0.3069918381198138 2:34.0 
-0.14484324911464128 1:0.35483475351089167 2:16.0 
-1.0 1:0.0 2:0.0 
-1.0 1:0.006016362691864378 2:3.0 
-1.0 1:0.0 2:0.0 
-1.0 1:0.0 2:0.0 
-1.0 1:0.0 2:0.0 
-1.0 1:0.0 2:0.0 
-1.0 1:0.0 2:0.0 
-1.0 1:0.0 2:0.0 
-1.0 1:0.0 2:0.0 
-1.0 1:0.0 2:0.0 
-1.0 1:0.0 2:0.0 
-1.0 1:0.0 2:0.0 
-1.0 1:0.0 2:0.0 
-1.0 1:0.0 2:0.0 
-1.0 1:0.0 2:0.0 
-1.0 1:0.0 2:0.0 
-1.0 1:0.0 2:0.0 
-1.0 1:0.0 2:0.0 
-1.0 1:0.0 2:0.0 
-1.0 1:0.0 2:0.0 
-1.0 1:0.0 2:0.0 
-1.0 1:0.0 2:0.0 
-1.0 1:0.0 2:0.0 
-1.0 1:0.0 2:0.0 
-1.0 1:0.0 2:0.0 
-1.0 1:0.0 2:0.0 
-1.0 1:0.0 2:0.0 
-1.0 1:0.0 2:0.0 
-1.0 1:0.0 2:0.0 
-1.0 1:0.0 2:0.0 
-1.0 1:0.0 2:0.0 
-1.0 1:0.0 2:0.0 
-1.0 1:0.0 2:0.0 
-1.0 1:0.0 2:0.0 
-1.0 1:0.0 2:0.0 
-1.0 1:0.0 2:0.0 
-1.0 1:0.0 2:0.0 
-1.0 1:0.0 2:0.0 
-1.0 1:0.0 2:0.0 
-1.0 1:0.0 2:0.0 
-1.0 1:0.0 2:0.0 
-1.0 1:0.0 2:0.0 
-1.0 1:0.0 2:0.0 
-1.0 1:0.0 2:0.0 
-1.0 1:0.0 2:0.0 
-1.0 1:0.0 2:0.0 
-1.0 1:0.0 2:0.0 
-1.0 1:0.0 2:0.0 
-1.0 1:0.0 2:0.0 
-1.0 1:0.0 2:0.0 
-1.0 1:0.0 2:0.0 
-1.0 1:0.0 2:0.0 
-1.0 1:0.0 2:0.0 
-1.0 1:0.0 2:0.0 
-1.0 1:0.0 2:0.0 
-1.0 1:0.0 2:0.0 
-1.0 1:0.0 2:0.0 
-1.0 1:0.0 2:0.0 
-1.0 1:0.0 2:0.0 
-1.0 1:0.0 2:0.0 
-1.0 1:0.0 2:0.0 
-1.0 1:0.0 2:0.0 
-1.0 1:0.0 2:0.0 
-1.0 1:0.0 2:0.0 
-1.0 1:0.0 2:0.0 
-1.0 1:0.0 2:0.0 
-1.0 1:0.0 2:0.0 
-1.0 1:0.0 2:0.0 
-1.0 1:0.0 2:0.0 
-1.0 1:0.0 2:0.0 
-1.0 1:0.0 2:0.0 
-1.0 1:0.0 2:0.0 
-1.0 1:0.0 2:0.0 
-1.0 1:0.0 2:0.0 
-1.0 1:0.0 2:0.0 
-1.0 1:0.0 2:0.0 
-1.0 1:0.0 2:0.0 
-1.0 1:0.0 2:0.0 
-1.0 1:0.0 2:0.0 
-1.0 1:0.0 2:0.0 
-1.0 1:0.0 2:0.0 
-1.0 1:0.0 2:0.0 
-1.0 1:0.0 2:0.0 
-0.44831145359600255 1:0.18745375185504318 2:61.0 
-0.8255409091823044 1:0.22581666082174057 2:80.0 
-1.0 1:0.2805072584467611 2:44.0 
-0.6814416317753421 1:0.213910472809653 2:87.0 
-0.0010605879957622983 1:0.26194733862855923 2:63.0 
-0.9285532079409908 1:0.20364705359791282 2:76.0 
-0.11239679149040158 1:0.25148167646842395 2:81.0 
-0.13184481833266268 1:0.2722730503773309 2:69.0 
-0.015228301956984363 1:0.2539837195207457 2:77.0 
-0.43420804591699896 1:0.28020528494646335 2:54.0 
-0.382688887280139 1:0.09890015563010991 2:48.0 
-0.4580695943151594 1:0.11321967320657808 2:42.0 
-1.0 1:0.06443137803858158 2:22.0 
-1.0 1:0.0 2:0.0 
-1.0 1:0.03471303544621778 2:13.0 
-1.0 1:0.0 2:0.0 
-0.5916350016792541 1:0.044647287303695944 2:9.0 
-0.6442751283052655 1:0.02684975866626966 2:11.0 
-1.0 1:0.016379188693594084 2:8.0 
-0.015502660188151463 1:0.3364624008624396 2:12.0 
-1.0 1:0.3481836590891369 2:13.0 
-1.0 1:0.3500043750820329 2:4.0 
-1.0 1:0.31655967225990317 2:14.0 
-0.8452780227022652 1:0.31328156279972236 2:11.0 
-0.7770063140748507 1:0.3295137140268013 2:67.0 
-1.0 1:0.24946439418356237 2:80.0 
-0.6771211387531879 1:0.292280358520651 2:78.0 
-0.10228142960977055 1:0.22429891831062992 2:88.0 
-0.6086312079797846 1:0.2945360841295446 2:88.0 
-0.7921056622626629 1:0.18871087983307974 2:82.0 
-1.0 1:0.15595998168478611 2:93.0 
-1.0 1:0.3099694605146866 2:70.0 
-0.7845765382801675 1:0.23166629574640782 2:65.0 
-0.015272456893578106 1:0.21970407720146606 2:82.0 
-1.0 1:0.19219683907792878 2:71.0 
-1.0 1:0.22368914659754333 2:72.0 
-1.0 1:0.2612242234101734 2:84.0 
-0.4292921248181901 1:0.2737130423573243 2:60.0 
-0.45655522797622594 1:0.13876705978134174 2:55.0 
-0.4334890483150587 1:0.2654558670555447 2:73.0 
-0.8303974486086876 1:0.13220719055566885 2:51.0 
-1.0 1:0.29343709912475424 2:32.0 
-1.0 1:0.3067193264458395 2:32.0 
-1.0 1:0.35228590854687275 2:35.0 
-0.05050855290585772 1:0.3837650491798443 2:18.0 
-1.0 1:0.38424183924573724 2:22.0 
-0.0076840773559879475 1:0.30931501719396026 2:22.0 
-1.0 1:0.3577761557275027 2:23.0 
-0.44822234257566135 1:0.3166434603311372 2:6.0 
-1.0 1:0.0 2:0.0 
-1.0 1:0.0 2:0.0 
-1.0 1:0.0 2:0.0 
-1.0 1:0.0 2:0.0 
-1.0 1:0.0 2:0.0 
-1.0 1:0.0 2:0.0 
-1.0 1:0.0 2:0.0 
-1.0 1:0.0 2:0.0 
-1.0 1:0.0 2:0.0 
-1.0 1:0.0 2:0.0 
-1.0 1:0.0 2:0.0 
-1.0 1:0.0 2:0.0 
-1.0 1:0.0 2:0.0 
-1.0 1:0.0 2:0.0 
-1.0 1:0.0 2:0.0 
-1.0 1:0.0 2:0.0 
-1.0 1:0.0 2:0.0 
-1.0 1:0.0 2:0.0 
-1.0 1:0.0 2:0.0 
-1.0 1:0.0 2:0.0 
-1.0 1:0.0 2:0.0 
-1.0 1:0.0 2:0.0 
-1.0 1:0.0 2:0.0 
-1.0 1:0.0 2:0.0 
-1.0 1:0.0 2:0.0 
-1.0 1:0.0 2:0.0 
-1.0 1:0.0 2:0.0 
-1.0 1:0.0 2:0.0 
-1.0 1:0.0 2:0.0 
-1.0 1:0.0 2:0.0 
-1.0 1:0.0 2:0.0 
-1.0 1:0.0 2:0.0 
-1.0 1:0.0 2:0.0 
-1.0 1:0.0 2:0.0 
-1.0 1:0.0 2:0.0 
-1.0 1:0.0 2:0.0 
-1.0 1:0.0 2:0.0 
-1.0 1:0.0 2:0.0 
-1.0 1:0.0 2:0.0 
-1.0 1:0.0 2:0.0 
-1.0 1:0.0 2:0.0 
-1.0 1:0.0 2:0.0 
-1.0 1:0.0 2:0.0 
-1.0 1:0.0 2:0.0 
-1.0 1:0.0 2:0.0 
-1.0 1:0.0 2:0.0 
-1.0 1:0.08457213531909114 2:43.0 
-0.1099304572139001 1:0.12056837345631881 2:37.0 
-0.465496453472504 1:0.052118006616346496 2:26.0 
-1.0 1:0.0 2:0.0 
-1.0 1:0.0 2:0.0 
-1.0 1:0.0 2:0.0 
-1.0 1:0.0 2:0.0 
-1.0 1:0.0 2:0.0 
-1.0 1:0.0 2:0.0 
-1.0 1:0.0 2:0.0 
-1.0 1:0.0 2:0.0 
-1.0 1:0.0 2:0.0 
-1.0 1:0.0 2:0.0 
-1.0 1:0.0 2:0.0 
-1.0 1:0.0 2:0.0 
-1.0 1:0.0 2:0.0 
-1.0 1:0.0 2:0.0 
-1.0 1:0.0 2:0.0 
-1.0 1:0.0 2:0.0 
-1.0 1:0.0 2:0.0 
-1.0 1:0.0 2:0.0 
-1.0 1:0.0 2:0.0 
-0.2661495407835646 1:8.771442385765059E-4 2:2.0 
-1.0 1:0.0 2:0.0 
-1.0 1:0.0 2:0.0 
-1.0 1:0.002222790011774431 2:3.0 
-1.0 1:0.0 2:0.0 
-1.0 1:0.0 2:0.0 
-1.0 1:0.0 2:0.0 
-1.0 1:0.0 2:0.0 
-1.0 1:0.0 2:0.0 
-1.0 1:0.0 2:0.0 
-1.0 1:0.0 2:0.0 
-1.0 1:0.0 2:0.0 
-1.0 1:0.0 2:0.0 
-1.0 1:0.0 2:0.0 
-1.0 1:0.0 2:0.0 
-1.0 1:0.0 2:0.0 
-1.0 1:0.0 2:0.0 
-1.0 1:0.0 2:0.0 
-1.0 1:0.0 2:0.0 
-1.0 1:0.0 2:0.0 
-1.0 1:0.0 2:0.0 
-1.0 1:0.0 2:0.0 
-1.0 1:0.0 2:0.0 
-1.0 1:0.0 2:0.0 
-1.0 1:0.0 2:0.0 
-1.0 1:0.0 2:0.0 
-1.0 1:0.0 2:0.0 
-1.0 1:0.0 2:0.0 
-1.0 1:0.0 2:0.0 
-1.0 1:0.0 2:0.0 
-1.0 1:0.0 2:0.0 
-1.0 1:0.0 2:0.0 
-1.0 1:0.0 2:0.0 
-1.0 1:0.0 2:0.0 
-1.0 1:0.0 2:0.0 
-1.0 1:0.0 2:0.0 
-1.0 1:0.0 2:0.0 
-1.0 1:0.0 2:0.0 
-1.0 1:0.0 2:0.0 
-1.0 1:0.0 2:0.0 
-1.0 1:0.0 2:0.0 
-1.0 1:0.0 2:0.0 
-1.0 1:0.0 2:0.0 
-1.0 1:0.0 2:0.0 
-1.0 1:0.0 2:0.0 
-0.19820840372105844 1:0.039902544220720024 2:13.0 
-1.0 1:0.0 2:0.0 
-1.0 1:0.0 2:0.0 
-1.0 1:0.0 2:0.0 
-1.0 1:0.0 2:0.0 
-1.0 1:0.0 2:0.0 
-1.0 1:0.0 2:0.0 
-1.0 1:0.0 2:0.0 
-1.0 1:0.0 2:0.0 
-1.0 1:0.28032769957456444 2:32.0 
-0.4379414934238718 1:0.3444166594868956 2:8.0 
-0.23190932098023137 1:0.24952922651821607 2:64.0 
-0.1807056093142159 1:0.27384773861073364 2:43.0 
-1.0 1:0.0 2:0.0 
-1.0 1:0.295032392885835 2:32.0 
-1.0 1:0.0 2:0.0 
-1.0 1:0.0 2:0.0 
-1.0 1:0.0 2:0.0 
-1.0 1:0.0 2:0.0 
-1.0 1:0.0 2:0.0 
-1.0 1:0.0 2:0.0 
-0.14160996085615318 1:0.3128457853941656 2:47.0 
-0.3852794423838212 1:0.31679311879263156 2:62.0 
-0.456419959851597 1:0.10313945024533312 2:53.0 
-0.5164553599245638 1:0.32862705381312657 2:33.0 
-0.2742841531369082 1:0.1145403775731115 2:41.0 
-0.6396840179129398 1:0.08338401952989898 2:34.0 
-0.19366425451015068 1:0.3294247753446717 2:25.0 
-0.1888476446771951 1:0.3478453917246642 2:41.0 
-0.5822664535481933 1:0.16109064712887095 2:1.0 
-0.6582512359758678 1:0.3390022085783643 2:51.0 
-0.4568679956991342 1:0.1052392691827666 2:45.0 
-1.0 1:0.08516277107469869 2:24.0 
-0.05142234822367733 1:0.32790032305954275 2:30.0 
-0.2705246401453668 1:0.0715063385464935 2:25.0 
-1.0 1:0.0 2:0.0 
-1.0 1:0.0 2:0.0 
-1.0 1:0.0 2:0.0 
-1.0 1:0.010205275495284884 2:5.0 
-1.0 1:0.0 2:0.0 
-1.0 1:0.0 2:0.0 
-1.0 1:0.0 2:0.0 
-0.7423221720841612 1:0.008681175050500804 2:6.0 
-1.0 1:0.0 2:0.0 
-1.0 1:0.014523563500513944 2:5.0 
-0.9391193649776601 1:0.020719709665818178 2:8.0 
-1.0 1:0.0 2:0.0 
-1.0 1:0.0 2:0.0 
-1.0 1:0.00609529515078491 2:3.0 
-1.0 1:0.0 2:0.0 
-1.0 1:0.0 2:0.0 
-1.0 1:0.0 2:0.0 
-1.0 1:0.0 2:0.0 
-1.0 1:0.0 2:0.0 
-1.0 1:0.005271592514972195 2:3.0 
-1.0 1:0.0 2:0.0 
-0.8450366948784515 1:0.00556408564413367 2:4.0 
-1.0 1:0.005263400901311515 2:3.0 
-1.0 1:0.0 2:0.0 
-1.0 1:0.0 2:0.0 
-1.0 1:0.0 2:0.0 
-1.0 1:0.0 2:0.0 
-1.0 1:0.0 2:0.0 
-1.0 1:0.0 2:0.0 
-1.0 1:0.0 2:0.0 
-0.299603269023635 1:0.16004414073235626 2:68.0 
-0.23747212625565567 1:0.17943293606508995 2:69.0 
-0.576651515013991 1:0.11970362264739565 2:63.0 
-6.94458556559141E-4 1:0.185846399383056 2:73.0 
-0.4218505434777138 1:0.17565949145185378 2:52.0 
-1.0 1:0.0 2:0.0 
-1.0 1:0.0 2:0.0 
-1.0 1:0.0 2:0.0 
-1.0 1:0.0 2:0.0 
-1.0 1:0.0 2:0.0 
-1.0 1:0.0 2:0.0 
-1.0 1:0.0 2:0.0 
-1.0 1:0.0 2:0.0 
-1.0 1:0.0 2:0.0 
-1.0 1:0.0 2:0.0 
-1.0 1:0.0 2:0.0 
-1.0 1:0.0 2:0.0 
-0.4454814004026346 1:0.2668575340641599 2:44.0 
-0.2795453483891922 1:0.10605532559102473 2:43.0 
-1.0 1:0.0 2:0.0 
-0.3655136471628803 1:0.062284267370336086 2:18.0 
-0.28403964863818276 1:0.05588516846468873 2:16.0 
-1.0 1:0.044254454263934845 2:16.0 
-1.0 1:0.0 2:0.0 
-0.42240503723195205 1:0.17648917199999978 2:50.0 
-0.4464832616840463 1:0.18349114980436765 2:57.0 
-1.0 1:0.0 2:0.0 
-1.0 1:0.0 2:0.0 
-1.0 1:0.0 2:0.0 
-1.0 1:0.0 2:0.0 
-1.0 1:0.0 2:0.0 
-1.0 1:0.0 2:0.0 
-1.0 1:0.0 2:0.0 
-1.0 1:0.0 2:0.0 
-1.0 1:0.0 2:0.0 
-1.0 1:0.0 2:0.0 
-1.0 1:0.0 2:0.0 
-1.0 1:0.0 2:0.0 
-1.0 1:0.0 2:0.0 
-1.0 1:0.0 2:0.0 
-1.0 1:0.0 2:0.0 
-1.0 1:0.0 2:0.0 
-1.0 1:0.0 2:0.0 
-1.0 1:0.0 2:0.0 
-1.0 1:0.0 2:0.0 
-1.0 1:0.0 2:0.0 
-1.0 1:0.0 2:0.0 
-1.0 1:0.0 2:0.0 
-1.0 1:0.0 2:0.0 
-1.0 1:0.0 2:0.0 
-1.0 1:0.0 2:0.0 
-1.0 1:0.0 2:0.0 
-1.0 1:0.0 2:0.0 
-1.0 1:0.0 2:0.0 
-0.42364896526483575 1:0.11505442054488765 2:36.0 
-0.8407687806618049 1:0.12277365115125208 2:40.0 
-0.27610023251851795 1:0.09110405836252142 2:35.0 
-0.9083890978247563 1:0.05057420261604492 2:15.0 
-0.1833758526039218 1:0.09032945319700027 2:27.0 
-1.0 1:0.0 2:0.0 
-0.4322130533409018 1:0.03238542562260828 2:12.0 
-1.0 1:0.0 2:0.0 
-1.0 1:0.3445743665557053 2:6.0 
-1.0 1:0.0 2:0.0 
-1.0 1:0.0 2:0.0 
-1.0 1:0.0 2:0.0 
-1.0 1:0.0 2:0.0 
-1.0 1:0.0 2:0.0 
-1.0 1:0.0 2:0.0 
-1.0 1:0.0 2:0.0 
-1.0 1:0.0 2:0.0 
-1.0 1:0.0 2:0.0 
-1.0 1:0.0 2:0.0 
-1.0 1:0.0 2:0.0 
-1.0 1:0.0 2:0.0 
-1.0 1:0.0 2:0.0 
-1.0 1:0.0 2:0.0 
-0.15939224729893256 1:0.006207758390137168 2:3.0 
-1.0 1:0.0 2:0.0 
-1.0 1:0.0 2:0.0 
-0.03591257108155826 1:0.01480592550322111 2:5.0 
-1.0 1:0.0 2:0.0 
-1.0 1:0.0 2:0.0 
-1.0 1:0.0 2:0.0 
-1.0 1:0.0 2:0.0 
-1.0 1:0.0 2:0.0 
-0.7335561770671059 1:0.3540585938967399 2:20.0 
-1.0 1:0.3628928238473988 2:5.0 
-0.429693888798475 1:0.3402366136669188 2:23.0 
-0.45075457448287276 1:0.32449292930659196 2:24.0 
-0.3147978064659599 1:0.3398011551735141 2:13.0 
-1.0 1:0.37499999999999994 2:3.0 
-1.0 1:0.0 2:0.0 
-1.0 1:0.0 2:0.0 
-0.8111900449954917 1:0.34278334762044216 2:4.0 
-1.0 1:0.0 2:0.0 
-0.7496547432385181 1:0.3621637175290622 2:3.0 
-1.0 1:0.0 2:0.0 
-1.0 1:0.0 2:0.0 
-0.7817466091798437 1:0.08700585461716155 2:32.0 
-1.0 1:0.08623997535672565 2:24.0 
-0.43302772807825873 1:0.06596004775277947 2:22.0 
