svm_type c_svc
kernel_type rbf
gamma 0.25
nr_class 2
total_sv 4
rho 0.5501529023428366
label 1 -1
probA 2.171138182570538
probB 2.3788036350540307
nr_sv 1 3
SV
1.0 1:0.0 2:1.0000000000000002 3:0.17214532471704128 4:9.0 
-0.2873883878305426 1:14.0 2:0.25387913423096475 3:0.17609517534152228 4:12.0 
-0.4440194241582022 1:13.0 2:0.13497638119975428 3:0.02582445546619279 4:7.0 
-0.2685921880112552 1:13.0 2:0.12361284651454937 3:0.10982329517062171 4:11.0 
