svm_type c_svc
kernel_type rbf
gamma 0.5
nr_class 2
total_sv 1429
rho -0.07377699303266319
label 1 -1
probA -3.624023675818631
probB 0.816222653205605
nr_sv 886 543
SV
1.0 1:0.24660968695685898 2:11.0 
1.0 1:0.19881750555664923 2:32.0 
1.0 1:0.2644467635240269 2:3.0 
1.0 1:0.15101500760709954 2:5.0 
1.0 1:0.0644227914208309 2:3.0 
1.0 1:0.16684279230457194 2:24.0 
1.0 1:0.06154574548966636 2:1.0 
1.0 1:0.24954235660745017 2:5.0 
1.0 1:0.27168755054560384 2:52.0 
1.0 1:0.09812778536500866 2:6.0 
1.0 1:0.250220163067745 2:11.0 
1.0 1:0.3844537689435693 2:66.0 
1.0 1:0.26364887508105 2:42.0 
1.0 1:0.27398853892328073 2:71.0 
1.0 1:0.12890873930138536 2:24.0 
1.0 1:0.2591307395389587 2:23.0 
1.0 1:0.2862674795375733 2:71.0 
1.0 1:0.25146082250824975 2:38.0 
1.0 1:0.2579238037983036 2:20.0 
1.0 1:0.2610609133634027 2:80.0 
1.0 1:0.27212400309857027 2:34.0 
1.0 1:0.4560737814793552 2:14.0 
1.0 1:0.20074106269860925 2:70.0 
1.0 1:0.23296249913806844 2:13.0 
0.9258867070766968 1:0.2544177583191577 2:115.0 
1.0 1:0.2905649556005914 2:26.0 
1.0 1:0.21074993392022648 2:29.0 
1.0 1:0.3661253383758703 2:32.0 
1.0 1:0.06933752452815363 2:2.0 
1.0 1:0.26901772598907703 2:24.0 
1.0 1:0.09083768323888668 2:3.0 
1.0 1:0.17620193273403853 2:40.0 
1.0 1:0.09729732630620916 2:1.0 
1.0 1:0.17571198121690243 2:39.0 
1.0 1:0.17918710044277342 2:19.0 
1.0 1:0.14480712769588663 2:14.0 
1.0 1:0.03411945625947578 2:8.0 
1.0 1:0.015499685165842568 2:1.0 
1.0 1:0.2512699419684951 2:6.0 
1.0 1:0.26247630985700043 2:44.0 
1.0 1:0.25322445051574977 2:13.0 
1.0 1:0.28980095173388337 2:35.0 
1.0 1:0.15241289730010193 2:4.0 
1.0 1:0.11561146751289911 2:8.0 
1.0 1:0.41771493363818885 2:32.0 
1.0 1:0.20142618714909527 2:13.0 
1.0 1:0.15331034998544327 2:23.0 
1.0 1:0.19613673449070534 2:5.0 
1.0 1:0.196505744781154 2:72.0 
1.0 1:0.21945093393781417 2:22.0 
1.0 1:0.06930520620576447 2:5.0 
1.0 1:0.0989565616659599 2:3.0 
1.0 1:0.2303932535288566 2:32.0 
1.0 1:0.06171954827142899 2:14.0 
1.0 1:0.19902283334918383 2:9.0 
1.0 1:0.21416136922934387 2:51.0 
1.0 1:0.10072787050317251 2:1.0 
1.0 1:0.14402095496370335 2:43.0 
1.0 1:0.12811395556557303 2:15.0 
1.0 1:0.216661812307366 2:4.0 
1.0 1:0.12803141422757522 2:4.0 
1.0 1:0.015767396124594983 2:3.0 
1.0 1:0.2413443787484609 2:15.0 
1.0 1:0.13363062095621217 2:2.0 
1.0 1:0.2507242875848462 2:22.0 
1.0 1:0.23108538429920722 2:32.0 
1.0 1:0.11972912094634425 2:16.0 
7.46313942472529E-4 1:79.606315 
0.3941575321970585 1:27.758962 
0.05741307753240725 1:31.127062 
0.5062963512457153 1:7.940734 
0.006553674451265331 1:4.313569 
0.01629186249134272 1:22.453404 
0.12173530287947745 1:4.455216 
0.15829888384949176 1:3.023599 
0.104980224973172 1:12.758526 
0.02856846642737349 1:12.765369 
0.008762919562400533 1:2.99396 
0.0058776066488316295 1:2.996184 
0.0067456693016801 1:2.997904 
0.001180847493999923 1:3.018802 
8.488613456009872E-4 1:45.44973 
0.016707861076190576 1:49.522835 
0.009440079269865745 1:47.020224 
0.06703231261418803 1:12.689258 
0.0409257089390716 1:12.6763 
0.11307087881320442 1:12.665506 
0.044692014531439936 1:12.603956 
0.1417005260037485 1:69.306712 
0.021282645290446503 1:67.922327 
0.8128216663399657 1:66.172869 
0.06652795837714655 1:69.373844 
0.09674143899728366 1:68.022898 
0.014845501188282354 1:41.103094 
0.019021175235361752 1:41.036442 
0.7745801033635601 
1.0 
1.0 
1.0 
1.0 
1.0 
1.0 
1.0 
1.0 
1.0 
1.0 
1.0 
1.0 
1.0 
1.0 
1.0 
1.0 
1.0 
1.0 
1.0 
1.0 
1.0 
1.0 
1.0 
1.0 
1.0 
1.0 
1.0 
1.0 
1.0 
1.0 
1.0 
0.004756379210173195 1:70.756912 
0.004577066729320683 1:70.775775 
0.0019972669003371834 1:70.90074 
0.001412286402943616 1:22.644105 
0.0015451209404526835 1:70.866643 
0.003568163987502981 1:70.684051 
0.002298588174227669 1:71.009548 
0.003556853392671068 1:71.203439 
0.0023625894674489047 1:70.719736 
0.014190247904196644 1:71.105663 
0.15483243475029926 1:71.402031 
0.0020319553563487272 1:70.909137 
0.0065074099654416455 1:39.786986 
0.8053521540394261 1:38.039126 
0.0064211443978000006 1:20.226898 
0.0020440959516363766 1:20.159928 
0.025674140368569024 1:20.316405 
0.3883413695147797 1:19.306681 
0.07479000271981687 1:73.852636 
0.024719586621947592 1:74.236213 
0.08192364621091029 1:78.579314 
0.01966281540757938 1:79.185072 
0.30866406752007414 1:79.744472 
0.051140775204936983 1:76.09556 
0.0032903578692939804 1:74.29327 
0.4521031900516161 1:75.068761 
0.025571585629851727 1:33.064376 
0.8022834044021498 1:34.936433 
0.5312994616849903 1:33.15519 
0.005821316017933873 1:13.880769 
0.006825495283420395 1:14.303369 
0.04805376207982797 1:14.127979 
0.002486420247923751 1:13.994481 
0.002281808941146001 1:13.898101 
0.002352282289524914 1:13.910894 
0.002130691134778125 1:13.985849 
0.0023598109025979195 1:13.967798 
0.006393155363097331 1:13.920808 
0.004977263606711137 1:14.039104 
0.05194639473599012 1:14.185957 
0.002505712621366056 1:70.980441 
0.006178240967769651 1:70.855033 
0.007559628302951624 1:70.836681 
0.003054247476774526 1:70.820432 
0.004004094101815342 1:70.811742 
0.08795755971186375 1:71.285985 
0.002288321160160979 1:70.93221 
0.718395450899779 1:101.445417 
0.014018222972111121 1:74.460567 
0.11649611967655647 1:82.904755 
0.12647659992122215 1:87.288336 
0.4269927972210789 1:104.76078 
0.45631940625927453 1:99.293981 
0.5981314876374998 1:92.69113 
0.5296615598719527 1:110.955745 
0.17510763251435638 1:80.497682 
0.3568665418042898 1:91.151802 
0.4353394316959948 1:89.667881 
0.8074514755341838 1:112.830019 
0.04823751419158987 1:90.639627 
0.2937521289285281 1:102.783079 
0.005534069212977959 1:83.550725 
0.7176507022145338 1:106.968199 
0.7335948274402738 1:109.29594 
0.09720690956667785 1:91.40179 
0.015220156720330117 1:83.437263 
0.2798833795794829 1:105.669961 
0.39191848000231044 1:103.631939 
0.6324056664205174 1:98.332602 
0.01848630688429098 1:85.375596 
0.8126087692760858 1:94.526665 
0.0774203422611829 1:111.342304 
0.10087730377542414 1:24.45913 
0.2292757659457255 1:25.622549 
0.18885962591931407 1:25.321935 
0.06960506874913217 1:24.469399 
0.018330937707217353 1:24.720163 
0.002812210604857533 1:26.697266 
0.09761720357632195 1:26.658906 
0.12016076726720958 1:24.486281 
0.01842837733022042 1:24.6975 
0.19157382092668981 1:26.544319 
0.00512726107214392 1:31.654828 
0.0040849692307239815 1:31.825145 
6.583023498930862E-4 1:30.032881 
0.01160219810441986 1:31.565556 
0.003892640253267304 1:29.068552 
0.027777439044993923 1:31.062816 
0.006765769368592608 1:31.250833 
0.01057734925058726 1:31.590644 
0.34562266499001504 1:29.844016 
0.001916222043728642 1:30.245937 
0.23801828013867227 1:30.870338 
0.016695740016674662 1:31.111874 
0.008831023474181098 1:31.06612 
1.0 
1.0 
1.0 
1.0 
1.0 
1.0 
1.0 
1.0 
1.0 
1.0 
1.0 
1.0 
1.0 
1.0 
1.0 
1.0 
1.0 
1.0 
1.0 
1.0 
1.0 
1.0 
1.0 
1.0 
1.0 
1.0 
1.0 
1.0 
1.0 
1.0 
1.0 
1.0 
1.0 
1.0 
1.0 
1.0 
1.0 
1.0 
1.0 
1.0 
1.0 
1.0 
0.026102034347073415 1:41.055189 
0.014004772326379892 1:39.741028 
0.023433819453400524 1:39.66058 
0.013908229600422317 1:39.798798 
0.031991667177962285 1:40.101628 
0.017793780260582634 1:40.835285 
0.01452489512940071 1:39.708118 
0.002861840714062046 1:17.709304 
0.20747950924869027 1:16.189216 
0.1674712637454553 1:18.463623 
0.14672883326028174 1:16.714713 
0.2841291672574912 1:17.345416 
6.655650646776173E-4 1:20.16373 
0.003012570005009957 1:17.985846 
0.07570269352007242 1:16.019996 
0.14985956116140917 1:20.992257 
0.22067247861524228 1:18.073527 
1.0 
1.0 
1.0 
1.0 
1.0 
1.0 
1.0 
1.0 
1.0 
1.0 
1.0 
1.0 
1.0 
1.0 
1.0 
1.0 
1.0 
1.0 
1.0 
1.0 
1.0 
1.0 
1.0 
1.0 
1.0 
1.0 
1.0 
1.0 
1.0 
1.0 
1.0 
1.0 
1.0 
1.0 
1.0 
1.0 
1.0 
1.0 
1.0 
1.0 
1.0 
1.0 
0.015473473088299095 1:14.243999 
0.007254997376741085 1:14.090244 
0.0038052152256382787 1:14.042581 
0.7005825371850964 1:6.0 
0.144442882426641 1:42.928103 
0.010343084411724506 1:42.818498 
0.03166626598707677 1:43.145015 
0.0018094939214380542 1:43.063686 
0.013632349978432632 1:43.179657 
0.0013339043129484002 1:43.03148 
0.012256959040834021 1:43.001377 
0.022647330553236443 1:42.844885 
0.005265495956058264 1:22.512787 
0.004032698491027137 1:22.537958 
0.0562512320884455 1:22.491545 
0.0010540075750791328 1:70.872614 
0.10151228965882832 1:71.198669 
0.006392417148282941 1:70.736869 
0.0034460924929803154 1:70.708256 
0.015041441452189866 1:22.249587 
0.0021379692537189204 1:3.012924 
0.004380352298553644 1:13.948968 
0.00636432252486421 1:13.842303 
0.0027259991694374643 1:13.939519 
0.012633404601326503 1:14.047149 
0.028821475472506363 1:14.073201 
0.002533484216497315 1:13.941727 
0.0018840255761415068 1:13.914625 
0.0033925701559947177 1:13.839158 
0.003291744144186123 1:13.956799 
0.0023270792398763507 1:13.958927 
0.4231560576411482 1:48.626115 
0.0118142408437398 1:48.925345 
0.2460166862846081 1:45.048613 
0.2876606992601162 1:47.596686 
0.015942641542040885 1:49.30073 
0.04157145968535771 1:47.249837 
0.06400990010109797 1:47.260624 
0.18395717977680406 1:45.239993 
0.42158661237205364 1:46.317143 
0.009771968240952267 1:44.812301 
0.0028646563777514436 1:45.400395 
0.03416763275815856 1:47.09246 
1.0 
1.0 
1.0 
1.0 
1.0 
1.0 
1.0 
1.0 
1.0 
1.0 
1.0 
1.0 
1.0 
1.0 
1.0 
1.0 
1.0 
1.0 
1.0 
1.0 
1.0 
1.0 
1.0 
1.0 
1.0 
1.0 
1.0 
1.0 
1.0 
1.0 
1.0 
1.0 
1.0 
1.0 
1.0 
1.0 
1.0 
1.0 
1.0 
1.0 
1.0 
1.0 
0.009162437280173463 1:42.940831 
0.0018862342369643514 1:42.778567 
0.005939019831649819 1:42.763884 
0.0020837671666294306 1:42.602754 
0.060191968112233166 1:42.949668 
0.008193818578843642 1:42.868093 
0.3905094298991677 1:43.998475 
0.005872855187883855 1:42.873595 
8.923395727968639E-4 1:15.569426 
0.011663397557210598 1:4.214652 
9.955556685184016E-4 1:15.683912 
0.0018759484377183788 1:15.408721 
0.001327531990249893 1:15.489832 
0.0014250668502281997 1:15.535843 
0.0017098773841953585 1:15.549441 
0.004375551334143199 1:2.800603 
0.1794868030872728 1:1.315643 
0.4786488496095688 1:1.467433 
0.0013144776130031013 1:15.897876 
0.0014852053963197638 1:15.817762 
0.004133525355248749 1:15.841748 
0.003239891302064646 1:15.943429 
0.002471041101457369 1:15.967589 
0.001129502635098483 1:15.768164 
0.0015790297047069209 1:15.93068 
6.912009800296638E-4 1:15.443398 
0.03456150505297477 1:15.998775 
0.016498697812721622 1:12.714313 
0.7138045459236609 1:11.0 
0.14842110922725435 1:12.720151 
0.007802202197606444 1:3.005414 
0.015172444825206017 1:4.271927 
0.008788510880295471 1:4.364533 
0.006132291632305466 1:4.288905 
0.02822559402372759 1:4.261805 
0.006151181674506718 1:4.298359 
0.030376328523363142 1:4.358362 
0.013534560502518871 1:4.257061 
0.01262945226358166 1:4.242522 
0.003089220369630275 1:4.37897 
0.03030393163675273 1:2.771181 
0.511776916536646 1:50.24041 
0.06377616338855732 1:49.660461 
0.8076726530674944 1:51.993387 
0.027710451401106197 1:49.389016 
0.005009884885587168 1:69.469487 
0.013987263844948557 1:68.033847 
0.010056148393529488 1:67.940823 
0.1719683368760605 1:68.045927 
0.07523768294323023 1:67.942815 
0.010178364828970212 1:69.531185 
1.0 
1.0 
1.0 
1.0 
1.0 
1.0 
1.0 
1.0 
1.0 
1.0 
1.0 
1.0 
1.0 
1.0 
1.0 
1.0 
1.0 
1.0 
1.0 
1.0 
1.0 
1.0 
1.0 
1.0 
1.0 
1.0 
1.0 
1.0 
1.0 
1.0 
1.0 
1.0 
1.0 
1.0 
1.0 
1.0 
1.0 
1.0 
1.0 
1.0 
1.0 
1.0 
0.005862069587601278 1:42.726636 
0.05931061302759352 1:42.647607 
0.007558131536060865 1:42.911543 
0.011809016978519039 1:41.299209 
0.0035490206332505583 1:42.818749 
1.0 
1.0 
1.0 
1.0 
1.0 
1.0 
1.0 
1.0 
1.0 
1.0 
1.0 
1.0 
1.0 
1.0 
1.0 
1.0 
1.0 
1.0 
1.0 
1.0 
1.0 
1.0 
1.0 
1.0 
1.0 
1.0 
1.0 
1.0 
1.0 
1.0 
1.0 
1.0 
1.0 
1.0 
1.0 
1.0 
1.0 
1.0 
1.0 
1.0 
1.0 
1.0 
0.00473790319631071 1:70.72028 
0.010146146923556252 1:70.802704 
0.0021923449824735085 1:70.995542 
0.0016845294232243006 1:70.887485 
0.037576204112381564 1:71.274655 
0.32113283154397054 1:70.03118 
0.0013584452133238035 1:70.856998 
0.002438150617061026 1:70.680853 
0.40115044448566983 1:23.522815 
0.032160512939665556 1:22.589548 
9.330977371171736E-4 1:22.519967 
0.0037862663244293154 1:71.013364 
0.01174782880132495 1:71.065947 
0.00312478964251267 1:71.183325 
0.010649181956793072 1:41.12131 
0.02311813871891343 1:41.171578 
0.01176792267132563 1:41.129352 
0.0034512144841966946 1:20.438933 
0.01988230433146983 1:20.248763 
0.0492234196022845 1:20.349771 
0.004278171522672437 1:20.332855 
0.0018169868160868338 1:20.079159 
0.0314814800173854 1:20.209623 
0.23808668252802745 1:78.837922 
0.06320050660593671 1:73.51855 
0.0256058313206753 1:76.563825 
0.0034269831511312076 1:76.967913 
0.0013786813718003818 1:74.675742 
0.0030384655875149024 1:74.587223 
0.4421046067507949 1:72.485431 
0.24631592740775796 1:76.346298 
0.002936997841751009 1:13.797119 
0.01899704366037068 1:68.029612 
0.019644082103662766 1:69.353722 
0.06739479569683281 1:69.160244 
0.17556955909357674 1:67.965246 
0.0014302855007733576 1:68.027138 
0.026261212574735824 1:69.325133 
0.17583788861120858 1:82.870467 
0.3750680898894792 1:81.912523 
0.10227563408667135 1:86.882662 
0.004889203725526266 1:90.944196 
0.08021664441651036 1:85.130677 
0.27828134966985363 1:85.191579 
0.11018499318798101 1:83.213263 
0.08667546753699243 1:89.385874 
0.0956613519848397 1:80.831166 
0.12433137599918109 1:80.88233 
0.29185491326004614 1:88.389145 
0.040007707250453585 1:81.232977 
0.0749374676113741 1:90.846594 
0.24551469584250832 1:87.897152 
0.03242996317358514 1:85.0611 
0.38816911281526323 1:86.37108 
0.009421493691947934 1:85.411895 
0.015888387224781617 1:81.108259 
0.38564914500397485 1:84.081326 
0.010757396165106854 1:81.396844 
0.017708162377051105 1:85.430016 
0.13927121201792114 1:28.720002 
0.0016381026647109755 1:29.191726 
0.07908033461860395 1:26.710534 
0.0011109568309862895 1:26.635733 
0.008815693161325527 1:28.991397 
0.09115140027949398 1:28.856506 
0.011599344036613564 1:28.671301 
0.10933212968353229 1:28.770313 
0.052954031406701116 1:26.853097 
0.06647071205780089 1:29.689034 
0.002378233677762292 1:30.136132 
0.015440610103606377 1:31.202101 
0.0035448427858950707 1:31.374954 
0.0036556298397558717 1:31.507976 
0.012454191701707824 1:31.677086 
0.006410506638837608 1:31.297548 
0.015413190054135297 1:31.71577 
0.006311816546050342 1:31.414883 
0.02060981355098811 1:31.63643 
0.01171725986653993 1:31.327853 
0.005894458704181704 1:31.652692 
0.003869931791308796 1:31.430476 
1.0 
1.0 
1.0 
1.0 
1.0 
1.0 
1.0 
1.0 
1.0 
1.0 
1.0 
1.0 
1.0 
1.0 
1.0 
1.0 
1.0 
1.0 
1.0 
1.0 
1.0 
1.0 
1.0 
1.0 
1.0 
1.0 
1.0 
1.0 
1.0 
1.0 
1.0 
1.0 
1.0 
1.0 
1.0 
1.0 
1.0 
1.0 
1.0 
1.0 
1.0 
1.0 
0.0673642649405403 1:2.837501 
0.009169455510385185 1:2.832924 
0.0032339951431129316 1:2.920132 
0.007534174212723218 1:2.875917 
0.010362317409589794 1:2.930382 
0.006452270220349297 1:2.967353 
0.0021589901677433587 1:2.903402 
0.016855855106387117 1:2.850159 
0.005217080730343387 1:2.889691 
0.01106887262993421 1:2.884687 
0.015029112152134158 1:2.826561 
0.014659922817459384 1:2.86435 
0.011660976907825062 1:2.945269 
0.008853761382231005 1:2.978003 
0.011608906142909145 1:2.942962 
0.0030628997386203173 1:2.891107 
0.02175180197887933 1:2.948574 
0.01038080891044635 1:2.974941 
0.0018435250318647315 1:2.844974 
0.002194847329407254 1:2.859746 
0.012568744768128654 1:2.989153 
0.011695430154507448 1:2.927911 
0.0025925327789556667 1:2.916784 
0.017199066804101593 1:40.910801 
0.014523244767181037 1:39.719008 
0.026156484396255446 1:39.771124 
0.43805361983590163 1:39.880332 
0.027825370241473753 1:20.108503 
0.0113111474094139 1:20.247638 
0.24819027126923285 1:21.410465 
0.03793867412040786 1:20.406109 
0.11116314744019698 1:20.390969 
1.0 
1.0 
1.0 
1.0 
1.0 
1.0 
1.0 
1.0 
1.0 
1.0 
1.0 
1.0 
1.0 
1.0 
1.0 
1.0 
1.0 
1.0 
1.0 
1.0 
1.0 
1.0 
1.0 
1.0 
1.0 
1.0 
1.0 
1.0 
1.0 
1.0 
1.0 
1.0 
1.0 
1.0 
1.0 
1.0 
1.0 
1.0 
1.0 
1.0 
1.0 
1.0 
0.023645692744200312 1:14.135379 
0.0026387689667683113 1:14.082265 
0.0061746257327011415 1:41.14874 
0.035323978954629034 1:40.996394 
0.004845003651643226 1:41.333425 
0.011392508754032377 1:40.780669 
0.006434907243745574 1:41.245707 
0.030241822345692025 1:41.078044 
0.5314494178846223 1:8.990745 
0.013544985912306916 1:13.867935 
0.004091592109443216 1:14.238877 
0.007336731156172416 1:13.928863 
0.0032781005117862518 1:13.827669 
0.0029076482360072342 1:13.877434 
0.0017652609830261156 1:13.906921 
0.0029373525372216225 1:13.893862 
0.0030978882018973673 1:13.819711 
0.011784779930815718 1:14.160152 
0.004781103320864446 1:13.966757 
0.0024387704456919684 1:13.927929 
0.007428109485254512 1:13.930775 
0.004604343204343081 1:13.856618 
0.0039096096853446435 1:13.85115 
0.002376545706251584 1:13.979313 
0.001915563696662751 1:13.904272 
0.007102495440141768 1:22.217645 
0.02781350570181586 1:22.361966 
0.006279694576067186 1:22.233019 
0.01361416802551314 1:4.253082 
0.006517741921344999 1:4.328548 
0.01385766569290179 1:4.234735 
0.013255325485959075 1:4.291463 
0.005854081840386563 1:4.309295 
0.013133974669718967 1:4.300567 
0.028141704917251098 1:4.241469 
0.0021377349351452577 1:4.259718 
0.007623032610171838 1:4.339721 
0.00470347830436373 1:4.419736 
0.01274420853577641 1:73.926621 
0.13029225836519284 1:76.277017 
0.0026087040005053604 1:79.347851 
0.006923647223658609 1:76.808489 
9.026684956131778E-4 1:76.580342 
0.007399430705441513 1:78.279329 
0.013388511234943536 1:76.755874 
0.07830319502058132 1:78.629922 
0.3108385389883673 1:73.722728 
0.43719236637877223 1:77.575704 
0.06665265059285969 1:22.373108 
0.10827119136873904 1:22.280118 
0.01186848052618639 1:22.355345 
0.013407027452870444 1:4.274586 
0.011951001931426165 1:4.37705 
0.01574931036428481 1:4.363396 
0.02532909647552067 1:4.248399 
0.01212170284044148 1:4.317343 
0.013170604398841311 1:4.236423 
0.007642409032185901 1:4.335052 
0.007921446201953715 1:4.37124 
0.007218786045529447 1:4.373604 
0.0033101878915642023 1:4.322324 
0.005312585447035584 1:4.398184 
0.014461089071327989 1:4.342236 
0.01305870402764808 1:4.383841 
0.013515700788024852 1:4.251305 
0.014077639784547909 1:4.331839 
0.0017815033065810906 1:3.011026 
0.006611628869840116 1:3.008071 
0.007102268409721157 1:49.113278 
0.012725542789661376 1:49.608827 
1.0 
1.0 
1.0 
1.0 
1.0 
1.0 
1.0 
1.0 
1.0 
1.0 
1.0 
1.0 
1.0 
1.0 
1.0 
1.0 
1.0 
1.0 
1.0 
1.0 
1.0 
1.0 
1.0 
1.0 
1.0 
1.0 
1.0 
1.0 
1.0 
1.0 
1.0 
1.0 
1.0 
1.0 
1.0 
1.0 
1.0 
1.0 
1.0 
1.0 
1.0 
0.978631122137473 
0.027676000878456716 1:42.888165 
0.37566202134487653 1:41.730637 
0.03172459188667 1:14.226336 
0.00843511336259339 1:14.312074 
0.0021612526406129414 1:14.080005 
0.014091709205129792 1:14.17436 
0.003412961307516574 1:14.169486 
0.005071266554129414 1:14.27285 
0.010033926589094067 1:14.022492 
0.01515089238307597 1:14.149968 
0.021901594969214986 1:14.017354 
0.006686899892011923 1:2.997779 
0.002267567435860047 1:15.747631 
0.009349159615545003 1:15.848432 
0.004079270925426384 1:15.873612 
0.003210037508463274 1:15.802141 
0.003043114738409124 1:15.807466 
0.002167199616777389 1:15.4892 
0.001413710551366536 1:15.584865 
0.0010687953425056907 1:15.739203 
0.01574575389254107 1:22.404876 
0.03786317139491163 1:22.38702 
0.011628007868762221 1:22.300435 
0.2613020623589136 1:32.0 
0.0015714360908027072 1:15.64138 
9.888189716542053E-4 1:15.612616 
0.0013520266748510978 1:15.732668 
0.0016236631583479218 1:15.735505 
0.3269641308330861 1:15.095198 
-1.0 1:0.32884399406117615 2:15.0 
-0.4490246734531455 1:0.4380975056973136 2:17.0 
-1.0 1:0.34582887198960355 2:11.0 
-0.9270705282725529 1:0.39977060564589906 2:9.0 
-0.5896526615111621 1:0.029109957008505914 2:14.0 
-1.0 1:0.028169246584560503 2:14.0 
-0.995989132999406 1:0.37113936154363036 2:26.0 
-1.0 1:0.05615843956023077 2:23.0 
-0.29513380239758125 1:0.06593724864392604 2:28.0 
-0.7162811987046092 1:0.04929830212102915 2:19.0 
-0.6366857156307535 1:0.03736905913181255 2:29.0 
-0.4438423674893459 1:0.020837479136744188 2:7.0 
-0.40584385367695447 1:0.01990057553776399 2:10.0 
-0.6808046716895554 1:0.04584950551818614 2:20.0 
-0.042613320659674526 1:0.02932282447932382 2:21.0 
-0.04523122645374851 1:0.032504712528025684 2:17.0 
-1.0 1:0.39246994901571536 2:13.0 
-1.0 1:0.0 2:0.0 
-1.0 1:0.0 2:0.0 
-0.043384927809959103 1:0.3241537063856952 2:2.0 
-1.0 1:0.0 2:0.0 
-1.0 1:0.0 2:0.0 
-1.0 1:0.0 2:0.0 
-1.0 1:0.0 2:0.0 
-1.0 1:0.0 2:0.0 
-1.0 1:0.0 2:0.0 
-1.0 1:0.0 2:0.0 
-1.0 1:0.0 2:0.0 
-1.0 1:0.0 2:0.0 
-1.0 1:0.0 2:0.0 
-1.0 1:0.0 2:0.0 
-1.0 1:0.011608941640719002 2:5.0 
-0.9425205820427914 1:0.09174701093908971 2:39.0 
-0.33051942742105395 1:0.10328676779096671 2:30.0 
-1.0 1:0.0 2:0.0 
-1.0 1:0.0 2:0.0 
-1.0 1:0.0 2:0.0 
-1.0 1:0.0 2:0.0 
-1.0 1:0.0 2:0.0 
-1.0 1:0.0 2:0.0 
-1.0 1:0.0 2:0.0 
-1.0 1:0.0 2:0.0 
-1.0 1:0.0 2:0.0 
-1.0 1:0.0 2:0.0 
-1.0 1:0.0 2:0.0 
-1.0 1:0.0 2:0.0 
-1.0 1:0.0 2:0.0 
-1.0 1:0.0 2:0.0 
-1.0 1:0.0 2:0.0 
-1.0 1:0.0 2:0.0 
-0.19666652138289073 1:0.2676253174969155 2:5.0 
-1.0 1:0.0 2:0.0 
-1.0 1:0.0 2:0.0 
-1.0 1:0.2679926624428062 2:5.0 
-0.45431785067360964 1:0.36552646892133134 2:49.0 
-0.4384733034910948 1:0.35923150527149467 2:56.0 
-0.3550259152399798 1:0.16940348523959617 2:1.0 
-0.4429692487146646 1:0.1274314162178755 2:59.0 
-1.0 1:0.2342381209796709 2:66.0 
-0.05910735341263574 1:0.32824244100449146 2:48.0 
-0.8547368081813081 1:0.3410305840582109 2:29.0 
-0.4666050800220313 1:0.1089034730208796 2:38.0 
-0.4388145577540117 1:0.3829175189603476 2:21.0 
-1.0 1:0.0 2:0.0 
-1.0 1:0.0 2:0.0 
-1.0 1:0.0 2:0.0 
-1.0 1:0.0 2:0.0 
-1.0 1:0.0 2:0.0 
-1.0 1:0.23151963206929307 2:1.0 
-1.0 1:0.1924500897298753 2:1.0 
-1.0 1:0.0 2:0.0 
-1.0 1:0.0 2:0.0 
-1.0 1:0.0 2:0.0 
-1.0 1:0.0 2:0.0 
-1.0 1:0.0 2:0.0 
-1.0 1:0.0 2:0.0 
-1.0 1:0.0 2:0.0 
-1.0 1:0.0 2:0.0 
-1.0 1:0.0 2:0.0 
-1.0 1:0.0 2:0.0 
-1.0 1:0.0 2:0.0 
-1.0 1:0.0 2:0.0 
-1.0 1:0.36307400476392343 2:42.0 
-0.42744907579553315 1:0.2922485896511342 2:58.0 
-0.42777305977544033 1:0.3323170820127554 2:46.0 
-0.20151319541403506 1:0.33449037034937784 2:35.0 
-0.5070344565657823 1:0.3805602953348258 2:31.0 
-0.044667981592202366 1:0.2734574260823972 2:61.0 
-0.5960962083715922 1:0.29224407752969034 2:40.0 
-1.0 1:0.0 2:0.0 
-1.0 1:0.0 2:0.0 
-1.0 1:0.21737366192923088 2:1.0 
-1.0 1:0.0 2:0.0 
-1.0 1:0.0 2:0.0 
-1.0 1:0.0 2:0.0 
-1.0 1:0.0 2:0.0 
-0.8138094434431332 1:0.2995289632205007 2:14.0 
-1.0 1:0.0 2:0.0 
-1.0 1:0.0 2:0.0 
-1.0 1:0.0 2:0.0 
-1.0 1:0.0 2:0.0 
-1.0 1:0.0 2:0.0 
-1.0 1:0.0 2:0.0 
-1.0 1:0.0 2:0.0 
-1.0 1:0.0 2:0.0 
-1.0 1:0.0 2:0.0 
-1.0 1:0.0 2:0.0 
-1.0 1:0.0 2:0.0 
-1.0 1:0.0 2:0.0 
-0.6016028561712746 1:0.2724326171830238 2:32.0 
-1.0 1:0.3162283285024015 2:52.0 
-0.9556957758390696 1:0.3119412045902899 2:38.0 
-0.34732481946329546 1:0.3289134147783489 2:37.0 
-0.2859188065338695 1:0.3260664117564478 2:27.0 
-0.04020510677798956 1:0.30204102622085327 2:53.0 
-0.5075596337781998 1:0.2868817234184114 2:39.0 
-0.07337527805344901 1:0.07610403178414948 2:23.0 
-1.0 1:0.16061548045085242 2:70.0 
-0.18585050351585394 1:0.23616399396779844 2:78.0 
-0.38364767046575965 1:0.2542630438126398 2:74.0 
-0.3000490336281367 1:0.11073542368078797 2:47.0 
-1.0 1:0.3324678941656027 2:24.0 
-0.5589128701008875 1:0.3249503450001405 2:15.0 
-0.18179482300315927 1:0.30066820448214626 2:7.0 
-0.7698556408403407 1:0.3587368201837444 2:19.0 
-0.11667772515569269 1:0.3148057400616225 2:28.0 
-0.7744009422341918 1:0.3069918381198138 2:34.0 
-0.15110125108805617 1:0.35483475351089167 2:16.0 
-1.0 1:0.0 2:0.0 
-1.0 1:0.006016362691864378 2:3.0 
-1.0 1:0.0 2:0.0 
-1.0 1:0.0 2:0.0 
-1.0 1:0.0 2:0.0 
-1.0 1:0.0 2:0.0 
-1.0 1:0.0 2:0.0 
-1.0 1:0.0 2:0.0 
-1.0 1:0.0 2:0.0 
-1.0 1:0.0 2:0.0 
-1.0 1:0.0 2:0.0 
-1.0 1:0.0 2:0.0 
-1.0 1:0.0 2:0.0 
-1.0 1:0.0 2:0.0 
-1.0 1:0.0 2:0.0 
-1.0 1:0.0 2:0.0 
-1.0 1:0.0 2:0.0 
-1.0 1:0.0 2:0.0 
-1.0 1:0.0 2:0.0 
-1.0 1:0.0 2:0.0 
-1.0 1:0.0 2:0.0 
-1.0 1:0.0 2:0.0 
-1.0 1:0.0 2:0.0 
-1.0 1:0.0 2:0.0 
-1.0 1:0.0 2:0.0 
-1.0 1:0.0 2:0.0 
-1.0 1:0.0 2:0.0 
-1.0 1:0.0 2:0.0 
-1.0 1:0.0 2:0.0 
-1.0 1:0.0 2:0.0 
-1.0 1:0.0 2:0.0 
-1.0 1:0.0 2:0.0 
-1.0 1:0.0 2:0.0 
-1.0 1:0.0 2:0.0 
-1.0 1:0.0 2:0.0 
-1.0 1:0.0 2:0.0 
-1.0 1:0.0 2:0.0 
-1.0 1:0.0 2:0.0 
-1.0 1:0.0 2:0.0 
-1.0 1:0.0 2:0.0 
-1.0 1:0.0 2:0.0 
-1.0 1:0.0 2:0.0 
-1.0 1:0.0 2:0.0 
-1.0 1:0.0 2:0.0 
-1.0 1:0.0 2:0.0 
-1.0 1:0.0 2:0.0 
-1.0 1:0.0 2:0.0 
-1.0 1:0.0 2:0.0 
-1.0 1:0.0 2:0.0 
-1.0 1:0.0 2:0.0 
-1.0 1:0.0 2:0.0 
-1.0 1:0.0 2:0.0 
-1.0 1:0.0 2:0.0 
-1.0 1:0.0 2:0.0 
-1.0 1:0.0 2:0.0 
-1.0 1:0.0 2:0.0 
-1.0 1:0.0 2:0.0 
-1.0 1:0.0 2:0.0 
-1.0 1:0.0 2:0.0 
-1.0 1:0.0 2:0.0 
-1.0 1:0.0 2:0.0 
-1.0 1:0.0 2:0.0 
-1.0 1:0.0 2:0.0 
-1.0 1:0.0 2:0.0 
-1.0 1:0.0 2:0.0 
-1.0 1:0.0 2:0.0 
-1.0 1:0.0 2:0.0 
-1.0 1:0.0 2:0.0 
-1.0 1:0.0 2:0.0 
-1.0 1:0.0 2:0.0 
-1.0 1:0.0 2:0.0 
-1.0 1:0.0 2:0.0 
-1.0 1:0.0 2:0.0 
-1.0 1:0.0 2:0.0 
-1.0 1:0.0 2:0.0 
-1.0 1:0.0 2:0.0 
-1.0 1:0.0 2:0.0 
-1.0 1:0.0 2:0.0 
-1.0 1:0.0 2:0.0 
-1.0 1:0.0 2:0.0 
-1.0 1:0.0 2:0.0 
-1.0 1:0.0 2:0.0 
-1.0 1:0.0 2:0.0 
-0.4189368616552269 1:0.18745375185504318 2:61.0 
-0.7886630387692807 1:0.22581666082174057 2:80.0 
-1.0 1:0.2805072584467611 2:44.0 
-0.6530046260775768 1:0.213910472809653 2:87.0 
-0.890572034600195 1:0.20364705359791282 2:76.0 
-0.10942612035614513 1:0.25148167646842395 2:81.0 
-0.11438089788916043 1:0.2722730503773309 2:69.0 
-0.01216302396757329 1:0.2539837195207457 2:77.0 
-0.4051907250063036 1:0.28020528494646335 2:54.0 
-0.36528902572061583 1:0.09890015563010991 2:48.0 
-0.4391437469064994 1:0.11321967320657808 2:42.0 
-1.0 1:0.06443137803858158 2:22.0 
-1.0 1:0.0 2:0.0 
-1.0 1:0.03471303544621778 2:13.0 
-1.0 1:0.0 2:0.0 
-0.598007958538133 1:0.044647287303695944 2:9.0 
-0.6517714315753111 1:0.02684975866626966 2:11.0 
-1.0 1:0.016379188693594084 2:8.0 
-0.019578965701611918 1:0.3364624008624396 2:12.0 
-1.0 1:0.3481836590891369 2:13.0 
-1.0 1:0.3500043750820329 2:4.0 
-1.0 1:0.31655967225990317 2:14.0 
-0.8211759993235023 1:0.31328156279972236 2:11.0 
-0.736972405342714 1:0.3295137140268013 2:67.0 
-1.0 1:0.24946439418356237 2:80.0 
-0.6526355711670015 1:0.292280358520651 2:78.0 
-0.07552505292689035 1:0.22429891831062992 2:88.0 
-0.6032160754901332 1:0.2945360841295446 2:88.0 
-0.7566713034221875 1:0.18871087983307974 2:82.0 
-1.0 1:0.15595998168478611 2:93.0 
-1.0 1:0.3099694605146866 2:70.0 
-0.7516183568193399 1:0.23166629574640782 2:65.0 
-0.013689059472144343 1:0.21970407720146606 2:82.0 
-1.0 1:0.19219683907792878 2:71.0 
-1.0 1:0.22368914659754333 2:72.0 
-0.9608128607575805 1:0.2612242234101734 2:84.0 
-0.40896711815793524 1:0.2737130423573243 2:60.0 
-0.43506281688893444 1:0.13876705978134174 2:55.0 
-0.4254931009579755 1:0.2654558670555447 2:73.0 
-0.831167732116262 1:0.13220719055566885 2:51.0 
-1.0 1:0.29343709912475424 2:32.0 
-1.0 1:0.3067193264458395 2:32.0 
-1.0 1:0.35228590854687275 2:35.0 
-0.05357429589959357 1:0.3837650491798443 2:18.0 
-1.0 1:0.38424183924573724 2:22.0 
-0.008868379145944454 1:0.30931501719396026 2:22.0 
-1.0 1:0.3577761557275027 2:23.0 
-0.3290047689495429 1:0.3166434603311372 2:6.0 
-1.0 1:0.0 2:0.0 
-1.0 1:0.0 2:0.0 
-1.0 1:0.0 2:0.0 
-1.0 1:0.0 2:0.0 
-1.0 1:0.0 2:0.0 
-1.0 1:0.0 2:0.0 
-1.0 1:0.0 2:0.0 
-1.0 1:0.0 2:0.0 
-1.0 1:0.0 2:0.0 
-1.0 1:0.0 2:0.0 
-1.0 1:0.0 2:0.0 
-1.0 1:0.0 2:0.0 
-1.0 1:0.0 2:0.0 
-1.0 1:0.0 2:0.0 
-1.0 1:0.0 2:0.0 
-1.0 1:0.0 2:0.0 
-1.0 1:0.0 2:0.0 
-1.0 1:0.0 2:0.0 
-1.0 1:0.0 2:0.0 
-1.0 1:0.0 2:0.0 
-1.0 1:0.0 2:0.0 
-1.0 1:0.0 2:0.0 
-1.0 1:0.0 2:0.0 
-1.0 1:0.0 2:0.0 
-1.0 1:0.0 2:0.0 
-1.0 1:0.0 2:0.0 
-1.0 1:0.0 2:0.0 
-1.0 1:0.0 2:0.0 
-1.0 1:0.0 2:0.0 
-1.0 1:0.0 2:0.0 
-1.0 1:0.0 2:0.0 
-1.0 1:0.0 2:0.0 
-1.0 1:0.0 2:0.0 
-1.0 1:0.0 2:0.0 
-1.0 1:0.0 2:0.0 
-1.0 1:0.0 2:0.0 
-1.0 1:0.0 2:0.0 
-1.0 1:0.0 2:0.0 
-1.0 1:0.0 2:0.0 
-1.0 1:0.0 2:0.0 
-1.0 1:0.0 2:0.0 
-1.0 1:0.0 2:0.0 
-1.0 1:0.0 2:0.0 
-1.0 1:0.0 2:0.0 
-1.0 1:0.0 2:0.0 
-1.0 1:0.0 2:0.0 
-1.0 1:0.08457213531909114 2:43.0 
-0.10595490268081313 1:0.12056837345631881 2:37.0 
-0.45570703101777177 1:0.052118006616346496 2:26.0 
-1.0 1:0.0 2:0.0 
-1.0 1:0.0 2:0.0 
-1.0 1:0.0 2:0.0 
-1.0 1:0.0 2:0.0 
-1.0 1:0.0 2:0.0 
-1.0 1:0.0 2:0.0 
-1.0 1:7.617120541322989E-4 2:1.0 
-1.0 1:0.0 2:0.0 
-1.0 1:0.0 2:0.0 
-1.0 1:0.0 2:0.0 
-1.0 1:0.0 2:0.0 
-1.0 1:0.0 2:0.0 
-1.0 1:8.840456239394523E-4 2:1.0 
-1.0 1:0.0 2:0.0 
-1.0 1:0.0 2:0.0 
-1.0 1:0.0 2:0.0 
-1.0 1:0.0 2:0.0 
-1.0 1:0.0 2:0.0 
-1.0 1:0.0 2:0.0 
-1.0 1:0.0 2:0.0 
-1.0 1:0.0 2:0.0 
-1.0 1:0.0 2:0.0 
-1.0 1:0.0 2:0.0 
-1.0 1:0.002222790011774431 2:3.0 
-1.0 1:0.0 2:0.0 
-1.0 1:0.0 2:0.0 
-1.0 1:8.385474463977203E-4 2:1.0 
-1.0 1:0.0 2:0.0 
-1.0 1:0.0 2:0.0 
-1.0 1:0.0 2:0.0 
-1.0 1:0.0 2:0.0 
-1.0 1:0.0 2:0.0 
-1.0 1:0.0 2:0.0 
-1.0 1:0.0 2:0.0 
-1.0 1:0.0 2:0.0 
-0.5229731815050087 1:0.0014169566115583788 2:1.0 
-1.0 1:0.0 2:0.0 
-1.0 1:0.0 2:0.0 
-1.0 1:0.0 2:0.0 
-1.0 1:0.0 2:0.0 
-1.0 1:0.0 2:0.0 
-1.0 1:0.0 2:0.0 
-1.0 1:0.0 2:0.0 
-1.0 1:0.0 2:0.0 
-1.0 1:0.0 2:0.0 
-1.0 1:0.0 2:0.0 
-1.0 1:0.0 2:0.0 
-1.0 1:0.0 2:0.0 
-1.0 1:0.0 2:0.0 
-1.0 1:0.0 2:0.0 
-1.0 1:0.0 2:0.0 
-1.0 1:0.0 2:0.0 
-1.0 1:0.0 2:0.0 
-1.0 1:0.0 2:0.0 
-1.0 1:0.0 2:0.0 
-1.0 1:0.0 2:0.0 
-1.0 1:0.0 2:0.0 
-1.0 1:2.3393932104038979E-4 2:1.0 
-1.0 1:0.0 2:0.0 
-1.0 1:0.0 2:0.0 
-1.0 1:0.0 2:0.0 
-1.0 1:0.0 2:0.0 
-1.0 1:0.0 2:0.0 
-1.0 1:0.0 2:0.0 
-1.0 1:0.0 2:0.0 
-1.0 1:0.0 2:0.0 
-1.0 1:0.0 2:0.0 
-1.0 1:0.0 2:0.0 
-0.20397609562506233 1:0.039902544220720024 2:13.0 
-1.0 1:0.0 2:0.0 
-1.0 1:0.0 2:0.0 
-1.0 1:0.0 2:0.0 
-1.0 1:0.0 2:0.0 
-1.0 1:0.0 2:0.0 
-1.0 1:0.0 2:0.0 
-1.0 1:0.0 2:0.0 
-1.0 1:0.0 2:0.0 
-1.0 1:0.28032769957456444 2:32.0 
-0.4192259847682417 1:0.3444166594868956 2:8.0 
-0.2206936832112342 1:0.24952922651821607 2:64.0 
-0.1813226819146897 1:0.27384773861073364 2:43.0 
-1.0 1:0.0 2:0.0 
-1.0 1:0.295032392885835 2:32.0 
-1.0 1:0.0 2:0.0 
-1.0 1:0.0 2:0.0 
-1.0 1:0.0 2:0.0 
-1.0 1:0.0 2:0.0 
-1.0 1:0.0 2:0.0 
-1.0 1:0.0 2:0.0 
-0.13834498995483474 1:0.3128457853941656 2:47.0 
-0.3674423673728623 1:0.31679311879263156 2:62.0 
-0.4159117538725594 1:0.10313945024533312 2:53.0 
-0.4928775767358234 1:0.32862705381312657 2:33.0 
-0.2713147037279395 1:0.1145403775731115 2:41.0 
-0.6177066030771093 1:0.08338401952989898 2:34.0 
-0.1753255560760701 1:0.3294247753446717 2:25.0 
-0.17129831552174657 1:0.3478453917246642 2:41.0 
-0.6359357173997933 1:0.3390022085783643 2:51.0 
-0.44060321086871695 1:0.1052392691827666 2:45.0 
-1.0 1:0.08516277107469869 2:24.0 
-0.04574214018505906 1:0.32790032305954275 2:30.0 
-0.2631092250517198 1:0.0715063385464935 2:25.0 
-1.0 1:0.0 2:0.0 
-1.0 1:0.0 2:0.0 
-1.0 1:0.0 2:0.0 
-1.0 1:0.010205275495284884 2:5.0 
-1.0 1:0.0 2:0.0 
-1.0 1:0.0 2:0.0 
-1.0 1:0.0 2:0.0 
-0.037971449936015096 1:0.006839245470404127 2:4.0 
-0.8057764305669318 1:0.008681175050500804 2:6.0 
-1.0 1:0.0 2:0.0 
-0.8318538030486654 1:0.014523563500513944 2:5.0 
-0.9234368630706191 1:0.020719709665818178 2:8.0 
-1.0 1:0.0 2:0.0 
-1.0 1:0.0 2:0.0 
-0.9761296070598582 1:0.00609529515078491 2:3.0 
-1.0 1:0.0 2:0.0 
-1.0 1:0.0 2:0.0 
-1.0 1:0.0 2:0.0 
-1.0 1:0.0 2:0.0 
-1.0 1:0.0 2:0.0 
-1.0 1:0.005271592514972195 2:3.0 
-1.0 1:0.0 2:0.0 
-1.0 1:0.00556408564413367 2:4.0 
-1.0 1:0.005263400901311515 2:3.0 
-1.0 1:0.0 2:0.0 
-1.0 1:0.0 2:0.0 
-1.0 1:0.0 2:0.0 
-1.0 1:0.0 2:0.0 
-1.0 1:0.0 2:0.0 
-1.0 1:0.0 2:0.0 
-1.0 1:0.0 2:0.0 
-0.3021262817157642 1:0.16004414073235626 2:68.0 
-0.20975238346678274 1:0.17943293606508995 2:69.0 
-0.5532382454017262 1:0.11970362264739565 2:63.0 
-0.5313816981390282 1:0.185846399383056 2:73.0 
-0.40430963427656397 1:0.17565949145185378 2:52.0 
-1.0 1:0.0 2:0.0 
-1.0 1:0.0 2:0.0 
-1.0 1:0.0 2:0.0 
-1.0 1:0.0 2:0.0 
-1.0 1:0.0 2:0.0 
-1.0 1:0.0 2:0.0 
-1.0 1:0.0 2:0.0 
-1.0 1:0.0 2:0.0 
-1.0 1:0.0 2:0.0 
-1.0 1:0.0 2:0.0 
-1.0 1:0.0 2:0.0 
-1.0 1:0.0 2:0.0 
-0.42442701834135776 1:0.2668575340641599 2:44.0 
-0.2595798964120618 1:0.10605532559102473 2:43.0 
-1.0 1:0.0 2:0.0 
-0.3432192181146722 1:0.062284267370336086 2:18.0 
-0.2588386530371651 1:0.05588516846468873 2:16.0 
-1.0 1:0.044254454263934845 2:16.0 
-1.0 1:0.0 2:0.0 
-0.4037163678454423 1:0.17648917199999978 2:50.0 
-0.011088382630239918 1:0.1356719546006934 2:54.0 
-0.4256967000113067 1:0.18349114980436765 2:57.0 
-1.0 1:0.0 2:0.0 
-1.0 1:0.0 2:0.0 
-1.0 1:0.0 2:0.0 
-1.0 1:0.0 2:0.0 
-1.0 1:0.0 2:0.0 
-1.0 1:0.0 2:0.0 
-1.0 1:0.0 2:0.0 
-1.0 1:0.0 2:0.0 
-1.0 1:0.0 2:0.0 
-1.0 1:0.0 2:0.0 
-1.0 1:0.0 2:0.0 
-1.0 1:0.0 2:0.0 
-1.0 1:0.0 2:0.0 
-1.0 1:0.0 2:0.0 
-1.0 1:0.0 2:0.0 
-1.0 1:0.0 2:0.0 
-1.0 1:0.0 2:0.0 
-1.0 1:0.0 2:0.0 
-1.0 1:0.0 2:0.0 
-1.0 1:0.0 2:0.0 
-1.0 1:0.0 2:0.0 
-1.0 1:0.0 2:0.0 
-1.0 1:0.0 2:0.0 
-1.0 1:0.0 2:0.0 
-1.0 1:0.0 2:0.0 
-1.0 1:0.0 2:0.0 
-1.0 1:0.0 2:0.0 
-1.0 1:0.0 2:0.0 
-0.40544099396690414 1:0.11505442054488765 2:36.0 
-0.8268378706888507 1:0.12277365115125208 2:40.0 
-0.2758454949674438 1:0.09110405836252142 2:35.0 
-0.9177472782419097 1:0.05057420261604492 2:15.0 
-0.1539787422731268 1:0.09032945319700027 2:27.0 
-1.0 1:0.0 2:0.0 
-0.40663248419062187 1:0.03238542562260828 2:12.0 
-1.0 1:0.0 2:0.0 
-1.0 1:0.3445743665557053 2:6.0 
-1.0 1:0.0 2:0.0 
-1.0 1:0.0 2:0.0 
-1.0 1:0.0 2:0.0 
-1.0 1:0.0 2:0.0 
-1.0 1:0.0 2:0.0 
-1.0 1:0.0 2:0.0 
-1.0 1:0.0 2:0.0 
-1.0 1:0.0 2:0.0 
-1.0 1:0.0 2:0.0 
-1.0 1:0.0 2:0.0 
-1.0 1:0.0 2:0.0 
-1.0 1:0.0 2:0.0 
-1.0 1:0.0 2:0.0 
-1.0 1:0.0 2:0.0 
-1.0 1:0.0 2:0.0 
-1.0 1:0.0 2:0.0 
-1.0 1:0.0 2:0.0 
-1.0 1:0.0 2:0.0 
-1.0 1:0.0 2:0.0 
-1.0 1:0.0 2:0.0 
-1.0 1:0.0 2:0.0 
-0.7307961996884333 1:0.3540585938967399 2:20.0 
-1.0 1:0.3628928238473988 2:5.0 
-0.4070964806839532 1:0.3402366136669188 2:23.0 
-0.43628605298118206 1:0.32449292930659196 2:24.0 
-0.2895400722866543 1:0.3398011551735141 2:13.0 
-1.0 1:0.37499999999999994 2:3.0 
-1.0 1:0.0 2:0.0 
-1.0 1:0.0 2:0.0 
-0.5092724345557381 1:0.34278334762044216 2:4.0 
-1.0 1:0.0 2:0.0 
-0.05099675139663421 1:0.35435697797123883 2:3.0 
-1.0 1:0.3621637175290622 2:3.0 
-1.0 1:0.0 2:0.0 
-1.0 1:0.0 2:0.0 
-0.7502501349943027 1:0.08700585461716155 2:32.0 
-1.0 1:0.08623997535672565 2:24.0 
-0.41631698079017415 1:0.06596004775277947 2:22.0 
