svm_type c_svc
kernel_type rbf
gamma 0.25
nr_class 2
total_sv 4
rho 0.6083625617560057
label 1 -1
probA 4.338272872774823
probB 3.7321443599657997
nr_sv 1 3
SV
1.0 1:0.0 2:1.0 3:0.4234495146037867 4:15.0 
-0.35100722449388366 1:14.0 2:0.25387913423096475 3:0.1015615377584917 4:7.0 
-0.2972920700486564 1:12.0 2:0.10016708449412667 3:0.046333432630846036 4:9.0 
-0.35170070545745996 1:10.0 2:0.09173411178551379 3:0.16453672529221414 4:11.0 
